{
  "version": "1.0",
  "metadata": {
    "architecture": [
      64,
      128,
      64,
      4
    ],
    "trainedGenerations": 500,
    "fitnessScore": 0.65,
    "trainingDate": "2024-01-01T12:00:00Z",
    "trainingConfig": {
      "populationSize": 50,
      "mutationRate": 0.15,
      "crossoverRate": 0.8,
      "elitismRate": 0.2,
      "gameTimeLimit": 45000,
      "gamesPerAgent": 3
    },
    "description": "Example neural network focused on exploration and basic apple collection",
    "authorInfo": "MinuteSnake Example Training"
  },
  "layers": [
    {
      "inputSize": 64,
      "outputSize": 128,
      "weights": [
        [
          -0.088,
          -0.088,
          -0.111,
          0.061,
          -0.12,
          0.163,
          -0.069,
          0.052,
          0.054,
          0.269,
          0.081,
          -0.073,
          0.081,
          -0.135,
          -0.142,
          0.195,
          0.241,
          0.049,
          -0.002,
          0.159,
          0.119,
          0.172,
          0.026,
          0.239,
          -0.107,
          0.176,
          0.205,
          -0.115,
          0.074,
          -0.056,
          0.239,
          0.2,
          -0.155,
          0.2,
          -0.063,
          0.153,
          -0.106,
          -0.195,
          -0.108,
          -0.174,
          0.061,
          0.221,
          -0.041,
          0.175,
          0.162,
          0.06,
          -0.018,
          -0.142,
          0.139,
          0.07,
          -0.157,
          0.256,
          0.076,
          0.022,
          0.273,
          -0.162,
          -0.022,
          0.204,
          0.008,
          -0.009,
          0.038,
          -0.002,
          -0.004,
          0.159
        ],
        [
          -0.165,
          0.006,
          0.049,
          -0.068,
          0.174,
          0.221,
          0.008,
          -0.137,
          0.25,
          0.038,
          0.147,
          -0.089,
          -0.076,
          -0.025,
          -0.124,
          0.21,
          0.01,
          0.232,
          -0.134,
          -0.128,
          -0.003,
          0.003,
          0.19,
          0.118,
          0.027,
          0.215,
          -0.149,
          0.051,
          -0.162,
          -0.003,
          0.245,
          0.083,
          0.222,
          -0.103,
          -0.179,
          -0.04,
          0.213,
          0.107,
          0.043,
          -0.077,
          0.135,
          0.105,
          0.224,
          0.221,
          -0.015,
          0.198,
          0.18,
          -0.114,
          -0.077,
          0.064,
          0.143,
          0,
          0.153,
          0.293,
          0.289,
          0.217,
          0.143,
          0.105,
          0.081,
          -0.154,
          0.261,
          0.188,
          -0.007,
          -0.135
        ],
        [
          -0.139,
          -0.169,
          0.196,
          -0.101,
          0.231,
          0.009,
          0.206,
          0.194,
          0.285,
          0.148,
          0.071,
          0.208,
          0.019,
          -0.147,
          -0.01,
          0.109,
          0.237,
          -0.03,
          -0.109,
          0.297,
          -0.096,
          0.038,
          0.178,
          0.067,
          -0.163,
          0.294,
          0.177,
          -0.122,
          0.062,
          -0.165,
          -0.011,
          0.01,
          0.136,
          0.252,
          -0.052,
          0.292,
          -0.074,
          0.076,
          -0.043,
          -0.075,
          0.011,
          0.193,
          0.267,
          -0.014,
          -0.087,
          0.08,
          0.188,
          0.215,
          0.202,
          0.203,
          -0.148,
          -0.197,
          0.227,
          -0.034,
          0.137,
          -0.171,
          0.025,
          0.179,
          0.258,
          0.167,
          0.038,
          0.086,
          -0.058,
          -0.057
        ],
        [
          -0.005,
          -0.146,
          -0.077,
          0.145,
          0.155,
          -0.126,
          0.037,
          0.138,
          -0.046,
          -0.178,
          0.168,
          -0.162,
          -0.106,
          0.108,
          0.238,
          -0.183,
          0.188,
          0.198,
          0.27,
          0.205,
          0.132,
          0.156,
          0.279,
          0.181,
          0.246,
          0.198,
          0.287,
          0.06,
          -0.019,
          0.24,
          0.134,
          0.173,
          0.29,
          0.228,
          0.137,
          0.261,
          -0.132,
          0.141,
          0.015,
          -0.114,
          0.169,
          0.109,
          0.104,
          -0.077,
          0.144,
          0.138,
          -0.18,
          0.029,
          0.021,
          0.052,
          -0.021,
          -0.017,
          0.028,
          -0.057,
          0.126,
          0.127,
          0.002,
          -0.159,
          0.203,
          -0.013,
          0.074,
          0.099,
          -0.061,
          -0.175
        ],
        [
          -0.115,
          0.083,
          0.137,
          0.206,
          -0.129,
          0.112,
          0.176,
          -0.171,
          0.298,
          -0.18,
          -0.122,
          0.158,
          -0.194,
          0.296,
          -0.05,
          0.247,
          -0.085,
          -0.158,
          0.219,
          -0.02,
          0.015,
          0.094,
          -0.14,
          -0.045,
          -0.006,
          -0.194,
          -0.177,
          0.184,
          0.025,
          0.151,
          -0.065,
          0.088,
          -0.022,
          -0.198,
          0.014,
          0.085,
          -0.156,
          0.104,
          0.266,
          0.055,
          0.293,
          0.254,
          0.116,
          0.195,
          0.19,
          0.224,
          -0.057,
          -0.12,
          -0.168,
          -0.114,
          0.073,
          0.001,
          -0.071,
          -0.182,
          0.199,
          -0.199,
          0.257,
          0.244,
          -0.018,
          -0.147,
          0.234,
          -0.053,
          -0.19,
          0.219
        ],
        [
          -0.182,
          -0.013,
          0.021,
          0.261,
          0.06,
          -0.095,
          0.229,
          0.035,
          -0.153,
          -0.143,
          -0.104,
          0.103,
          0.051,
          -0.02,
          -0.011,
          0.008,
          -0.026,
          -0.122,
          0.236,
          0.052,
          -0.19,
          0.196,
          0.251,
          0.067,
          -0.088,
          0.135,
          0.269,
          0.287,
          0.201,
          0.202,
          0.037,
          0.144,
          -0.096,
          -0.099,
          0.109,
          -0.184,
          0.286,
          0.09,
          0.021,
          -0.002,
          0.146,
          0.005,
          -0.181,
          -0.02,
          -0.039,
          0.115,
          0.295,
          -0.005,
          0.143,
          -0.12,
          0,
          0.173,
          0.269,
          -0.097,
          0.248,
          -0.19,
          0.12,
          -0.023,
          -0.197,
          -0.101,
          0.14,
          0.069,
          -0.189,
          -0.104
        ],
        [
          0.211,
          0.217,
          -0.158,
          0.158,
          0.289,
          -0.163,
          -0.136,
          -0.194,
          -0.039,
          0.227,
          -0.011,
          0.252,
          -0.019,
          0.15,
          0.153,
          0.273,
          0.225,
          0.227,
          0.14,
          0.037,
          0.175,
          -0.183,
          0.188,
          -0.061,
          0.246,
          -0.19,
          -0.106,
          0.19,
          0.196,
          -0.094,
          -0.11,
          0.014,
          -0.14,
          -0.041,
          0.264,
          -0.107,
          -0.13,
          0.063,
          -0.019,
          -0.126,
          0.195,
          0.133,
          0.276,
          0.18,
          0.157,
          0.019,
          0.137,
          0.192,
          -0.096,
          0.281,
          -0.047,
          -0.184,
          0.082,
          -0.01,
          0.056,
          0.032,
          0.025,
          0.181,
          0.204,
          -0.159,
          0.003,
          -0.125,
          -0.1,
          -0.069
        ],
        [
          -0.072,
          -0.014,
          0.279,
          0.155,
          0.146,
          -0.127,
          -0.106,
          0.174,
          0.176,
          0.188,
          0.059,
          0.284,
          -0.126,
          0.188,
          -0.171,
          -0.043,
          -0.085,
          0.162,
          0.119,
          0.021,
          0.211,
          0.036,
          0.263,
          0.177,
          0.286,
          0.01,
          -0.106,
          0.038,
          0.13,
          0.043,
          -0.136,
          0.205,
          -0.037,
          -0.004,
          0.091,
          0.092,
          0.275,
          -0.091,
          -0.156,
          -0.071,
          -0.144,
          -0.158,
          -0.022,
          0.163,
          0.006,
          0.022,
          -0.052,
          0.06,
          -0.164,
          0.126,
          -0.077,
          0.21,
          -0.122,
          0.196,
          0.049,
          0.06,
          0.29,
          0.019,
          0.106,
          0.03,
          -0.143,
          0.14,
          0.042,
          -0.101
        ],
        [
          0.139,
          -0.117,
          0.035,
          -0.105,
          -0.188,
          0.277,
          0.138,
          0.268,
          -0.047,
          -0.18,
          -0.02,
          0.073,
          0.096,
          0.092,
          -0.03,
          0.253,
          -0.12,
          -0.181,
          0.226,
          0.039,
          0.155,
          0.224,
          0.077,
          0.201,
          0.013,
          0.106,
          0.181,
          0.298,
          -0.14,
          0.218,
          0.257,
          0,
          0.222,
          0.29,
          0.223,
          0.18,
          -0.036,
          0.134,
          0.259,
          0.085,
          0.111,
          -0.039,
          0.196,
          0.107,
          0.073,
          0.3,
          0.22,
          -0.137,
          0.276,
          0.136,
          0.106,
          -0.131,
          -0.183,
          -0.161,
          0.185,
          0.189,
          0.175,
          -0.103,
          -0.134,
          -0.146,
          0.038,
          0.294,
          -0.137,
          -0.11
        ],
        [
          -0.024,
          0.012,
          0.186,
          -0.025,
          0.26,
          -0.02,
          0.068,
          -0.096,
          0.241,
          0.086,
          0.066,
          -0.073,
          0.045,
          0.209,
          0.026,
          -0.197,
          -0.172,
          0.172,
          0.228,
          0.037,
          -0.19,
          0.202,
          0.125,
          -0.073,
          0.285,
          0.236,
          0.224,
          0.031,
          0.177,
          -0.163,
          0.05,
          0.103,
          -0.147,
          0.283,
          -0.021,
          -0.019,
          0.24,
          -0.029,
          0.247,
          -0.073,
          0.03,
          0.114,
          0.109,
          0.217,
          0.015,
          0.037,
          -0.033,
          -0.097,
          -0.128,
          0.198,
          0.142,
          -0.196,
          0.159,
          0.217,
          0.236,
          0.027,
          0.21,
          0.14,
          -0.077,
          -0.129,
          0.185,
          -0.022,
          -0.104,
          0.077
        ],
        [
          0.227,
          0.139,
          0.264,
          0.038,
          0.075,
          0.241,
          0.204,
          0.214,
          -0.145,
          -0.15,
          0.185,
          -0.014,
          0.173,
          0.152,
          -0.052,
          0.252,
          -0.144,
          0.249,
          0.265,
          -0.039,
          0.119,
          -0.181,
          0.276,
          -0.085,
          0.092,
          -0.044,
          0.242,
          0.213,
          -0.108,
          0.296,
          -0.028,
          0.221,
          -0.137,
          0.249,
          -0.151,
          -0.055,
          0.027,
          -0.193,
          -0.062,
          0.24,
          0.293,
          0.04,
          0.139,
          0.071,
          0.05,
          -0.027,
          0.029,
          0.231,
          -0.166,
          0.151,
          -0.18,
          -0.029,
          0.132,
          -0.062,
          0.162,
          0.132,
          -0.017,
          0.084,
          0.211,
          0.102,
          0.211,
          0.061,
          -0.062,
          0.19
        ],
        [
          -0.011,
          0.218,
          0.199,
          0.136,
          0.114,
          0.171,
          0.227,
          0.046,
          0.214,
          0.184,
          -0.195,
          -0.002,
          -0.039,
          0.236,
          0.046,
          -0.194,
          0.092,
          0.119,
          0.294,
          -0.15,
          0.187,
          -0.026,
          -0.179,
          0.004,
          0.257,
          -0.004,
          0.088,
          -0.098,
          0.266,
          0.148,
          -0.057,
          0.038,
          0.05,
          0.162,
          -0.128,
          0.27,
          -0.013,
          -0.085,
          0.209,
          -0.075,
          -0.008,
          0.164,
          -0.19,
          -0.086,
          0.199,
          -0.191,
          -0.07,
          -0.105,
          -0.198,
          -0.07,
          0.11,
          0.047,
          -0.136,
          -0.133,
          0.101,
          -0.049,
          -0.153,
          0.081,
          0.04,
          0.227,
          0.223,
          0.029,
          -0.18,
          -0.121
        ],
        [
          0.078,
          -0.04,
          -0.146,
          0.169,
          0.176,
          0.077,
          -0.194,
          -0.106,
          0.288,
          -0.078,
          0.055,
          0.155,
          0.053,
          -0.173,
          -0.034,
          0.217,
          0.029,
          0.186,
          0.097,
          0.122,
          -0.095,
          0.168,
          0.289,
          0.166,
          0.281,
          -0.078,
          0.035,
          0.085,
          -0.043,
          0.034,
          -0.117,
          -0.084,
          0.257,
          -0.195,
          -0.189,
          0.067,
          0.263,
          -0.085,
          0.014,
          0.05,
          -0.108,
          -0.174,
          -0.107,
          0.298,
          0.046,
          -0.159,
          -0.1,
          0.1,
          0.052,
          -0.195,
          0.222,
          0.269,
          -0.089,
          0.202,
          -0.122,
          0.129,
          -0.071,
          -0.003,
          0.177,
          -0.174,
          0.203,
          0.285,
          0.241,
          0.086
        ],
        [
          0.045,
          0.225,
          -0.019,
          0.265,
          -0.087,
          0.215,
          -0.001,
          -0.011,
          -0.119,
          -0.184,
          -0.107,
          0.255,
          0.012,
          0.284,
          0.043,
          -0.098,
          -0.053,
          0.186,
          -0.148,
          0.025,
          -0.071,
          -0.064,
          -0.13,
          -0.131,
          0.052,
          0.001,
          0.142,
          -0.003,
          -0.077,
          0.087,
          0.185,
          0.219,
          0.027,
          0.053,
          0.052,
          0.233,
          -0.176,
          -0.005,
          0.092,
          0.058,
          0.179,
          0.149,
          -0.186,
          0.124,
          -0.148,
          0.045,
          0.052,
          0.282,
          -0.2,
          0.165,
          -0.189,
          0.194,
          0.111,
          0.219,
          0.27,
          0.291,
          0.226,
          -0.142,
          0.142,
          -0.136,
          -0.018,
          0.144,
          -0.103,
          0.174
        ],
        [
          -0.096,
          0.016,
          0.292,
          0.182,
          0.047,
          0.114,
          0.25,
          0.134,
          0.253,
          -0.098,
          0.066,
          0.265,
          -0.09,
          -0.121,
          -0.118,
          0.145,
          0.282,
          0.042,
          0.098,
          0.001,
          0.298,
          0.107,
          0.085,
          -0.176,
          -0.024,
          0.257,
          -0.026,
          0.229,
          0.275,
          0.209,
          -0.081,
          0.005,
          -0.176,
          0.25,
          0.031,
          0.239,
          -0.152,
          0.03,
          0.212,
          0.294,
          0.208,
          -0.049,
          0.146,
          0.261,
          0.292,
          -0.142,
          -0.055,
          -0.099,
          0.228,
          -0.147,
          -0.126,
          -0.181,
          0.183,
          -0.157,
          0.177,
          -0.08,
          -0.065,
          -0.134,
          -0.003,
          -0.174,
          -0.177,
          0.102,
          0.275,
          -0.017
        ],
        [
          0.05,
          -0.085,
          0.294,
          -0.193,
          -0.006,
          0.131,
          0.037,
          0.026,
          -0.19,
          0.027,
          -0.161,
          0.231,
          -0.093,
          -0.179,
          0.275,
          0.21,
          -0.055,
          -0.024,
          -0.184,
          0.028,
          -0.168,
          0.061,
          -0.074,
          -0.164,
          0.005,
          0.113,
          0.077,
          0.088,
          0.19,
          0.258,
          0,
          -0.141,
          0.251,
          -0.016,
          0.262,
          -0.06,
          0.062,
          -0.013,
          0.075,
          0.295,
          0.154,
          0.1,
          0.208,
          -0.025,
          0.061,
          0.171,
          -0.006,
          0.283,
          -0.181,
          0.076,
          -0.177,
          0.031,
          0.199,
          -0.163,
          -0.189,
          0.184,
          0.052,
          0.033,
          -0.117,
          -0.077,
          0.003,
          0.043,
          -0.024,
          0.281
        ],
        [
          0.284,
          -0.01,
          -0.078,
          0.261,
          0.267,
          0.16,
          -0.135,
          0.053,
          -0.091,
          0.111,
          0.097,
          0.194,
          -0.008,
          0.216,
          0.161,
          0.247,
          0.005,
          0.041,
          0.162,
          -0.059,
          -0.15,
          0.192,
          -0.083,
          0.264,
          0.115,
          0.215,
          0.012,
          -0.189,
          0.131,
          -0.017,
          0.085,
          0.101,
          0.286,
          0.103,
          0.196,
          0.282,
          0.214,
          0.048,
          0.157,
          0.282,
          0.258,
          0.253,
          0.295,
          0.189,
          0.133,
          0.047,
          0.095,
          0.127,
          -0.009,
          0.03,
          -0.134,
          0.22,
          -0.12,
          0.029,
          -0.072,
          -0.13,
          -0.16,
          0.003,
          -0.175,
          0.221,
          -0.021,
          0.129,
          -0.055,
          -0.157
        ],
        [
          0.137,
          0.104,
          0.225,
          0.052,
          -0.074,
          0.265,
          -0.068,
          0.189,
          -0.086,
          0.283,
          0.102,
          0.235,
          0.178,
          0.179,
          -0.19,
          0.035,
          -0.167,
          0.245,
          0.05,
          0.232,
          0.114,
          -0.105,
          0.003,
          0.09,
          -0.169,
          0.062,
          -0.109,
          -0.174,
          0.09,
          0.294,
          -0.108,
          0.041,
          -0.025,
          0.266,
          -0.043,
          -0.028,
          0.228,
          -0.093,
          0.235,
          0.264,
          0.134,
          0.046,
          0.112,
          -0.008,
          0.249,
          0.021,
          0.184,
          0.156,
          0.121,
          -0.05,
          0.156,
          -0.123,
          0.168,
          0.049,
          0.294,
          -0.148,
          -0.165,
          -0.122,
          -0.02,
          0.118,
          -0.149,
          0.022,
          -0.183,
          0.037
        ],
        [
          -0.18,
          0.237,
          0.181,
          0.17,
          0.102,
          -0.041,
          0.267,
          0.298,
          0.241,
          -0.105,
          -0.025,
          -0.071,
          0.272,
          -0.016,
          0.128,
          0.168,
          0.11,
          0.085,
          0.024,
          0.282,
          -0.038,
          -0.183,
          -0.152,
          0.228,
          -0.164,
          -0.185,
          0.087,
          -0.15,
          0.279,
          -0.109,
          -0.174,
          0.269,
          0.202,
          0.056,
          0.042,
          0.137,
          -0.177,
          -0.143,
          -0.187,
          0.072,
          0.213,
          0.086,
          -0.176,
          -0.103,
          -0.088,
          0.255,
          0.009,
          0.162,
          0.18,
          0.14,
          -0.185,
          0.206,
          0.196,
          0.134,
          0.064,
          0.286,
          -0.031,
          -0.018,
          0.13,
          0.26,
          -0.187,
          0.287,
          0.042,
          0.2
        ],
        [
          0.005,
          0.197,
          0.193,
          0.154,
          0.03,
          0.18,
          0.197,
          -0.052,
          0.064,
          0.286,
          0.217,
          0.256,
          0.128,
          -0.042,
          -0.046,
          0.256,
          0.209,
          0.145,
          -0.083,
          0.11,
          -0.027,
          0.078,
          -0.168,
          0.173,
          0.009,
          -0.103,
          -0.056,
          -0.198,
          0.074,
          0.288,
          -0.124,
          0.26,
          0.044,
          -0.103,
          0.034,
          -0.059,
          -0.058,
          0.091,
          -0.071,
          0.276,
          0.239,
          0.298,
          0.162,
          0.06,
          -0.131,
          0.159,
          0.114,
          0.247,
          0.087,
          0.016,
          -0.061,
          0.041,
          0.08,
          0.285,
          0.071,
          0.242,
          0.167,
          -0.185,
          0.085,
          0.214,
          -0.137,
          0.19,
          -0.058,
          0.153
        ],
        [
          -0.065,
          0.003,
          0.085,
          0.204,
          0.225,
          -0.071,
          0.019,
          0.197,
          0.261,
          0.226,
          -0.008,
          0.083,
          0.249,
          -0.187,
          0.032,
          -0.049,
          0.119,
          0.291,
          -0.136,
          -0.08,
          -0.079,
          -0.091,
          0.29,
          0.126,
          -0.189,
          0.015,
          0.166,
          0.112,
          0.036,
          -0.065,
          -0.129,
          0.004,
          -0.064,
          -0.119,
          0.117,
          0.123,
          -0.134,
          0.192,
          0.188,
          0.01,
          0.033,
          0.149,
          0.005,
          0.263,
          0.016,
          0.227,
          0.063,
          -0.023,
          0.153,
          -0.033,
          -0.13,
          0.29,
          0.115,
          0.087,
          0.141,
          0.143,
          0.281,
          -0.171,
          0.061,
          -0.178,
          -0.035,
          0.252,
          0.166,
          0.298
        ],
        [
          0.215,
          -0.028,
          0.261,
          -0.077,
          -0.022,
          0.097,
          0.012,
          0.218,
          -0.003,
          0.011,
          -0.153,
          0.296,
          0.236,
          0.045,
          0.201,
          0.078,
          0.226,
          -0.004,
          0.026,
          -0.017,
          -0.146,
          0.034,
          -0.029,
          -0.169,
          0.209,
          0.286,
          0.29,
          -0.179,
          0.125,
          0.15,
          -0.143,
          -0.115,
          -0.187,
          0.192,
          0.21,
          0.079,
          0.294,
          0.219,
          0.225,
          -0.033,
          0.221,
          0.228,
          0.047,
          0.032,
          -0.019,
          -0.104,
          0.008,
          0.24,
          0.225,
          0.112,
          0.27,
          -0.006,
          0.105,
          0.284,
          0.175,
          -0.121,
          0.081,
          0.08,
          -0.094,
          0.186,
          -0.161,
          0.137,
          -0.075,
          0.02
        ],
        [
          0.158,
          -0.03,
          0.094,
          -0.157,
          -0.163,
          0.144,
          -0.048,
          0.281,
          -0.076,
          0.094,
          0.131,
          0.047,
          0.115,
          0.112,
          -0.162,
          0.003,
          0.184,
          -0.118,
          0.21,
          0.28,
          -0.031,
          0.281,
          0.247,
          -0.129,
          0.048,
          0.252,
          0.196,
          -0.075,
          0.23,
          -0.074,
          0.108,
          0.141,
          0.176,
          -0.124,
          -0.087,
          0.219,
          -0.066,
          0.146,
          0.004,
          -0.074,
          0.236,
          -0.119,
          -0.12,
          -0.14,
          0.153,
          0.157,
          0.121,
          0.101,
          0.286,
          -0.055,
          -0.18,
          -0.128,
          0.129,
          -0.153,
          -0.11,
          -0.189,
          0.156,
          0.086,
          -0.125,
          0.248,
          0.029,
          0.124,
          0.09,
          0.273
        ],
        [
          -0.182,
          0.07,
          0.292,
          0.22,
          0.163,
          0.207,
          0.015,
          0.223,
          0.206,
          0.19,
          -0.185,
          0.131,
          0.223,
          -0.155,
          -0.059,
          0.268,
          0.081,
          0.123,
          0.159,
          -0.14,
          0.123,
          0.281,
          0.206,
          -0.073,
          0.151,
          0.158,
          0.086,
          0.063,
          0.02,
          0.142,
          0.096,
          -0.015,
          0.045,
          0.062,
          -0.151,
          -0.189,
          0.268,
          0.095,
          -0.08,
          0.27,
          0.25,
          -0.133,
          0.282,
          0.148,
          0.182,
          -0.045,
          0.107,
          -0.191,
          -0.042,
          -0.149,
          -0.003,
          0.062,
          -0.089,
          -0.175,
          0.006,
          0.292,
          -0.055,
          0.238,
          -0.104,
          -0.088,
          0.12,
          0.272,
          -0.061,
          0.119
        ],
        [
          0.004,
          0.099,
          0.083,
          0.158,
          -0.007,
          0.147,
          0.05,
          -0.007,
          0.084,
          0.086,
          0.138,
          -0.04,
          0.149,
          -0.113,
          0.021,
          0.163,
          0.271,
          -0.093,
          -0.013,
          -0.17,
          0.058,
          0.229,
          0.053,
          0.041,
          0.12,
          0.066,
          0.004,
          -0.032,
          0.269,
          0.27,
          0.12,
          -0.071,
          0.097,
          0.099,
          -0.166,
          0.295,
          0.069,
          -0.017,
          0.096,
          0.127,
          0.099,
          -0.133,
          0.047,
          -0.102,
          0.019,
          -0.105,
          0.153,
          -0.06,
          0.209,
          -0.031,
          -0.079,
          -0.092,
          0.069,
          -0.173,
          0.244,
          -0.074,
          0.161,
          0.235,
          -0.097,
          0.236,
          -0.05,
          0.036,
          0.024,
          -0.033
        ],
        [
          -0.044,
          0.079,
          -0.11,
          -0.153,
          0.263,
          0.105,
          -0.026,
          0.144,
          0.026,
          -0.097,
          -0.007,
          -0.04,
          0.194,
          0.133,
          -0.083,
          0.273,
          0.177,
          -0.026,
          0.237,
          0.069,
          0.003,
          0.148,
          0.289,
          -0.105,
          -0.028,
          -0.049,
          -0.111,
          0.116,
          -0.046,
          0.057,
          -0.175,
          0.085,
          0.267,
          0.22,
          -0.039,
          0.232,
          -0.059,
          0.278,
          0.145,
          -0.086,
          0.272,
          -0.059,
          0.289,
          -0.018,
          -0.186,
          -0.111,
          -0.134,
          0.251,
          -0.041,
          -0.177,
          0.052,
          -0.181,
          0.224,
          -0.198,
          0.195,
          -0.195,
          -0.059,
          0.25,
          -0.149,
          0.057,
          0.007,
          0.208,
          0.231,
          0.214
        ],
        [
          0.105,
          -0.092,
          0.126,
          -0.031,
          0.081,
          -0.121,
          -0.148,
          -0.184,
          0.296,
          0.145,
          0.19,
          0.223,
          0.04,
          0.235,
          0.035,
          -0.001,
          0.116,
          0.265,
          -0.07,
          0.266,
          -0.023,
          -0.105,
          0.251,
          0.15,
          0.098,
          0.168,
          0.242,
          0.09,
          0.126,
          -0.046,
          -0.01,
          -0.11,
          -0.194,
          0.194,
          -0.159,
          -0.082,
          -0.079,
          0.153,
          0.271,
          -0.184,
          0.038,
          -0.113,
          0.054,
          0.252,
          0.228,
          0.067,
          -0.103,
          -0.012,
          -0.069,
          0.284,
          0.018,
          -0.025,
          0.173,
          0.143,
          0.03,
          -0.17,
          0.121,
          0.23,
          0.021,
          0.088,
          0.018,
          0.284,
          0.277,
          -0.177
        ],
        [
          -0.137,
          0.212,
          0.035,
          0.021,
          -0.116,
          -0.181,
          -0.165,
          -0.11,
          0.245,
          -0.171,
          -0.149,
          0.089,
          0.209,
          0.272,
          0.271,
          -0.068,
          -0.047,
          0.207,
          0.108,
          -0.149,
          0.24,
          -0.083,
          0.28,
          0.124,
          -0.046,
          0.121,
          0.287,
          -0.164,
          0.007,
          0.279,
          0.075,
          0.025,
          -0.112,
          -0.03,
          -0.078,
          0.102,
          0.179,
          0.162,
          -0.126,
          -0.176,
          -0.133,
          0.135,
          0.261,
          0.214,
          0.254,
          0.226,
          0.215,
          -0.115,
          -0.015,
          -0.058,
          0.005,
          -0.026,
          0.006,
          -0.143,
          0.274,
          0.194,
          -0.195,
          0.134,
          0.058,
          -0.136,
          0.004,
          -0.142,
          -0.025,
          0.043
        ],
        [
          0.063,
          0.091,
          0.09,
          0.246,
          -0.073,
          -0.01,
          0.194,
          -0.126,
          -0.024,
          0.085,
          0.127,
          0.261,
          0.116,
          -0.018,
          0.05,
          0.157,
          -0.152,
          0.033,
          0.115,
          0.174,
          -0.002,
          0.046,
          -0.197,
          0.075,
          -0.171,
          -0.069,
          0.113,
          0.06,
          0.276,
          -0.02,
          0.108,
          -0.05,
          0.034,
          0.251,
          0.131,
          0.079,
          -0.012,
          0.263,
          0.123,
          0.044,
          0,
          0.119,
          -0.07,
          -0.096,
          -0.079,
          0.287,
          -0.016,
          0.009,
          -0.062,
          0.01,
          0.254,
          -0.121,
          0.132,
          -0.043,
          0.208,
          0.293,
          -0.154,
          -0.153,
          -0.03,
          -0.011,
          0.294,
          0.251,
          0.045,
          -0.143
        ],
        [
          0.067,
          -0.023,
          0.197,
          0.12,
          -0.09,
          0.246,
          -0.091,
          -0.155,
          0.258,
          0.152,
          0.012,
          0.14,
          -0.129,
          0.131,
          -0.083,
          0.293,
          0.141,
          0.284,
          0.043,
          0.092,
          -0.014,
          -0.07,
          -0.037,
          0.168,
          0.233,
          -0.095,
          0.087,
          -0.175,
          -0.055,
          0.265,
          0.02,
          -0.188,
          0.289,
          -0.096,
          0.229,
          0.04,
          0.094,
          -0.083,
          0.031,
          0.104,
          -0.052,
          0.102,
          0.181,
          0.079,
          0.282,
          -0.017,
          0.173,
          -0.021,
          -0.147,
          0.02,
          0.021,
          -0.057,
          0.195,
          0.26,
          -0.183,
          -0.179,
          0.092,
          -0.078,
          -0.144,
          0.289,
          -0.029,
          0.151,
          -0.047,
          0.255
        ],
        [
          0.176,
          0.213,
          -0.153,
          -0.063,
          0.145,
          -0.152,
          0.064,
          0.074,
          0.127,
          -0.027,
          -0.123,
          0.278,
          0.175,
          0.169,
          0.125,
          -0.038,
          0.253,
          -0.071,
          0.194,
          0.226,
          0.118,
          -0.006,
          0.012,
          -0.14,
          0.206,
          -0.182,
          0.017,
          -0.014,
          -0.045,
          0.066,
          0.098,
          -0.102,
          -0.191,
          0.115,
          -0.104,
          0.202,
          0.01,
          -0.108,
          0.131,
          0.213,
          0.226,
          0.096,
          0.27,
          -0.16,
          -0.153,
          -0.055,
          -0.086,
          0.255,
          0.054,
          0.171,
          0.261,
          -0.197,
          0.294,
          0.072,
          0.126,
          0.2,
          -0.136,
          -0.185,
          0.248,
          0.294,
          0.015,
          -0.109,
          0.182,
          -0.001
        ],
        [
          0.159,
          0.2,
          0.075,
          0.245,
          0.065,
          -0.032,
          -0.025,
          -0.068,
          -0.113,
          0.136,
          0.194,
          -0.19,
          0.229,
          -0.009,
          -0.025,
          0.232,
          0.061,
          0.216,
          0.041,
          -0.161,
          -0.084,
          0.196,
          -0.155,
          0.116,
          0.141,
          -0.195,
          0.17,
          0.03,
          0.034,
          -0.025,
          0.003,
          -0.022,
          -0.042,
          0.142,
          0.245,
          -0.18,
          0.291,
          0.028,
          0.177,
          0.049,
          -0.064,
          0.233,
          0.02,
          0.038,
          0.202,
          0.017,
          0.186,
          0.248,
          0.142,
          -0.197,
          0.297,
          0.277,
          0.064,
          0.082,
          0.205,
          -0.085,
          0.181,
          -0.004,
          0.17,
          0.005,
          0.092,
          -0.062,
          0.291,
          -0.108
        ],
        [
          0,
          0.087,
          0.255,
          -0.152,
          -0.107,
          0.206,
          -0.017,
          0.049,
          0.21,
          -0.034,
          -0.178,
          0.289,
          0.2,
          0.268,
          -0.042,
          0.149,
          0.027,
          -0.088,
          -0.104,
          -0.008,
          -0.09,
          0.178,
          -0.126,
          0.282,
          0.146,
          0.01,
          0.264,
          -0.12,
          0.152,
          -0.006,
          0.037,
          0.27,
          0.177,
          0.269,
          -0.065,
          0.225,
          0.144,
          0.039,
          -0.109,
          -0.113,
          0.053,
          0.266,
          0.141,
          0.291,
          -0.105,
          -0.086,
          0.213,
          -0.149,
          -0.075,
          0.274,
          0.277,
          0.141,
          0.206,
          0.101,
          -0.052,
          -0.11,
          -0.171,
          -0.117,
          0.082,
          0.159,
          -0.044,
          0.085,
          0.007,
          -0.188
        ],
        [
          0.291,
          -0.034,
          -0.049,
          -0.186,
          -0.045,
          -0.105,
          0.128,
          -0.103,
          -0.186,
          -0.015,
          -0.133,
          -0.01,
          -0.074,
          -0.132,
          -0.147,
          0.039,
          -0.154,
          0.165,
          -0.084,
          -0.032,
          -0.112,
          0.219,
          0.25,
          0.135,
          -0.102,
          0.283,
          -0.132,
          0.186,
          0.08,
          -0.095,
          0.052,
          -0.184,
          -0.163,
          -0.128,
          0.129,
          0.046,
          0.228,
          -0.137,
          0.274,
          -0.115,
          0.1,
          0.299,
          -0.156,
          -0.18,
          -0.158,
          -0.151,
          0.259,
          0.177,
          0.097,
          0.012,
          -0.042,
          -0.089,
          0.023,
          0.254,
          0.138,
          -0.16,
          0.247,
          0.052,
          -0.18,
          0.268,
          -0.067,
          -0.039,
          0.12,
          -0.096
        ],
        [
          -0.156,
          0.006,
          0.052,
          0.088,
          0.064,
          -0.104,
          0.099,
          0.207,
          0.214,
          -0.153,
          0.064,
          0.174,
          0.03,
          -0.195,
          0.248,
          -0.122,
          -0.024,
          0.179,
          0.079,
          -0.191,
          0.222,
          0.222,
          0.052,
          0.213,
          0.199,
          -0.117,
          -0.107,
          -0.012,
          0.007,
          0.27,
          0.249,
          -0.015,
          -0.072,
          0.26,
          0.172,
          -0.036,
          0.25,
          0.172,
          0.129,
          -0.021,
          -0.048,
          0.244,
          0.213,
          0.001,
          -0.133,
          -0.162,
          -0.089,
          0.269,
          0.052,
          0.182,
          -0.073,
          0.159,
          0.2,
          0.265,
          0.26,
          0.211,
          -0.104,
          -0.012,
          -0.172,
          0.016,
          -0.027,
          -0.072,
          0.212,
          0.161
        ],
        [
          0.239,
          0.017,
          -0.098,
          -0.133,
          0.271,
          -0.124,
          0.212,
          0.187,
          -0.122,
          -0.11,
          -0.117,
          0.272,
          0.081,
          -0.109,
          -0.137,
          -0.001,
          -0.006,
          0.25,
          -0.129,
          -0.005,
          0.293,
          -0.179,
          0.297,
          -0.118,
          0.07,
          0.187,
          -0.195,
          0.261,
          0.177,
          -0.161,
          -0.193,
          -0.007,
          -0.023,
          0.239,
          -0.08,
          0.2,
          -0.053,
          -0.011,
          0.233,
          -0.095,
          -0.148,
          0.158,
          0.01,
          -0.178,
          -0.094,
          0.075,
          0.004,
          -0.163,
          0.078,
          0.194,
          -0.171,
          0.192,
          0.119,
          0.22,
          0.091,
          -0.091,
          0.063,
          0.298,
          0.185,
          0.102,
          -0.122,
          0.268,
          0.128,
          0.2
        ],
        [
          0.037,
          -0.104,
          -0.116,
          -0.035,
          0.02,
          0.065,
          0.224,
          -0.189,
          0.231,
          0.05,
          -0.059,
          -0.138,
          -0.077,
          0.056,
          0.149,
          -0.009,
          0.26,
          0.047,
          0.113,
          -0.056,
          -0.067,
          0.207,
          0.095,
          -0.047,
          0.163,
          0.015,
          -0.176,
          -0.123,
          0.157,
          -0.13,
          0.275,
          -0.036,
          0.099,
          0.017,
          0.285,
          -0.021,
          0.089,
          -0.094,
          -0.031,
          0.126,
          -0.046,
          0.289,
          -0.037,
          -0.192,
          0.188,
          0.201,
          0.099,
          0.229,
          -0.004,
          -0.129,
          0.094,
          -0.057,
          -0.169,
          0.12,
          0.136,
          -0.185,
          0.264,
          -0.167,
          0.221,
          0.283,
          -0.164,
          0.035,
          -0.185,
          -0.106
        ],
        [
          -0.153,
          0.258,
          -0.05,
          -0.18,
          0.184,
          -0.13,
          0.024,
          0.142,
          0.223,
          0.163,
          -0.056,
          -0.108,
          0.066,
          -0.019,
          -0.123,
          0.12,
          0.027,
          -0.111,
          0.025,
          -0.01,
          0.059,
          -0.068,
          0.112,
          0.067,
          -0.051,
          0.055,
          -0.081,
          -0.091,
          0.058,
          0.07,
          0.001,
          -0.005,
          0.179,
          0.025,
          0.212,
          0.112,
          -0.199,
          -0.043,
          0.041,
          0.135,
          -0.078,
          0.03,
          0.293,
          0.08,
          0.032,
          -0.048,
          -0.166,
          0.156,
          -0.063,
          0.074,
          0.243,
          -0.007,
          -0.097,
          0.095,
          -0.033,
          -0.137,
          -0.084,
          -0.124,
          0.245,
          0.027,
          -0.059,
          -0.139,
          -0.144,
          0.077
        ],
        [
          0.28,
          0.29,
          0.168,
          0.235,
          -0.142,
          0.051,
          0.183,
          -0.056,
          0.106,
          0.123,
          -0.127,
          0.154,
          -0.152,
          -0.197,
          0.133,
          -0.046,
          -0.024,
          -0.073,
          -0.102,
          0.101,
          -0.149,
          0.132,
          -0.116,
          0.215,
          0.281,
          0.077,
          0.104,
          0.263,
          0.171,
          0.15,
          -0.002,
          0.289,
          -0.009,
          0.079,
          -0.095,
          0.069,
          0.27,
          0.006,
          0.087,
          0.243,
          0.265,
          0.127,
          -0.121,
          0.037,
          0.004,
          0.173,
          0.181,
          0.001,
          0.065,
          -0.153,
          -0.109,
          0.25,
          0.271,
          0,
          0.074,
          -0.062,
          0.25,
          -0.092,
          -0.004,
          0.156,
          0.155,
          0.17,
          0.272,
          0.131
        ],
        [
          0.022,
          -0.037,
          -0.147,
          0.169,
          -0.027,
          0.025,
          0.13,
          0.102,
          -0.089,
          -0.113,
          0.105,
          -0.03,
          0.232,
          0.194,
          0.175,
          0.035,
          0.091,
          0.081,
          -0.13,
          -0.02,
          -0.112,
          -0.106,
          0.14,
          -0.015,
          0.086,
          0.3,
          0.19,
          0.287,
          0.135,
          -0.012,
          0.257,
          -0.102,
          0.226,
          -0.059,
          0.114,
          -0.155,
          0.06,
          -0.164,
          0.008,
          0.004,
          0.12,
          0.21,
          0.166,
          0.214,
          -0.059,
          0.19,
          0.285,
          -0.095,
          0.131,
          -0.071,
          0.051,
          0.126,
          -0.003,
          -0.028,
          -0.017,
          0.282,
          -0.106,
          0.044,
          0.218,
          -0.068,
          -0.041,
          0.14,
          -0.054,
          0.136
        ],
        [
          -0.149,
          0.197,
          0.293,
          0.101,
          0.198,
          0.088,
          0.078,
          -0.084,
          0.292,
          0.107,
          0.047,
          0.087,
          0.189,
          0.236,
          -0.052,
          -0.061,
          -0.2,
          -0.162,
          -0.142,
          0.094,
          -0.151,
          0.023,
          0.008,
          -0.174,
          0.172,
          0.07,
          -0.022,
          -0.02,
          -0.168,
          -0.139,
          -0.011,
          0.213,
          0.287,
          0.19,
          0.092,
          0.155,
          0.229,
          -0.181,
          0.267,
          0.227,
          -0.145,
          0.266,
          -0.016,
          0.287,
          0.269,
          -0.167,
          -0.175,
          -0.183,
          0.244,
          0.059,
          -0.07,
          -0.033,
          -0.049,
          -0.03,
          -0.1,
          0.175,
          0.088,
          -0.079,
          -0.181,
          -0.067,
          0.077,
          0.086,
          0.13,
          -0.17
        ],
        [
          0.195,
          0.209,
          -0.082,
          0.097,
          0.238,
          0.164,
          0.266,
          0.275,
          0.178,
          0.276,
          -0.022,
          -0.121,
          -0.017,
          -0.078,
          0.015,
          -0.054,
          -0.055,
          0.245,
          0.119,
          0.003,
          0.058,
          0.3,
          0.219,
          0.046,
          -0.148,
          -0.137,
          0.112,
          -0.163,
          0.183,
          -0.106,
          0.147,
          -0.195,
          -0.157,
          0.227,
          0.025,
          -0.005,
          -0.098,
          0.023,
          0.129,
          -0.181,
          0.128,
          0.281,
          -0.152,
          0.095,
          0.254,
          0.186,
          -0.12,
          -0.041,
          -0.148,
          0.071,
          0.1,
          -0.027,
          0.088,
          -0.176,
          -0.094,
          0.166,
          -0.116,
          0.23,
          -0.064,
          -0.048,
          -0.043,
          0.043,
          -0.176,
          0.14
        ],
        [
          0.023,
          0.113,
          0.091,
          0.214,
          0.195,
          0.229,
          -0.064,
          0.047,
          0.108,
          -0.145,
          -0.198,
          -0.032,
          -0.09,
          -0.108,
          0.121,
          -0.111,
          0.068,
          -0.156,
          0.043,
          -0.12,
          -0.104,
          0.281,
          -0.183,
          -0.044,
          0.251,
          -0.161,
          0.136,
          0.208,
          0.068,
          0.031,
          0.056,
          0.105,
          0.029,
          0.19,
          -0.001,
          0.042,
          0.032,
          -0.071,
          -0.053,
          -0.001,
          -0.16,
          -0.049,
          0.249,
          -0.162,
          -0.162,
          -0.021,
          0.197,
          0.156,
          0.095,
          -0.183,
          -0.09,
          0.132,
          0.272,
          0.042,
          0.297,
          0.188,
          0.082,
          -0.17,
          0.043,
          0.182,
          -0.047,
          -0.048,
          -0.02,
          -0.096
        ],
        [
          0.267,
          0.167,
          0.06,
          -0.195,
          0.035,
          -0.077,
          -0.026,
          -0.189,
          0.282,
          0.005,
          -0.03,
          -0.107,
          -0.115,
          0.28,
          0.184,
          0.172,
          0.054,
          -0.051,
          0.293,
          0.115,
          0.101,
          -0.134,
          -0.169,
          -0.146,
          -0.013,
          -0.199,
          0.183,
          0.189,
          0.124,
          -0.072,
          0.13,
          -0.004,
          0.18,
          -0.135,
          0.252,
          -0.113,
          0.155,
          0.243,
          -0.164,
          0.012,
          0.267,
          -0.079,
          -0.011,
          -0.182,
          0.067,
          0.164,
          0.247,
          0.125,
          0.101,
          0.202,
          0.114,
          0.153,
          0.203,
          0.277,
          0.073,
          0.209,
          0.002,
          0.147,
          0.059,
          -0.151,
          -0.049,
          0.155,
          -0.03,
          -0.048
        ],
        [
          0.209,
          0.291,
          0.001,
          0.211,
          0.019,
          0.005,
          0.152,
          0.186,
          0.245,
          -0.083,
          0.243,
          -0.067,
          0.15,
          0.201,
          0.226,
          0.153,
          -0.071,
          0.138,
          0.295,
          0.202,
          0.207,
          -0.173,
          0.232,
          -0.151,
          -0.024,
          0,
          0.086,
          0.222,
          -0.13,
          0.083,
          -0.095,
          0.01,
          0.192,
          0.007,
          0.116,
          -0.035,
          0.295,
          -0.004,
          -0.049,
          0.188,
          0.037,
          -0.096,
          -0.042,
          -0.174,
          0.084,
          -0.18,
          -0.071,
          -0.012,
          0.193,
          0.182,
          -0.055,
          -0.196,
          0.107,
          0.089,
          0.142,
          0.294,
          -0.106,
          0.047,
          -0.093,
          -0.084,
          0.249,
          0.195,
          0.155,
          0.189
        ],
        [
          -0.054,
          -0.078,
          -0.192,
          -0.137,
          0.104,
          0.012,
          0.022,
          0.187,
          -0.159,
          -0.14,
          0.069,
          0.027,
          -0.061,
          -0.063,
          0.197,
          0.03,
          0.137,
          -0.112,
          -0.06,
          -0.057,
          -0.059,
          -0.145,
          -0.185,
          0.244,
          0.143,
          0.119,
          -0.024,
          -0.068,
          0.086,
          0.235,
          -0.028,
          0.284,
          0.054,
          -0.159,
          -0.103,
          0.231,
          0.201,
          -0.16,
          -0.116,
          -0.197,
          0.209,
          0.02,
          0.147,
          0.153,
          -0.01,
          -0.076,
          0.277,
          0.115,
          -0.06,
          0.005,
          0.22,
          0.031,
          -0.033,
          0.089,
          0.042,
          0.249,
          0.139,
          -0.179,
          -0.017,
          0.057,
          -0.112,
          -0.079,
          0.214,
          -0.075
        ],
        [
          0.188,
          0.234,
          -0.077,
          0.061,
          0.146,
          0.172,
          -0.096,
          -0.031,
          -0.042,
          -0.011,
          0.094,
          0.003,
          0.012,
          0.027,
          -0.171,
          0.149,
          -0.069,
          -0.127,
          0.245,
          0.17,
          -0.081,
          0.269,
          -0.01,
          -0.018,
          0.044,
          -0.104,
          -0.176,
          0.243,
          0.082,
          0.253,
          -0.165,
          0.126,
          -0.029,
          -0.192,
          -0.083,
          0.292,
          -0.079,
          0.127,
          0.067,
          -0.07,
          -0.121,
          0.197,
          0.266,
          0.189,
          0.012,
          -0.087,
          0.131,
          0.206,
          0.042,
          0.135,
          0.149,
          0.197,
          0.199,
          0.106,
          -0.177,
          0.075,
          -0.083,
          0.246,
          -0.094,
          0.168,
          0.078,
          -0.055,
          0.278,
          0.199
        ],
        [
          0.192,
          -0.099,
          0.162,
          0.019,
          0.185,
          -0.132,
          -0.129,
          0.087,
          -0.166,
          -0.16,
          -0.009,
          -0.044,
          -0.075,
          -0.097,
          0.251,
          -0.004,
          0.287,
          -0.078,
          0.196,
          -0.085,
          -0.154,
          0.223,
          0.218,
          -0.174,
          0.249,
          0.25,
          0.25,
          -0.071,
          0.021,
          0.192,
          0.204,
          0.175,
          0.073,
          0.066,
          -0.144,
          -0.186,
          0.168,
          0.243,
          -0.129,
          -0.161,
          0.104,
          0.145,
          -0.169,
          -0.052,
          -0.126,
          0.179,
          -0.142,
          -0.106,
          -0.009,
          0.195,
          0.032,
          0.121,
          0.263,
          -0.179,
          -0.171,
          0.227,
          -0.159,
          -0.047,
          -0.122,
          0.283,
          -0.108,
          0.242,
          -0.18,
          0.14
        ],
        [
          0.023,
          0.102,
          0.126,
          0.172,
          0.163,
          -0.076,
          -0.054,
          0.155,
          0.093,
          -0.137,
          -0.135,
          0.033,
          -0.187,
          -0.118,
          0.224,
          -0.194,
          0.207,
          0.265,
          0.293,
          -0.045,
          -0.075,
          -0.182,
          -0.072,
          0.163,
          0.116,
          -0.111,
          0.224,
          -0.157,
          0.255,
          -0.158,
          0.049,
          0.232,
          0.055,
          0.153,
          -0.096,
          -0.114,
          -0.041,
          0.258,
          0.086,
          0.17,
          0.209,
          -0.03,
          0.191,
          -0.198,
          0.202,
          0.083,
          0.105,
          0.164,
          0.13,
          0.101,
          0.003,
          -0.053,
          -0.118,
          -0.049,
          0.132,
          0.027,
          -0.163,
          -0.024,
          -0.061,
          0.032,
          -0.17,
          0.256,
          -0.118,
          0.15
        ],
        [
          0.068,
          -0.059,
          0.237,
          0.092,
          -0.079,
          0.003,
          0.061,
          -0.053,
          0.243,
          -0.042,
          -0.147,
          -0.022,
          0.138,
          0.212,
          -0.162,
          0.082,
          0.009,
          0.032,
          0.011,
          -0.045,
          0.29,
          0.203,
          -0.122,
          0.249,
          -0.128,
          0.19,
          0.298,
          0.227,
          0.231,
          0.273,
          0.074,
          -0.155,
          -0.199,
          -0.091,
          0.193,
          0.134,
          0.213,
          -0.153,
          -0.166,
          0.239,
          0.256,
          -0.153,
          0.226,
          0.254,
          -0.048,
          -0.065,
          0.214,
          -0.028,
          0.046,
          0.25,
          0.008,
          -0.088,
          0.039,
          -0.012,
          0.078,
          0.052,
          0.234,
          -0.083,
          0.109,
          0.07,
          0.077,
          0.069,
          -0.155,
          -0.031
        ],
        [
          0.279,
          -0.032,
          0.02,
          0.043,
          -0.144,
          -0.125,
          0.205,
          0.041,
          -0.025,
          -0.131,
          0.127,
          -0.049,
          -0.012,
          0.085,
          0.075,
          -0.06,
          0.111,
          0.074,
          0.267,
          -0.151,
          0.023,
          -0.112,
          -0.007,
          0.001,
          -0.025,
          -0.12,
          0.295,
          -0.058,
          0.258,
          -0.067,
          -0.064,
          -0.159,
          0.197,
          0.197,
          -0.108,
          -0.015,
          0.082,
          -0.171,
          0.241,
          0.016,
          0.266,
          0.17,
          0.094,
          -0.167,
          -0.128,
          -0.115,
          -0.035,
          0.162,
          -0.128,
          0.3,
          0.064,
          0.145,
          0.164,
          -0.107,
          0.056,
          -0.11,
          -0.023,
          0.233,
          -0.034,
          0.006,
          0.101,
          -0.187,
          0.236,
          -0.109
        ],
        [
          0.089,
          0.124,
          0.019,
          0.056,
          0.043,
          0.258,
          0.001,
          -0.099,
          0.173,
          0.147,
          0.215,
          0.127,
          -0.153,
          0.215,
          -0.043,
          0.104,
          0.165,
          0.212,
          0.111,
          -0.177,
          0.193,
          0.298,
          0.105,
          0.24,
          0.101,
          0.244,
          0.078,
          0.025,
          0.215,
          0.177,
          0.073,
          0.028,
          -0.061,
          0.073,
          -0.193,
          0.165,
          -0.052,
          0.279,
          -0.139,
          -0.031,
          -0.085,
          0.103,
          0.266,
          -0.01,
          0.107,
          0.196,
          -0.012,
          0.187,
          -0.029,
          -0.026,
          0.059,
          0.004,
          0.216,
          -0.049,
          -0.048,
          0.006,
          -0.091,
          0.182,
          0.1,
          -0.041,
          -0.071,
          0.19,
          0.143,
          0.17
        ],
        [
          -0.036,
          0.123,
          -0.119,
          -0.109,
          -0.066,
          -0.194,
          -0.035,
          0.266,
          0.289,
          0.207,
          0.065,
          0.001,
          -0.102,
          0.291,
          0.059,
          0.116,
          -0.059,
          0.221,
          0.185,
          0.137,
          -0.029,
          -0.064,
          -0.055,
          0.285,
          0.28,
          0.208,
          0.299,
          -0.045,
          0.291,
          -0.156,
          -0.124,
          -0.018,
          0.16,
          0.137,
          -0.033,
          -0.086,
          -0.028,
          -0.062,
          0.103,
          -0.011,
          0.174,
          0.15,
          0.299,
          0.026,
          -0.053,
          -0.131,
          0.157,
          0.129,
          0.057,
          0.006,
          0.288,
          -0.011,
          -0.106,
          -0.11,
          0.065,
          0.1,
          0.225,
          -0.09,
          0.033,
          -0.089,
          -0.037,
          -0.073,
          0.009,
          0.21
        ],
        [
          -0.072,
          -0.022,
          0.268,
          -0.009,
          0.245,
          0.186,
          -0.147,
          -0.142,
          0.128,
          0.279,
          0.046,
          -0.087,
          0.09,
          -0.107,
          -0.013,
          0.007,
          0.299,
          0.282,
          -0.129,
          0.277,
          -0.122,
          0.062,
          0.008,
          0.28,
          -0.085,
          -0.112,
          0.291,
          -0.18,
          -0.049,
          0.131,
          -0.044,
          0.268,
          -0.101,
          -0.003,
          -0.019,
          0.259,
          0.211,
          -0.196,
          0.252,
          0.128,
          -0.121,
          0.151,
          0.024,
          0.176,
          -0.142,
          0.283,
          0.048,
          -0.141,
          0.216,
          0.119,
          -0.184,
          -0.164,
          0.047,
          -0.134,
          0.015,
          -0.066,
          0.247,
          -0.016,
          0.3,
          0.26,
          -0.125,
          0.101,
          0.223,
          -0.152
        ],
        [
          0.162,
          0.193,
          0.133,
          0.198,
          0.028,
          -0.127,
          -0.023,
          0.132,
          0.173,
          -0.199,
          0.06,
          0.216,
          0.222,
          -0.062,
          0.219,
          0.113,
          -0.059,
          0.266,
          0.1,
          0.261,
          -0.166,
          0.035,
          -0.189,
          -0.114,
          0.024,
          0.29,
          -0.047,
          -0.008,
          0.066,
          0.132,
          0.138,
          0.158,
          0.159,
          0.211,
          0.089,
          -0.131,
          0.135,
          0.045,
          0.137,
          0.123,
          0.045,
          -0.199,
          0.225,
          -0.002,
          -0.108,
          -0.179,
          0.209,
          0.149,
          -0.146,
          0.291,
          -0.118,
          -0.182,
          -0.106,
          -0.076,
          0.032,
          0.294,
          0.004,
          -0.085,
          -0.033,
          0.195,
          -0.053,
          0.074,
          0.087,
          0.249
        ],
        [
          0.196,
          -0.077,
          0.162,
          0.019,
          -0.088,
          0.057,
          -0.054,
          0.065,
          0.014,
          0.279,
          0.232,
          0.212,
          -0.061,
          0.268,
          0.046,
          -0.013,
          -0.087,
          0.274,
          0.18,
          0.091,
          0.153,
          0.159,
          0.114,
          -0.047,
          0.022,
          -0.076,
          -0.013,
          -0.098,
          -0.072,
          0.002,
          -0.046,
          0.255,
          0.285,
          -0.185,
          0.104,
          0.046,
          -0.101,
          0.006,
          0.261,
          0.162,
          0.293,
          -0.148,
          -0.191,
          0.172,
          -0.075,
          -0.156,
          0.204,
          0.214,
          -0.075,
          0.114,
          -0.055,
          0.094,
          0.062,
          0.202,
          0.285,
          0.039,
          -0.154,
          0.007,
          0.215,
          0.286,
          0.232,
          -0.105,
          0.054,
          0.065
        ],
        [
          -0.086,
          -0.01,
          0.018,
          -0.105,
          0.182,
          0.058,
          0.11,
          0.069,
          0.139,
          -0.179,
          0.021,
          0.047,
          -0.15,
          -0.115,
          0.084,
          -0.052,
          0.281,
          -0.189,
          0.079,
          0.025,
          0.217,
          -0.187,
          -0.162,
          -0.124,
          0.093,
          -0.074,
          0.074,
          0.113,
          0.28,
          -0.09,
          -0.128,
          -0.115,
          0.195,
          -0.185,
          -0.093,
          -0.048,
          0.213,
          0.274,
          0.229,
          0.265,
          -0.085,
          0.28,
          -0.179,
          0.144,
          0.023,
          0.172,
          -0.095,
          -0.022,
          -0.18,
          0.223,
          0.223,
          -0.167,
          -0.02,
          0.257,
          0.228,
          -0.119,
          -0.104,
          0.198,
          0.238,
          -0.149,
          0.182,
          -0.115,
          -0.074,
          -0.04
        ],
        [
          0.121,
          0.093,
          -0.165,
          -0.136,
          0.233,
          -0.067,
          0.092,
          0.172,
          0.12,
          0.286,
          -0.049,
          -0.049,
          -0.024,
          0.086,
          0.027,
          -0.078,
          0.283,
          0.035,
          -0.184,
          0.256,
          0.201,
          -0.026,
          -0.119,
          -0.168,
          -0.055,
          -0.17,
          0.185,
          0.236,
          0.264,
          -0.124,
          0.026,
          0.094,
          -0.05,
          0.125,
          0.28,
          -0.166,
          0.113,
          0.032,
          -0.023,
          0.287,
          -0.014,
          0.252,
          -0.018,
          -0.059,
          -0.089,
          0.044,
          -0.132,
          0.162,
          0.26,
          0.155,
          0.113,
          -0.068,
          0.077,
          -0.162,
          0.215,
          0.297,
          0.166,
          -0.034,
          0.252,
          -0.043,
          0.205,
          -0.022,
          -0.198,
          0.2
        ],
        [
          0.2,
          -0.047,
          0.115,
          0.278,
          -0.057,
          0.013,
          0.12,
          -0.022,
          -0.048,
          0.073,
          0.156,
          -0.024,
          -0.023,
          0.155,
          -0.175,
          0.213,
          -0.063,
          0.026,
          0.096,
          0.272,
          -0.064,
          0.052,
          -0.074,
          -0.05,
          -0.032,
          0.005,
          0.016,
          -0.11,
          0.218,
          0.1,
          0.14,
          -0.138,
          -0.127,
          -0.097,
          0.265,
          0.066,
          -0.088,
          -0.116,
          -0.092,
          0.028,
          -0.01,
          0.162,
          0.09,
          0.092,
          0.035,
          0.153,
          -0.134,
          0.026,
          -0.159,
          0.048,
          -0.033,
          -0.037,
          0.222,
          0.161,
          0.13,
          -0.021,
          0.06,
          0.237,
          0.098,
          -0.199,
          0.265,
          -0.161,
          -0.167,
          -0.144
        ],
        [
          -0.149,
          0.09,
          0.213,
          -0.03,
          -0.091,
          0.109,
          0.04,
          0.136,
          0.279,
          0.103,
          -0.177,
          0.215,
          0.067,
          -0.011,
          -0.16,
          0.057,
          0.142,
          0.074,
          0.127,
          0.194,
          -0.046,
          0.128,
          0.225,
          0.119,
          0.237,
          0.202,
          -0.025,
          0.13,
          0.272,
          0.223,
          -0.147,
          0.111,
          0.003,
          0.01,
          -0.098,
          0.175,
          0.017,
          -0.013,
          0.25,
          -0.176,
          0.038,
          -0.027,
          0.207,
          -0.096,
          0.203,
          0.052,
          -0.134,
          0.003,
          0.195,
          -0.047,
          -0.001,
          0.145,
          0.066,
          0.23,
          -0.084,
          0.142,
          -0.011,
          0.134,
          -0.183,
          0.271,
          0.137,
          0.29,
          0.268,
          -0.157
        ],
        [
          0.178,
          0.241,
          -0.075,
          -0.104,
          0.176,
          0.221,
          0.141,
          -0.196,
          0.085,
          0.287,
          0.294,
          0.074,
          -0.16,
          -0.162,
          0.028,
          -0.101,
          0.191,
          -0.162,
          0.09,
          -0.113,
          0.266,
          0.134,
          0.287,
          -0.063,
          0.217,
          -0.037,
          0.26,
          0.263,
          -0.185,
          0.11,
          0.267,
          0.285,
          -0.066,
          0.182,
          0.296,
          0.114,
          -0.096,
          -0.141,
          -0.013,
          0.081,
          0.264,
          -0.088,
          -0.011,
          0.281,
          0.115,
          0.193,
          0.255,
          -0.084,
          0.265,
          0.1,
          0.087,
          0.177,
          0.167,
          0.014,
          -0.035,
          -0.119,
          0.001,
          0.286,
          0.187,
          0.19,
          -0.094,
          -0.071,
          -0.049,
          0.156
        ],
        [
          0.232,
          0.154,
          -0.147,
          0.042,
          -0.098,
          0.147,
          0.1,
          -0.097,
          -0.02,
          0.292,
          0.085,
          -0.169,
          -0.06,
          -0.062,
          -0.092,
          0.071,
          0.066,
          0.041,
          -0.059,
          -0.14,
          0.254,
          -0.032,
          0.286,
          0.003,
          0.242,
          0.264,
          -0.152,
          0.053,
          0.112,
          -0.136,
          0.249,
          -0.031,
          -0.04,
          0.08,
          0.079,
          0.227,
          0.145,
          0.067,
          0.191,
          -0.01,
          -0.036,
          0.121,
          0.023,
          -0.021,
          0.07,
          0.294,
          -0.115,
          -0.008,
          0.094,
          -0.052,
          0.137,
          -0.124,
          0.004,
          -0.089,
          -0.031,
          0.292,
          0.298,
          0.224,
          0.176,
          0.261,
          -0.06,
          -0.073,
          0.114,
          0.043
        ],
        [
          0.21,
          -0.034,
          -0.139,
          0.16,
          0.08,
          -0.109,
          0.057,
          0.249,
          0.019,
          -0.184,
          -0.113,
          -0.076,
          -0.001,
          -0.119,
          0.14,
          0.078,
          0.141,
          -0.15,
          -0.087,
          0.028,
          0.044,
          0.277,
          -0.048,
          -0.059,
          0.058,
          0.18,
          -0.016,
          0.269,
          -0.15,
          0.164,
          -0.131,
          0.058,
          -0.189,
          -0.069,
          -0.063,
          -0.014,
          -0.085,
          0.115,
          -0.124,
          -0.085,
          0.196,
          -0.125,
          -0.152,
          0.2,
          -0.119,
          0.167,
          0.183,
          0.273,
          -0.018,
          -0.026,
          0.092,
          0.241,
          -0.14,
          -0.108,
          0.098,
          0.191,
          -0.177,
          0.131,
          0.165,
          0.196,
          0.021,
          -0.065,
          0.066,
          -0.021
        ],
        [
          -0.189,
          0.109,
          0.163,
          -0.13,
          0.258,
          0.084,
          0.086,
          -0.118,
          0.046,
          -0.126,
          0.015,
          0.074,
          -0.011,
          0.202,
          0.058,
          0.25,
          -0.088,
          0.208,
          0.117,
          0.258,
          -0.064,
          0.057,
          -0.177,
          -0.129,
          0.232,
          0.146,
          -0.022,
          -0.136,
          -0.082,
          0.016,
          -0.182,
          0.055,
          -0.191,
          0.153,
          -0.153,
          -0.014,
          0.063,
          0.276,
          -0.005,
          0.249,
          0.029,
          -0.093,
          0.1,
          -0.021,
          0.265,
          0.185,
          0.16,
          -0.116,
          0.247,
          0.226,
          0.02,
          -0.082,
          0.128,
          0.189,
          -0.17,
          -0.155,
          -0.128,
          -0.111,
          0.278,
          0.046,
          -0.07,
          0.204,
          -0.131,
          0.122
        ],
        [
          0.131,
          0.007,
          0.267,
          0.085,
          -0.2,
          0.147,
          -0.144,
          0.024,
          -0.035,
          0.164,
          -0.104,
          0.034,
          -0.071,
          -0.012,
          -0.083,
          -0.061,
          0.127,
          -0.099,
          0.198,
          0.135,
          -0.161,
          0.115,
          0.18,
          -0.081,
          -0.011,
          -0.095,
          -0.018,
          0.168,
          -0.071,
          -0.125,
          0.198,
          0.102,
          -0.053,
          -0.091,
          -0.053,
          -0.191,
          -0.148,
          0.279,
          -0.116,
          0.151,
          -0.08,
          -0.172,
          0.269,
          0.133,
          -0.014,
          0.273,
          0.296,
          0.284,
          0.047,
          -0.01,
          0.017,
          0.292,
          0.126,
          0.121,
          -0.103,
          0.243,
          -0.012,
          0.212,
          0.157,
          -0.167,
          -0.026,
          -0.164,
          0.165,
          -0.015
        ],
        [
          -0.195,
          0.106,
          0.042,
          0.289,
          -0.167,
          -0.078,
          0.198,
          0.032,
          -0.183,
          -0.091,
          0.159,
          0.184,
          -0.177,
          0.083,
          0.278,
          -0.112,
          0.052,
          -0.092,
          -0.109,
          0.235,
          -0.021,
          -0.064,
          0.194,
          -0.005,
          0.12,
          0.223,
          0.123,
          -0.186,
          0.276,
          0.074,
          0.185,
          0.216,
          0.035,
          0.208,
          0.042,
          -0.163,
          -0.159,
          0.065,
          0.013,
          0.135,
          0.217,
          0.18,
          -0.083,
          0.173,
          0.113,
          0.042,
          0.052,
          0.025,
          -0.039,
          -0.138,
          -0.178,
          0.179,
          -0.111,
          0.048,
          0.078,
          -0.008,
          0.269,
          0.083,
          0.234,
          0.098,
          0.29,
          -0.009,
          0.199,
          -0.155
        ],
        [
          -0.122,
          0.225,
          -0.182,
          0.092,
          0.269,
          0.211,
          -0.19,
          0.047,
          0.035,
          -0.143,
          -0.171,
          -0.084,
          0.062,
          0.184,
          0.017,
          -0.128,
          0.158,
          -0.078,
          0.218,
          0.223,
          0.069,
          -0.041,
          0.039,
          0.036,
          0.196,
          0.288,
          0.121,
          -0.013,
          0.265,
          0.192,
          0.157,
          -0.098,
          -0.133,
          -0.044,
          0.016,
          0.22,
          -0.06,
          -0.128,
          0.129,
          0.191,
          0.15,
          0.234,
          -0.084,
          0.233,
          -0.161,
          0.059,
          -0.027,
          -0.062,
          -0.153,
          -0.044,
          0.082,
          0.259,
          0.205,
          0.192,
          0.214,
          0.063,
          0.015,
          0.163,
          0.128,
          0.092,
          0.151,
          -0.071,
          -0.184,
          0.086
        ],
        [
          0.259,
          0.045,
          0.215,
          0.096,
          -0.065,
          -0.004,
          0.171,
          0,
          0.18,
          0.067,
          0.091,
          0.166,
          0.201,
          0.054,
          -0.033,
          0.249,
          0.081,
          0.208,
          0.094,
          0.099,
          0.09,
          0.255,
          0.295,
          0.041,
          0.125,
          -0.111,
          0.104,
          0.194,
          -0.193,
          0.004,
          0.235,
          -0.025,
          0.134,
          0.241,
          -0.123,
          0.152,
          -0.09,
          -0.13,
          0.033,
          -0.125,
          -0.092,
          0.026,
          0.276,
          -0.04,
          -0.056,
          0.064,
          0.093,
          0.267,
          -0.007,
          0.058,
          -0.134,
          0.055,
          0.246,
          -0.06,
          0.07,
          0.076,
          0.077,
          0.037,
          0.277,
          0.093,
          -0.028,
          0.284,
          0.177,
          0.179
        ],
        [
          -0.04,
          -0.142,
          0.013,
          0.108,
          0.251,
          -0.16,
          -0.091,
          -0.147,
          -0.023,
          -0.002,
          0.253,
          -0.045,
          -0.105,
          -0.061,
          0.272,
          0.21,
          0.205,
          -0.01,
          0.131,
          0.133,
          0.219,
          -0.031,
          0.193,
          -0.032,
          0.248,
          0.087,
          -0.128,
          0.286,
          0.142,
          0.135,
          0.295,
          -0.082,
          0.188,
          0.029,
          0.042,
          0.035,
          -0.173,
          0.187,
          -0.007,
          -0.052,
          0.25,
          0.071,
          -0.037,
          0.018,
          0.28,
          0.187,
          -0.077,
          -0.143,
          0.012,
          -0.151,
          -0.059,
          -0.054,
          0.108,
          0.292,
          0.161,
          0.244,
          0.24,
          0.055,
          -0.129,
          -0.123,
          0.122,
          0.092,
          -0.142,
          0.007
        ],
        [
          -0.081,
          0.269,
          0.036,
          0.188,
          -0.176,
          -0.02,
          -0.096,
          0.077,
          0,
          0.207,
          -0.117,
          0.295,
          0.128,
          0.115,
          0.199,
          0.126,
          -0.161,
          -0.183,
          0.199,
          -0.18,
          0.024,
          -0.126,
          -0.032,
          0.033,
          -0.04,
          0.03,
          -0.188,
          0.205,
          0.235,
          -0.103,
          -0.022,
          0.265,
          0.086,
          0.107,
          -0.114,
          0.002,
          0.039,
          0.053,
          0.035,
          0.203,
          -0.004,
          0.012,
          0.244,
          0.114,
          0.289,
          -0.049,
          -0.094,
          0.124,
          -0.052,
          -0.128,
          0.026,
          -0.19,
          0.214,
          -0.007,
          0.102,
          -0.128,
          0.197,
          -0.194,
          0.287,
          0.219,
          -0.073,
          0.297,
          -0.088,
          -0.074
        ],
        [
          -0.087,
          0.225,
          0.02,
          -0.191,
          -0.109,
          -0.099,
          -0.137,
          0.029,
          0.222,
          0.062,
          0.201,
          0.03,
          0.081,
          0.27,
          -0.167,
          0.021,
          -0.072,
          0.152,
          0.048,
          -0.154,
          0.078,
          -0.016,
          0.246,
          -0.142,
          -0.092,
          0.075,
          -0.097,
          0.209,
          0.095,
          -0.134,
          0.053,
          0.063,
          0.289,
          0.239,
          -0.04,
          0.089,
          -0.194,
          0.284,
          0.155,
          -0.097,
          -0.176,
          0.132,
          0.286,
          0.125,
          -0.083,
          0.267,
          0.005,
          0.156,
          -0.194,
          -0.056,
          -0.063,
          0.203,
          0.023,
          0.124,
          0.045,
          -0.155,
          0.216,
          0.238,
          0.169,
          -0.174,
          -0.117,
          -0.165,
          0.291,
          0.272
        ],
        [
          -0.104,
          0.113,
          0.066,
          -0.035,
          0.162,
          -0.018,
          0.158,
          0.144,
          0.163,
          -0.092,
          -0.17,
          0.135,
          0.286,
          0.025,
          0.018,
          0.264,
          0.196,
          -0.138,
          -0.19,
          -0.195,
          0.053,
          0.045,
          -0.137,
          0.15,
          -0.132,
          -0.092,
          -0.125,
          -0.067,
          0.247,
          0.189,
          0.257,
          0.118,
          0.025,
          0.055,
          0.236,
          0.028,
          -0.187,
          0.213,
          0.107,
          0.232,
          -0.095,
          0.104,
          0.256,
          0.039,
          0.197,
          -0.125,
          -0.128,
          0.018,
          -0.102,
          0.022,
          0.169,
          -0.14,
          -0.026,
          0.206,
          -0.109,
          0.266,
          -0.12,
          0.102,
          0.123,
          -0.095,
          0.201,
          -0.176,
          -0.017,
          0.163
        ],
        [
          0.065,
          0.11,
          0.161,
          0.165,
          0.161,
          0.159,
          -0.056,
          0.274,
          -0.089,
          0.2,
          -0.197,
          0.272,
          0.066,
          0.26,
          0.043,
          0.227,
          0.196,
          -0.07,
          0.086,
          0.284,
          -0.036,
          0.238,
          0.174,
          0.209,
          -0.058,
          0.06,
          0.197,
          -0.172,
          0.183,
          0.159,
          0.2,
          0.132,
          0.196,
          0.022,
          0.024,
          0.204,
          0.173,
          -0.128,
          0.006,
          0.186,
          -0.127,
          0.29,
          -0.169,
          0.199,
          -0.097,
          0.092,
          0.08,
          -0.086,
          0.224,
          -0.032,
          0.187,
          0.041,
          0.067,
          0.148,
          -0.196,
          0.023,
          -0.168,
          0.27,
          -0.135,
          -0.183,
          0.029,
          0.198,
          -0.106,
          -0.078
        ],
        [
          0.102,
          -0.191,
          -0.078,
          0.275,
          0.155,
          -0.026,
          0.295,
          -0.093,
          0.234,
          0.187,
          0.028,
          -0.179,
          -0.198,
          0.11,
          0.17,
          0.075,
          -0.097,
          -0.033,
          0.055,
          -0.178,
          0.233,
          -0.192,
          0.235,
          -0.176,
          -0.034,
          0.251,
          -0.022,
          0.022,
          0.238,
          0.016,
          0.269,
          0.03,
          0.204,
          0.092,
          0.109,
          0.071,
          0.136,
          0.116,
          -0.054,
          0.164,
          -0.06,
          -0.023,
          0.165,
          0.235,
          0.062,
          0.185,
          -0.073,
          0,
          -0.016,
          0.193,
          0.206,
          -0.037,
          0.275,
          -0.158,
          -0.178,
          0.009,
          0.136,
          -0.06,
          -0.135,
          0.166,
          0.146,
          -0.173,
          0.252,
          -0.146
        ],
        [
          -0.057,
          -0.068,
          -0.128,
          -0.193,
          0.092,
          -0.087,
          -0.125,
          0.296,
          -0.18,
          -0.12,
          0.036,
          0.175,
          0.102,
          0.191,
          0.233,
          0.063,
          0.149,
          0.002,
          0.253,
          0.156,
          0.221,
          0.098,
          0.029,
          -0.099,
          0.232,
          0.131,
          -0.098,
          -0.198,
          0.281,
          0.147,
          0.129,
          0.049,
          0.114,
          0.16,
          0.23,
          0.139,
          -0.087,
          -0.041,
          -0.047,
          -0.136,
          0.004,
          -0.137,
          0.02,
          0.22,
          0.193,
          -0.187,
          0.138,
          -0.047,
          0.034,
          0.168,
          -0.115,
          0.225,
          -0.188,
          0.048,
          0.039,
          0.149,
          0.014,
          0.211,
          0.044,
          -0.046,
          0.24,
          -0.091,
          -0.188,
          0.249
        ],
        [
          0.161,
          -0.106,
          0.104,
          0.14,
          0,
          0.244,
          0.044,
          0.218,
          0.286,
          0.024,
          -0.093,
          -0.08,
          -0.031,
          0.239,
          0.072,
          0.176,
          -0.085,
          -0.187,
          -0.03,
          0.281,
          0.16,
          0.08,
          -0.013,
          0.095,
          0.21,
          -0.04,
          0.117,
          0.288,
          0.013,
          0.23,
          -0.177,
          -0.009,
          -0.003,
          0.198,
          0.015,
          0.216,
          0.029,
          0.113,
          0.079,
          -0.017,
          -0.075,
          0.244,
          0.238,
          -0.194,
          0.278,
          -0.081,
          -0.075,
          -0.078,
          0.046,
          -0.189,
          -0.12,
          -0.119,
          0.04,
          -0.05,
          0.287,
          -0.054,
          -0.035,
          0.031,
          -0.024,
          0.255,
          -0.073,
          -0.089,
          -0.09,
          -0.011
        ],
        [
          0.026,
          0.012,
          0.048,
          0.094,
          -0.042,
          -0.062,
          0.243,
          -0.13,
          -0.022,
          0.212,
          0.091,
          -0.053,
          0.122,
          -0.128,
          -0.179,
          -0.116,
          0.037,
          -0.163,
          0.261,
          -0.014,
          -0.153,
          0.299,
          -0.177,
          -0.018,
          0.057,
          -0.039,
          0.199,
          0.201,
          -0.153,
          -0.091,
          -0.064,
          0.103,
          0.068,
          0.022,
          0.278,
          0.178,
          -0.041,
          0.046,
          -0.017,
          -0.005,
          -0.104,
          -0.139,
          0.2,
          -0.155,
          -0.017,
          0.084,
          -0.125,
          -0.118,
          0.189,
          0.248,
          0.296,
          0.037,
          -0.109,
          0.227,
          0.284,
          -0.161,
          0.018,
          0.19,
          -0.076,
          0.272,
          -0.142,
          0.133,
          0.28,
          0.18
        ],
        [
          0.003,
          0.136,
          -0.182,
          0.004,
          -0.081,
          0.219,
          -0.175,
          -0.115,
          0.177,
          0.259,
          0.008,
          -0.047,
          0.149,
          -0.187,
          0.088,
          -0.113,
          -0.132,
          -0.011,
          -0.159,
          0.084,
          -0.095,
          0.136,
          -0.066,
          -0.032,
          0.034,
          0.261,
          0.079,
          -0.167,
          -0.195,
          -0.153,
          0.107,
          -0.085,
          -0.103,
          -0.063,
          -0.08,
          -0.098,
          0.071,
          0.074,
          0.248,
          0.009,
          -0.122,
          -0.157,
          0.197,
          0.098,
          0.106,
          0.105,
          -0.112,
          0.244,
          0.051,
          0.189,
          0.12,
          0.075,
          0.02,
          0.27,
          0.034,
          0.032,
          -0.029,
          0.105,
          0.256,
          -0.163,
          0.087,
          -0.103,
          -0.031,
          -0.137
        ],
        [
          0.136,
          -0.11,
          0.292,
          -0.166,
          -0.198,
          0.032,
          0.033,
          -0.032,
          -0.136,
          -0.116,
          -0.157,
          -0.126,
          0.172,
          -0.002,
          -0.068,
          0.091,
          -0.111,
          0.243,
          -0.198,
          -0.126,
          0.081,
          -0.1,
          0.148,
          0.023,
          0.054,
          0.147,
          -0.067,
          0.051,
          0.153,
          -0.044,
          -0.172,
          0.208,
          -0.017,
          -0.076,
          0.214,
          0.292,
          -0.066,
          -0.174,
          -0.004,
          0.013,
          -0.133,
          0.064,
          -0.177,
          0.228,
          0.174,
          -0.102,
          0.018,
          -0.04,
          -0.071,
          0.235,
          0.021,
          -0.196,
          0.099,
          0.037,
          0.122,
          0.031,
          0.024,
          0.297,
          0.279,
          -0.117,
          0.297,
          0.18,
          -0.114,
          -0.051
        ],
        [
          0.102,
          0.22,
          0.119,
          0.087,
          0.232,
          0.058,
          -0.087,
          -0.001,
          -0.089,
          -0.169,
          0.213,
          -0.06,
          0.096,
          0.051,
          -0.161,
          -0.144,
          0.238,
          0.02,
          0.175,
          0.202,
          0.287,
          -0.186,
          0.295,
          0.009,
          0.152,
          -0.185,
          0.294,
          0.059,
          0.009,
          -0.166,
          -0.133,
          0.208,
          -0.046,
          -0.156,
          0.144,
          -0.055,
          0.171,
          0.062,
          0.037,
          0.198,
          -0.091,
          0.11,
          0.124,
          -0.046,
          0.204,
          0.214,
          0.119,
          0.18,
          0.22,
          0.198,
          0.19,
          -0.119,
          0.063,
          0.113,
          0.293,
          -0.171,
          0.236,
          -0.153,
          0.269,
          -0.105,
          0.189,
          0.16,
          0.194,
          0.088
        ],
        [
          -0.084,
          0.162,
          0.067,
          0.279,
          0.028,
          -0.131,
          0.117,
          0.127,
          0.125,
          0.14,
          0,
          -0.041,
          0.196,
          -0.028,
          -0.012,
          -0.086,
          0.019,
          -0.179,
          0.003,
          0.163,
          0.08,
          0.129,
          0.142,
          0.036,
          -0.037,
          0.146,
          0.021,
          -0.188,
          -0.006,
          0.276,
          0.073,
          -0.024,
          0.043,
          0.179,
          0.046,
          0.027,
          0.219,
          0.059,
          0.095,
          0.267,
          -0.142,
          -0.043,
          0.052,
          -0.196,
          -0.12,
          0.031,
          0.043,
          0.114,
          -0.128,
          0.294,
          -0.09,
          -0.068,
          -0.044,
          0.121,
          -0.09,
          0.187,
          -0.191,
          0.187,
          -0.056,
          0.217,
          -0.05,
          -0.056,
          -0.055,
          0.026
        ],
        [
          -0.027,
          0.262,
          0.181,
          0.173,
          -0.003,
          -0.011,
          -0.173,
          -0.199,
          -0.038,
          -0.03,
          0.292,
          0.277,
          -0.098,
          -0.12,
          0.191,
          0.146,
          -0.058,
          0.082,
          0.286,
          0.153,
          0.288,
          -0.087,
          0.01,
          -0.118,
          0.284,
          0.005,
          -0.177,
          0.155,
          0.289,
          -0.197,
          -0.181,
          -0.131,
          -0.075,
          -0.173,
          0,
          -0.037,
          -0.174,
          -0.125,
          0.196,
          -0.021,
          -0.19,
          0.104,
          0.101,
          0.087,
          0.284,
          -0.039,
          -0.157,
          0.168,
          -0.129,
          -0.085,
          -0.059,
          -0.116,
          0.172,
          0.017,
          -0.102,
          -0.057,
          0.25,
          -0.095,
          -0.152,
          0.136,
          -0.187,
          0.248,
          -0.032,
          -0.173
        ],
        [
          0.137,
          0.268,
          -0.076,
          0.205,
          0.06,
          0.269,
          0.268,
          -0.04,
          0.289,
          0.26,
          0.173,
          0.012,
          -0.064,
          0.107,
          -0.058,
          0.286,
          -0.183,
          0.119,
          -0.042,
          -0.037,
          0.048,
          -0.036,
          -0.116,
          0.11,
          0.167,
          -0.055,
          0.016,
          -0.131,
          -0.014,
          0.109,
          0.27,
          -0.153,
          -0.08,
          -0.108,
          0.162,
          0.066,
          0.185,
          -0.192,
          0.151,
          0.14,
          0.071,
          0.17,
          -0.138,
          -0.084,
          -0.075,
          0.184,
          -0.071,
          0.049,
          0.197,
          -0.128,
          -0.112,
          0.246,
          -0.062,
          0.121,
          -0.187,
          0.298,
          -0.027,
          -0.117,
          -0.144,
          -0.077,
          0.269,
          -0.163,
          -0.055,
          0.219
        ],
        [
          0.004,
          0.051,
          0.083,
          0.206,
          -0.07,
          0.249,
          0.254,
          0.048,
          -0.067,
          0.154,
          0.045,
          -0.013,
          -0.141,
          0.038,
          0.033,
          0.193,
          -0.022,
          -0.173,
          -0.105,
          0.287,
          -0.01,
          -0.072,
          -0.012,
          0.045,
          0.053,
          0.079,
          0.257,
          -0.132,
          0.135,
          0.078,
          0.15,
          0.032,
          0.06,
          -0.001,
          -0.042,
          0.138,
          0.176,
          -0.139,
          0.097,
          0.124,
          0.039,
          0.234,
          0.044,
          -0.167,
          0.031,
          0.036,
          0.091,
          -0.048,
          -0.089,
          -0.157,
          -0.022,
          0.144,
          -0.125,
          -0.004,
          -0.084,
          0.188,
          0.051,
          0.275,
          0.032,
          0.244,
          0.205,
          -0.049,
          0.273,
          0.09
        ],
        [
          -0.006,
          0.149,
          0.095,
          0.2,
          0.035,
          0.17,
          0.271,
          -0.172,
          0.121,
          -0.14,
          0.038,
          0.029,
          0.256,
          0.189,
          -0.009,
          0.08,
          0.215,
          0.05,
          0.11,
          0.264,
          0.214,
          -0.131,
          -0.003,
          0.128,
          -0.052,
          -0.026,
          0.138,
          -0.098,
          0.052,
          0.046,
          0.288,
          0.018,
          0.135,
          0.218,
          0.032,
          0.012,
          0.028,
          0.032,
          0.009,
          0.078,
          -0.099,
          0.206,
          0.102,
          0.147,
          0.104,
          0.176,
          -0.171,
          -0.097,
          0.271,
          0.174,
          0.011,
          -0.142,
          0.273,
          0.234,
          -0.055,
          0.172,
          0.049,
          0.181,
          0.019,
          -0.089,
          0.285,
          0.117,
          0.184,
          -0.186
        ],
        [
          0.087,
          0.033,
          0.224,
          -0.021,
          0.002,
          -0.129,
          -0.03,
          0.29,
          0.095,
          0.153,
          -0.143,
          0.219,
          0.21,
          0.275,
          -0.056,
          -0.128,
          0.173,
          -0.143,
          -0.16,
          0.041,
          0.298,
          0.104,
          -0.026,
          -0.055,
          -0.113,
          0.093,
          -0.025,
          0.216,
          -0.198,
          -0.06,
          0.087,
          0.005,
          -0.157,
          -0.128,
          0.219,
          0.209,
          -0.194,
          0.284,
          0.279,
          0.036,
          -0.156,
          -0.114,
          0.209,
          0.137,
          0.056,
          -0.186,
          -0.107,
          -0.183,
          -0.106,
          -0.133,
          0.28,
          -0.168,
          0.115,
          -0.027,
          0.059,
          0.124,
          0.194,
          -0.18,
          -0.199,
          0.186,
          -0.078,
          0.111,
          0.029,
          0.288
        ],
        [
          0.115,
          0.11,
          -0.146,
          0.118,
          -0.02,
          0.19,
          0.044,
          -0.18,
          -0.194,
          -0.172,
          -0.114,
          0.088,
          0.118,
          -0.007,
          -0.12,
          0.284,
          0.232,
          -0.061,
          0.251,
          0.273,
          0.127,
          0.191,
          0.273,
          0.092,
          0.046,
          0.088,
          0.095,
          -0.141,
          0.099,
          0.244,
          0.103,
          0.29,
          -0.101,
          0.07,
          0.176,
          0.134,
          -0.035,
          0.099,
          -0.129,
          0.289,
          0.067,
          0.119,
          0.214,
          -0.12,
          -0.139,
          0.069,
          -0.02,
          0.218,
          0.058,
          -0.17,
          0.156,
          -0.077,
          -0.018,
          0.233,
          0.18,
          -0.041,
          0.193,
          -0.099,
          0.118,
          0.052,
          -0.194,
          -0.062,
          -0.003,
          -0.057
        ],
        [
          -0.04,
          0.287,
          -0.181,
          0.261,
          -0.163,
          0.188,
          -0.014,
          0.075,
          0.105,
          0.282,
          0.076,
          0.109,
          0.18,
          0.04,
          0.07,
          -0.061,
          0.16,
          -0.109,
          -0.084,
          0.059,
          0.255,
          0.151,
          0.128,
          0.276,
          0.065,
          0.091,
          -0.053,
          0.017,
          0.016,
          0.218,
          -0.089,
          0.154,
          0.29,
          0.016,
          -0.186,
          0.296,
          0.196,
          -0.068,
          0.215,
          0.262,
          0.212,
          0.174,
          -0.088,
          0.294,
          0.256,
          -0.179,
          -0.012,
          0.274,
          0.235,
          -0.029,
          -0.095,
          0.254,
          -0.136,
          0.123,
          0.122,
          0.108,
          0.094,
          0.046,
          0.055,
          0.016,
          -0.004,
          -0.163,
          0.097,
          0.177
        ],
        [
          0.121,
          -0.051,
          -0.087,
          0.168,
          -0.084,
          0.111,
          0.261,
          -0.022,
          -0.197,
          0.117,
          -0.022,
          -0.047,
          -0.108,
          -0.071,
          0.259,
