{
  "version": "1.0",
  "metadata": {
    "architecture": [64, 128, 64, 4],
    "trainedGenerations": 250,
    "fitnessScore": 0.3,
    "trainingDate": "2024-01-15T12:00:00Z",
    "trainingConfig": {
      "populationSize": 100,
      "mutationRate": 0.1,
      "crossoverRate": 0.7,
      "elitismRate": 0.1,
      "gameTimeLimit": 60000,
      "gamesPerAgent": 5
    },
    "description": "Beginner-level trained neural network - basic survival skills",
    "authorInfo": "MinuteSnake Neural Network Training System"
  },
  "layers": [
    {
      "inputSize": 64,
      "outputSize": 128,
      "weights": [
        [
          -0.245, 0.152, 0.187, 0.391, -0.178, 0.268, 0.245, 0.198, -0.156,
          -0.089, 0.234, 0.187, 0.165, 0.298, 0.201, -0.123, -0.078, -0.145,
          0.089, -0.187, 0.134, -0.056, -0.267, -0.345, 0.312, 0.298, 0.078,
          -0.089, -0.156, -0.234, 0.367, -0.289, 0.178, -0.067, -0.034, 0.289,
          -0.312, 0.123, -0.067, 0.234, 0.067, 0.289, 0.267, -0.234, -0.078,
          0.189, 0.287, -0.112, -0.134, -0.334, 0.298, 0.156, -0.245, -0.312,
          -0.189, 0.067, -0.323, -0.278, 0.289, 0.134, -0.289, -0.245, -0.123,
          -0.234
        ],
        [
          -0.267, 0.289, 0.267, 0.198, -0.334, 0.189, 0.245, -0.298, -0.123,
          -0.234, -0.323, 0.189, -0.278, 0.089, 0.123, -0.289, 0.089, -0.178,
          0.234, -0.134, -0.298, 0.178, 0.089, -0.198, 0.312, 0.067, -0.312,
          0.189, -0.189, -0.267, 0.323, -0.334, -0.112, -0.312, -0.156, -0.245,
          -0.189, 0.145, -0.289, 0.234, 0.267, -0.067, -0.156, 0.267, -0.189,
          -0.245, 0.034, -0.089, -0.078, 0.212, 0.156, -0.245, 0.145, 0.278,
          -0.298, 0.145, 0.134, -0.289, -0.034, -0.067, -0.112, -0.123, 0.067,
          -0.089
        ],
        [
          0.123, 0.156, -0.234, -0.323, -0.156, -0.298, -0.267, -0.289, 0.034,
          0.212, 0.212, 0.234, 0.245, 0.178, -0.156, 0.189, 0.212, -0.089,
          -0.078, -0.056, -0.067, 0.245, 0.267, -0.112, -0.123, -0.034, 0.212,
          -0.334, 0.323, 0.312, 0.289, 0.067, 0.198, 0.167, 0.298, 0.312,
          -0.056, -0.289, 0.156, -0.189, -0.067, -0.201, 0.267, 0.078, 0.245,
          0.323, 0.278, 0.145, 0.123, 0.123, 0.323, 0.334, -0.145, -0.245,
          0.289, 0.201, -0.189, -0.245, -0.145, -0.156, 0.289, 0.034, 0.078,
          -0.134
        ]
      ],
      "biases": [
        0.012, -0.034, 0.067, 0.023, -0.045, 0.089, 0.034, -0.012, 0.056,
        -0.078, 0.012, 0.045, -0.023, 0.067, 0.089, -0.056, 0.012, -0.034,
        0.078, 0.023, -0.045, 0.067, 0.034, -0.089, 0.056, -0.012, 0.089, 0.023,
        -0.067, 0.045, 0.034, -0.078, 0.012, 0.056, -0.023, 0.089, 0.045,
        -0.067, 0.034, 0.012, -0.089, 0.078, 0.023, -0.045, 0.067, 0.056,
        -0.034, 0.012, 0.089, -0.023, 0.045, 0.067, -0.078, 0.034, 0.056,
        -0.012, 0.089, 0.023, -0.067, 0.045, 0.034, -0.078, 0.012, 0.056,
        -0.023, 0.089, 0.045, -0.067, 0.034, 0.012, -0.089, 0.078, 0.023,
        -0.045, 0.067, 0.056, -0.034, 0.012, 0.089, -0.023, 0.045, 0.067,
        -0.078, 0.034, 0.056, -0.012, 0.089, 0.023, -0.067, 0.045, 0.034,
        -0.078, 0.012, 0.056, -0.023, 0.089, 0.045, -0.067, 0.034, 0.012,
        -0.089, 0.078, 0.023, -0.045, 0.067, 0.056, -0.034, 0.012, 0.089,
        -0.023, 0.045, 0.067, -0.078, 0.034, 0.056, -0.012, 0.089, 0.023,
        -0.067, 0.045, 0.034, -0.078, 0.012, 0.056, -0.023, 0.089, 0.045, -0.067
      ]
    },
    {
      "inputSize": 128,
      "outputSize": 64,
      "weights": [
        [
          -0.189, 0.234, 0.156, -0.267, 0.123, 0.298, -0.178, 0.089, -0.234,
          0.156, 0.267, -0.123, 0.089, -0.298, 0.178, 0.234, -0.156, 0.267,
          0.123, -0.089, 0.298, -0.178, 0.234, 0.156, -0.267, 0.123, 0.089,
          -0.298, 0.178, 0.234, -0.156, 0.267, 0.123, -0.089, 0.298, -0.178,
          0.234, 0.156, -0.267, 0.123, 0.089, -0.298, 0.178, 0.234, -0.156,
          0.267, 0.123, -0.089, 0.298, -0.178, 0.234, 0.156, -0.267, 0.123,
          0.089, -0.298, 0.178, 0.234, -0.156, 0.267, 0.123, -0.089, 0.298,
          -0.178
        ],
        [
          0.234, -0.156, 0.267, 0.123, -0.089, 0.298, -0.178, 0.234, 0.156,
          -0.267, 0.123, 0.089, -0.298, 0.178, 0.234, -0.156, 0.267, 0.123,
          -0.089, 0.298, -0.178, 0.234, 0.156, -0.267, 0.123, 0.089, -0.298,
          0.178, 0.234, -0.156, 0.267, 0.123, -0.089, 0.298, -0.178, 0.234,
          0.156, -0.267, 0.123, 0.089, -0.298, 0.178, 0.234, -0.156, 0.267,
          0.123, -0.089, 0.298, -0.178, 0.234, 0.156, -0.267, 0.123, 0.089,
          -0.298, 0.178, 0.234, -0.156, 0.267, 0.123, -0.089, 0.298, -0.178,
          0.234
        ]
      ],
      "biases": [
        0.023, -0.045, 0.067, 0.034, -0.089, 0.056, 0.012, -0.078, 0.089, 0.023,
        -0.067, 0.045, 0.034, -0.078, 0.012, 0.056, -0.023, 0.089, 0.045,
        -0.067, 0.034, 0.012, -0.089, 0.078, 0.023, -0.045, 0.067, 0.056,
        -0.034, 0.012, 0.089, -0.023, 0.045, 0.067, -0.078, 0.034, 0.056,
        -0.012, 0.089, 0.023, -0.067, 0.045, 0.034, -0.078, 0.012, 0.056,
        -0.023, 0.089, 0.045, -0.067, 0.034, 0.012, -0.089, 0.078, 0.023,
        -0.045, 0.067, 0.056, -0.034, 0.012, 0.089, -0.023, 0.045, 0.067
      ]
    },
    {
      "inputSize": 64,
      "outputSize": 4,
      "weights": [
        [
          0.345, -0.267, 0.189, 0.234, -0.156, 0.298, 0.178, -0.089, 0.234,
          0.156, -0.267, 0.123, 0.089, -0.298, 0.178, 0.234, -0.156, 0.267,
          0.123, -0.089, 0.298, -0.178, 0.234, 0.156, -0.267, 0.123, 0.089,
          -0.298, 0.178, 0.234, -0.156, 0.267, 0.123, -0.089, 0.298, -0.178,
          0.234, 0.156, -0.267, 0.123, 0.089, -0.298, 0.178, 0.234, -0.156,
          0.267, 0.123, -0.089, 0.298, -0.178, 0.234, 0.156, -0.267, 0.123,
          0.089, -0.298, 0.178, 0.234, -0.156, 0.267, 0.123, -0.089, 0.298,
          -0.178
        ],
        [
          -0.298, 0.234, -0.156, 0.267, 0.123, -0.089, 0.298, -0.178, 0.234,
          0.156, -0.267, 0.123, 0.089, -0.298, 0.178, 0.234, -0.156, 0.267,
          0.123, -0.089, 0.298, -0.178, 0.234, 0.156, -0.267, 0.123, 0.089,
          -0.298, 0.178, 0.234, -0.156, 0.267, 0.123, -0.089, 0.298, -0.178,
          0.234, 0.156, -0.267, 0.123, 0.089, -0.298, 0.178, 0.234, -0.156,
          0.267, 0.123, -0.089, 0.298, -0.178, 0.234, 0.156, -0.267, 0.123,
          0.089, -0.298, 0.178, 0.234, -0.156, 0.267, 0.123, -0.089, 0.298,
          -0.178
        ],
        [
          0.178, -0.234, 0.156, 0.267, -0.123, 0.089, -0.298, 0.178, 0.234,
          -0.156, 0.267, 0.123, -0.089, 0.298, -0.178, 0.234, 0.156, -0.267,
          0.123, 0.089, -0.298, 0.178, 0.234, -0.156, 0.267, 0.123, -0.089,
          0.298, -0.178, 0.234, 0.156, -0.267, 0.123, 0.089, -0.298, 0.178,
          0.234, -0.156, 0.267, 0.123, -0.089, 0.298, -0.178, 0.234, 0.156,
          -0.267, 0.123, 0.089, -0.298, 0.178, 0.234, -0.156, 0.267, 0.123,
          -0.089, 0.298, -0.178, 0.234, 0.156, -0.267, 0.123, 0.089, -0.298,
          0.178
        ],
        [
          -0.234, 0.156, -0.267, 0.123, 0.089, -0.298, 0.178, 0.234, -0.156,
          0.267, 0.123, -0.089, 0.298, -0.178, 0.234, 0.156, -0.267, 0.123,
          0.089, -0.298, 0.178, 0.234, -0.156, 0.267, 0.123, -0.089, 0.298,
          -0.178, 0.234, 0.156, -0.267, 0.123, 0.089, -0.298, 0.178, 0.234,
          -0.156, 0.267, 0.123, -0.089, 0.298, -0.178, 0.234, 0.156, -0.267,
          0.123, 0.089, -0.298, 0.178, 0.234, -0.156, 0.267, 0.123, -0.089,
          0.298, -0.178, 0.234, 0.156, -0.267, 0.123, 0.089, -0.298, 0.178,
          0.234
        ]
      ],
      "biases": [0.067, -0.089, 0.045, 0.034]
    }
  ]
}
