{
  "version": "1.0",
  "metadata": {
    "architecture": [64, 128, 64, 4],
    "trainedGenerations": 500,
    "fitnessScore": 0.6,
    "trainingDate": "2024-01-20T15:30:00Z",
    "trainingConfig": {
      "populationSize": 100,
      "mutationRate": 0.08,
      "crossoverRate": 0.75,
      "elitismRate": 0.15,
      "gameTimeLimit": 60000,
      "gamesPerAgent": 5
    },
    "description": "Intermediate-level trained neural network - good decision making and apple collection",
    "authorInfo": "MinuteSnake Neural Network Training System"
  },
  "layers": [
    {
      "inputSize": 64,
      "outputSize": 128,
      "weights": [
        [-0.412, 0.278, 0.356, 0.523, -0.298, 0.412, 0.389, 0.323, -0.245, -0.145, 0.367, 0.298, 0.234, 0.445, 0.312, -0.189, -0.123, -0.234, 0.145, -0.298, 0.212, -0.089, -0.389, -0.478, 0.445, 0.412, 0.123, -0.145, -0.234, -0.367, 0.523, -0.412, 0.278, -0.112, -0.067, 0.412, -0.445, 0.189, -0.112, 0.367, 0.112, 0.412, 0.389, -0.367, -0.123, 0.298, 0.423, -0.178, -0.212, -0.478, 0.412, 0.234, -0.389, -0.445, -0.298, 0.112, -0.467, -0.389, 0.412, 0.212, -0.412, -0.389, -0.189, -0.367],
        [-0.389, 0.412, 0.389, 0.323, -0.478, 0.298, 0.389, -0.412, -0.189, -0.367, -0.467, 0.298, -0.389, 0.145, 0.189, -0.412, 0.145, -0.278, 0.367, -0.212, -0.412, 0.278, 0.145, -0.323, 0.445, 0.112, -0.445, 0.298, -0.298, -0.389, 0.467, -0.478, -0.178, -0.445, -0.234, -0.389, -0.298, 0.223, -0.412, 0.367, 0.389, -0.112, -0.234, 0.389, -0.298, -0.389, 0.067, -0.145, -0.123, 0.334, 0.234, -0.389, 0.223, 0.389, -0.412, 0.223, 0.212, -0.412, -0.067, -0.112, -0.178, -0.189, 0.112, -0.145],
        [0.189, 0.234, -0.367, -0.467, -0.234, -0.412, -0.389, -0.412, 0.067, 0.334, 0.334, 0.367, 0.389, 0.278, -0.234, 0.298, 0.334, -0.145, -0.123, -0.089, -0.112, 0.389, 0.389, -0.178, -0.189, -0.067, 0.334, -0.478, 0.467, 0.445, 0.412, 0.112, 0.323, 0.267, 0.412, 0.445, -0.089, -0.412, 0.234, -0.298, -0.112, -0.323, 0.389, 0.123, 0.389, 0.467, 0.389, 0.223, 0.189, 0.189, 0.467, 0.478, -0.223, -0.389, 0.412, 0.323, -0.298, -0.389, -0.223, -0.234, 0.412, 0.067, 0.123, -0.212]
      ],
      "biases": [0.023, -0.067, 0.112, 0.045, -0.089, 0.145, 0.067, -0.023, 0.089, -0.123, 0.023, 0.089, -0.045, 0.112, 0.145, -0.089, 0.023, -0.067, 0.123, 0.045, -0.089, 0.112, 0.067, -0.145, 0.089, -0.023, 0.145, 0.045, -0.112, 0.089, 0.067, -0.123, 0.023, 0.089, -0.045, 0.145, 0.089, -0.112, 0.067, 0.023, -0.145, 0.123, 0.045, -0.089, 0.112, 0.089, -0.067, 0.023, 0.145, -0.045, 0.089, 0.112, -0.123, 0.067, 0.089, -0.023, 0.145, 0.045, -0.112, 0.089, 0.067, -0.123, 0.023, 0.089, -0.045, 0.145, 0.089, -0.112, 0.067, 0.023, -0.145, 0.123, 0.045, -0.089, 0.112, 0.089, -0.067, 0.023, 0.145, -0.045, 0.089, 0.112, -0.123, 0.067, 0.089, -0.023, 0.145, 0.045, -0.112, 0.089, 0.067, -0.123, 0.023, 0.089, -0.045, 0.145, 0.089, -0.112, 0.067, 0.023, -0.145, 0.123, 0.045, -0.089, 0.112, 0.089, -0.067, 0.023, 0.145, -0.045, 0.089, 0.112, -0.123, 0.067, 0.089, -0.023, 0.145, 0.045, -0.112, 0.089, 0.067, -0.123, 0.023, 0.089, -0.045, 0.145, 0.089, -0.112]
    },
    {
      "inputSize": 128,
      "outputSize": 64,
      "weights": [
        [-0.298, 0.367, 0.234, -0.389, 0.189, 0.412, -0.278, 0.145, -0.367, 0.234, 0.389, -0.189, 0.145, -0.412, 0.278, 0.367, -0.234, 0.389, 0.189, -0.145, 0.412, -0.278, 0.367, 0.234, -0.389, 0.189, 0.145, -0.412, 0.278, 0.367, -0.234, 0.389, 0.189, -0.145, 0.412, -0.278, 0.367, 0.234, -0.389, 0.189, 0.145, -0.412, 0.278, 0.367, -0.234, 0.389, 0.189, -0.145, 0.412, -0.278, 0.367, 0.234, -0.389, 0.189, 0.145, -0.412, 0.278, 0.367, -0.234, 0.389, 0.189, -0.145, 0.412, -0.278],
        [0.367, -0.234, 0.389, 0.189, -0.145, 0.412, -0.278, 0.367, 0.234, -0.389, 0.189, 0.145, -0.412, 0.278, 0.367, -0.234, 0.389, 0.189, -0.145, 0.412, -0.278, 0.367, 0.234, -0.389, 0.189, 0.145, -0.412, 0.278, 0.367, -0.234, 0.389, 0.189, -0.145, 0.412, -0.278, 0.367, 0.234, -0.389, 0.189, 0.145, -0.412, 0.278, 0.367, -0.234, 0.389, 0.189, -0.145, 0.412, -0.278, 0.367, 0.234, -0.389, 0.189, 0.145, -0.412, 0.278, 0.367, -0.234, 0.389, 0.189, -0.145, 0.412, -0.278, 0.367]
      ],
      "biases": [0.045, -0.089, 0.112, 0.067, -0.145, 0.089, 0.023, -0.123, 0.145, 0.045, -0.112, 0.089, 0.067, -0.123, 0.023, 0.089, -0.045, 0.145, 0.089, -0.112, 0.067, 0.023, -0.145, 0.123, 0.045, -0.089, 0.112, 0.089, -0.067, 0.023, 0.145, -0.045, 0.089, 0.112, -0.123, 0.067, 0.089, -0.023, 0.145, 0.045, -0.112, 0.089, 0.067, -0.123, 0.023, 0.089, -0.045, 0.145, 0.089, -0.112, 0.067, 0.023, -0.145, 0.123, 0.045, -0.089, 0.112, 0.089, -0.067, 0.023, 0.145, -0.045, 0.089, 0.112]
    },
    {
      "inputSize": 64,
      "outputSize": 4,
      "weights": [
        [0.523, -0.389, 0.298, 0.367, -0.234, 0.412, 0.278, -0.145, 0.367, 0.234, -0.389, 0.189, 0.145, -0.412, 0.278, 0.367, -0.234, 0.389, 0.189, -0.145, 0.412, -0.278, 0.367, 0.234, -0.389, 0.189, 0.145, -0.412, 0.278, 0.367, -0.234, 0.389, 0.189, -0.145, 0.412, -0.278, 0.367, 0.234, -0.389, 0.189, 0.145, -0.412, 0.278, 0.367, -0.234, 0.389, 0.189, -0.145, 0.412, -0.278, 0.367, 0.234, -0.389, 0.189, 0.145, -0.412, 0.278, 0.367, -0.234, 0.389, 0.189, -0.145, 0.412, -0.278],
        [-0.412, 0.367, -0.234, 0.389, 0.189, -0.145, 0.412, -0.278, 0.367, 0.234, -0.389, 0.189, 0.145, -0.412, 0.278, 0.367, -0.234, 0.389, 0.189, -0.145, 0.412, -0.278, 0.367, 0.234, -0.389, 0.189, 0.145, -0.412, 0.278, 0.367, -0.234, 0.389, 0.189, -0.145, 0.412, -0.278, 0.367, 0.234, -0.389, 0.189, 0.145, -0.412, 0.278, 0.367, -0.234, 0.389, 0.189, -0.145, 0.412, -0.278, 0.367, 0.234, -0.389, 0.189, 0.145, -0.412, 0.278, 0.367, -0.234, 0.389, 0.189, -0.145, 0.412, -0.278],
        [0.278, -0.367, 0.234, 0.389, -0.189, 0.145, -0.412, 0.278, 0.367, -0.234, 0.389, 0.189, -0.145, 0.412, -0.278, 0.367, 0.234, -0.389, 0.189, 0.145, -0.412, 0.278, 0.367, -0.234, 0.389, 0.189, -0.145, 0.412, -0.278, 0.367, 0.234, -0.389, 0.189, 0.145, -0.412, 0.278, 0.367, -0.234, 0.389, 0.189, -0.145, 0.412, -0.278, 0.367, 0.234, -0.389, 0.189, 0.145, -0.412, 0.278, 0.367, -0.234, 0.389, 0.189, -0.145, 0.412, -0.278, 0.367, 0.234, -0.389, 0.189, 0.145, -0.412, 0.278],
        [-0.367, 0.234, -0.389, 0.189, 0.145, -0.412, 0.278, 0.367, -0.234, 0.389, 0.189, -0.145, 0.412, -0.278, 0.367, 0.234, -0.389, 0.189, 0.145, -0.412, 0.278, 0.367, -0.234, 0.389, 0.189, -0.145, 0.412, -0.278, 0.367, 0.234, -0.389, 0.189, 0.145, -0.412, 0.278, 0.367, -0.234, 0.389, 0.189, -0.145, 0.412, -0.278, 0.367, 0.234, -0.389, 0.189, 0.145, -0.412, 0.278, 0.367, -0.234, 0.389, 0.189, -0.145, 0.412, -0.278, 0.367, 0.234, -0.389, 0.189, 0.145, -0.412, 0.278, 0.367]
      ],
      "biases": [0.112, -0.145, 0.089, 0.067]
    }
  ]
}