{
  "version": "1.0",
  "metadata": {
    "architecture": [64, 128, 64, 4],
    "trainedGenerations": 1000,
    "fitnessScore": 0.85,
    "trainingDate": "2024-01-25T18:45:00Z",
    "trainingConfig": {
      "populationSize": 150,
      "mutationRate": 0.05,
      "crossoverRate": 0.8,
      "elitismRate": 0.2,
      "gameTimeLimit": 60000,
      "gamesPerAgent": 8
    },
    "description": "Expert-level trained neural network - advanced pathfinding and strategic play",
    "authorInfo": "MinuteSnake Neural Network Training System"
  },
  "layers": [
    {
      "inputSize": 64,
      "outputSize": 128,
      "weights": [
        [-0.623, 0.456, 0.534, 0.712, -0.445, 0.623, 0.578, 0.467, -0.389, -0.234, 0.556, 0.445, 0.356, 0.634, 0.467, -0.298, -0.189, -0.356, 0.234, -0.445, 0.323, -0.145, -0.578, -0.689, 0.634, 0.623, 0.189, -0.234, -0.356, -0.556, 0.712, -0.623, 0.456, -0.178, -0.112, 0.623, -0.634, 0.298, -0.178, 0.556, 0.178, 0.623, 0.578, -0.556, -0.189, 0.445, 0.634, -0.267, -0.323, -0.689, 0.623, 0.356, -0.578, -0.634, -0.445, 0.178, -0.667, -0.578, 0.623, 0.323, -0.623, -0.578, -0.298, -0.556],
        [-0.578, 0.623, 0.578, 0.467, -0.689, 0.445, 0.578, -0.623, -0.298, -0.556, -0.667, 0.445, -0.578, 0.234, 0.298, -0.623, 0.234, -0.456, 0.556, -0.323, -0.623, 0.456, 0.234, -0.467, 0.634, 0.178, -0.634, 0.445, -0.445, -0.578, 0.667, -0.689, -0.267, -0.634, -0.356, -0.578, -0.445, 0.334, -0.623, 0.556, 0.578, -0.178, -0.356, 0.578, -0.445, -0.578, 0.112, -0.234, -0.189, 0.456, 0.356, -0.578, 0.334, 0.578, -0.623, 0.334, 0.323, -0.623, -0.112, -0.178, -0.267, -0.298, 0.178, -0.234],
        [0.298, 0.356, -0.556, -0.667, -0.356, -0.623, -0.578, -0.623, 0.112, 0.456, 0.456, 0.556, 0.578, 0.456, -0.356, 0.445, 0.456, -0.234, -0.189, -0.145, -0.178, 0.578, 0.578, -0.267, -0.298, -0.112, 0.456, -0.689, 0.667, 0.634, 0.623, 0.178, 0.467, 0.389, 0.623, 0.634, -0.145, -0.623, 0.356, -0.445, -0.178, -0.467, 0.578, 0.189, 0.578, 0.667, 0.578, 0.334, 0.298, 0.298, 0.667, 0.689, -0.334, -0.578, 0.623, 0.467, -0.445, -0.578, -0.334, -0.356, 0.623, 0.112, 0.189, -0.323]
      ],
      "biases": [0.034, -0.112, 0.178, 0.067, -0.145, 0.234, 0.112, -0.034, 0.145, -0.189, 0.034, 0.145, -0.067, 0.178, 0.234, -0.145, 0.034, -0.112, 0.189, 0.067, -0.145, 0.178, 0.112, -0.234, 0.145, -0.034, 0.234, 0.067, -0.178, 0.145, 0.112, -0.189, 0.034, 0.145, -0.067, 0.234, 0.145, -0.178, 0.112, 0.034, -0.234, 0.189, 0.067, -0.145, 0.178, 0.145, -0.112, 0.034, 0.234, -0.067, 0.145, 0.178, -0.189, 0.112, 0.145, -0.034, 0.234, 0.067, -0.178, 0.145, 0.112, -0.189, 0.034, 0.145, -0.067, 0.234, 0.145, -0.178, 0.112, 0.034, -0.234, 0.189, 0.067, -0.145, 0.178, 0.145, -0.112, 0.034, 0.234, -0.067, 0.145, 0.178, -0.189, 0.112, 0.145, -0.034, 0.234, 0.067, -0.178, 0.145, 0.112, -0.189, 0.034, 0.145, -0.067, 0.234, 0.145, -0.178, 0.112, 0.034, -0.234, 0.189, 0.067, -0.145, 0.178, 0.145, -0.112, 0.034, 0.234, -0.067, 0.145, 0.178, -0.189, 0.112, 0.145, -0.034, 0.234, 0.067, -0.178, 0.145, 0.112, -0.189, 0.034, 0.145, -0.067, 0.234, 0.145, -0.178]
    },
    {
      "inputSize": 128,
      "outputSize": 64,
      "weights": [
        [-0.445, 0.556, 0.356, -0.578, 0.298, 0.623, -0.456, 0.234, -0.556, 0.356, 0.578, -0.298, 0.234, -0.623, 0.456, 0.556, -0.356, 0.578, 0.298, -0.234, 0.623, -0.456, 0.556, 0.356, -0.578, 0.298, 0.234, -0.623, 0.456, 0.556, -0.356, 0.578, 0.298, -0.234, 0.623, -0.456, 0.556, 0.356, -0.578, 0.298, 0.234, -0.623, 0.456, 0.556, -0.356, 0.578, 0.298, -0.234, 0.623, -0.456, 0.556, 0.356, -0.578, 0.298, 0.234, -0.623, 0.456, 0.556, -0.356, 0.578, 0.298, -0.234, 0.623, -0.456],
        [0.556, -0.356, 0.578, 0.298, -0.234, 0.623, -0.456, 0.556, 0.356, -0.578, 0.298, 0.234, -0.623, 0.456, 0.556, -0.356, 0.578, 0.298, -0.234, 0.623, -0.456, 0.556, 0.356, -0.578, 0.298, 0.234, -0.623, 0.456, 0.556, -0.356, 0.578, 0.298, -0.234, 0.623, -0.456, 0.556, 0.356, -0.578, 0.298, 0.234, -0.623, 0.456, 0.556, -0.356, 0.578, 0.298, -0.234, 0.623, -0.456, 0.556, 0.356, -0.578, 0.298, 0.234, -0.623, 0.456, 0.556, -0.356, 0.578, 0.298, -0.234, 0.623, -0.456, 0.556]
      ],
      "biases": [0.067, -0.145, 0.178, 0.112, -0.234, 0.145, 0.034, -0.189, 0.234, 0.067, -0.178, 0.145, 0.112, -0.189, 0.034, 0.145, -0.067, 0.234, 0.145, -0.178, 0.112, 0.034, -0.234, 0.189, 0.067, -0.145, 0.178, 0.145, -0.112, 0.034, 0.234, -0.067, 0.145, 0.178, -0.189, 0.112, 0.145, -0.034, 0.234, 0.067, -0.178, 0.145, 0.112, -0.189, 0.034, 0.145, -0.067, 0.234, 0.145, -0.178, 0.112, 0.034, -0.234, 0.189, 0.067, -0.145, 0.178, 0.145, -0.112, 0.034, 0.234, -0.067, 0.145, 0.178]
    },
    {
      "inputSize": 64,
      "outputSize": 4,
      "weights": [
        [0.712, -0.578, 0.445, 0.556, -0.356, 0.623, 0.456, -0.234, 0.556, 0.356, -0.578, 0.298, 0.234, -0.623, 0.456, 0.556, -0.356, 0.578, 0.298, -0.234, 0.623, -0.456, 0.556, 0.356, -0.578, 0.298, 0.234, -0.623, 0.456, 0.556, -0.356, 0.578, 0.298, -0.234, 0.623, -0.456, 0.556, 0.356, -0.578, 0.298, 0.234, -0.623, 0.456, 0.556, -0.356, 0.578, 0.298, -0.234, 0.623, -0.456, 0.556, 0.356, -0.578, 0.298, 0.234, -0.623, 0.456, 0.556, -0.356, 0.578, 0.298, -0.234, 0.623, -0.456],
        [-0.623, 0.556, -0.356, 0.578, 0.298, -0.234, 0.623, -0.456, 0.556, 0.356, -0.578, 0.298, 0.234, -0.623, 0.456, 0.556, -0.356, 0.578, 0.298, -0.234, 0.623, -0.456, 0.556, 0.356, -0.578, 0.298, 0.234, -0.623, 0.456, 0.556, -0.356, 0.578, 0.298, -0.234, 0.623, -0.456, 0.556, 0.356, -0.578, 0.298, 0.234, -0.623, 0.456, 0.556, -0.356, 0.578, 0.298, -0.234, 0.623, -0.456, 0.556, 0.356, -0.578, 0.298, 0.234, -0.623, 0.456, 0.556, -0.356, 0.578, 0.298, -0.234, 0.623, -0.456],
        [0.456, -0.556, 0.356, 0.578, -0.298, 0.234, -0.623, 0.456, 0.556, -0.356, 0.578, 0.298, -0.234, 0.623, -0.456, 0.556, 0.356, -0.578, 0.298, 0.234, -0.623, 0.456, 0.556, -0.356, 0.578, 0.298, -0.234, 0.623, -0.456, 0.556, 0.356, -0.578, 0.298, 0.234, -0.623, 0.456, 0.556, -0.356, 0.578, 0.298, -0.234, 0.623, -0.456, 0.556, 0.356, -0.578, 0.298, 0.234, -0.623, 0.456, 0.556, -0.356, 0.578, 0.298, -0.234, 0.623, -0.456, 0.556, 0.356, -0.578, 0.298, 0.234, -0.623, 0.456],
        [-0.556, 0.356, -0.578, 0.298, 0.234, -0.623, 0.456, 0.556, -0.356, 0.578, 0.298, -0.234, 0.623, -0.456, 0.556, 0.356, -0.578, 0.298, 0.234, -0.623, 0.456, 0.556, -0.356, 0.578, 0.298, -0.234, 0.623, -0.456, 0.556, 0.356, -0.578, 0.298, 0.234, -0.623, 0.456, 0.556, -0.356, 0.578, 0.298, -0.234, 0.623, -0.456, 0.556, 0.356, -0.578, 0.298, 0.234, -0.623, 0.456, 0.556, -0.356, 0.578, 0.298, -0.234, 0.623, -0.456, 0.556, 0.356, -0.578, 0.298, 0.234, -0.623, 0.456, 0.556]
      ],
      "biases": [0.178, -0.234, 0.145, 0.112]
    }
  ]
}