{
  "version": "1.0",
  "metadata": {
    "architecture": [
      64,
      128,
      64,
      4
    ],
    "trainedGenerations": 0,
    "fitnessScore": 0,
    "trainingDate": "2024-01-01T00:00:00Z",
    "trainingConfig": {
      "populationSize": 100,
      "mutationRate": 0.1,
      "crossoverRate": 0.7,
      "elitismRate": 0.1,
      "gameTimeLimit": 60000,
      "gamesPerAgent": 5
    },
    "description": "Default untrained neural network weights - random initialization",
    "authorInfo": "MinuteSnake Neural Network System"
  },
  "layers": [
    {
      "inputSize": 64,
      "outputSize": 128,
      "weights": [
        [
          -0.178,
          0,
          0.231,
          0.296,
          -0.284,
          0.192,
          0.207,
          0.123,
          -0.231,
          -0.154,
          0.152,
          0.162,
          0.103,
          0.173,
          0.173,
          -0.159,
          -0.05,
          -0.129,
          0.046,
          -0.151,
          0.07,
          -0.078,
          -0.227,
          -0.296,
          0.278,
          0.287,
          0.002,
          -0.057,
          -0.111,
          -0.206,
          0.3,
          -0.26,
          0.135,
          -0.052,
          -0.016,
          0.255,
          -0.275,
          0.085,
          -0.04,
          0.206,
          0.031,
          0.254,
          0.232,
          -0.209,
          -0.046,
          0.154,
          0.253,
          -0.081,
          -0.093,
          -0.297,
          0.268,
          0.127,
          -0.217,
          -0.281,
          -0.169,
          0.024,
          -0.293,
          -0.249,
          0.253,
          0.109,
          -0.256,
          -0.223,
          -0.095,
          -0.209
        ],
        [
          -0.2,
          0.222,
          0.23,
          0.168,
          -0.292,
          0.147,
          0.215,
          -0.271,
          -0.108,
          -0.203,
          -0.287,
          0.16,
          -0.241,
          0.058,
          0.082,
          -0.251,
          0.059,
          -0.149,
          0.191,
          -0.11,
          -0.269,
          0.146,
          0.057,
          -0.173,
          0.276,
          0.023,
          -0.277,
          0.164,
          -0.15,
          -0.23,
          0.282,
          -0.297,
          -0.084,
          -0.278,
          -0.129,
          -0.215,
          -0.159,
          0.119,
          -0.252,
          0.199,
          0.235,
          -0.04,
          -0.134,
          0.234,
          -0.166,
          -0.218,
          0.005,
          -0.065,
          -0.055,
          0.182,
          0.133,
          -0.215,
          0.126,
          0.244,
          -0.269,
          0.124,
          0.108,
          -0.25,
          -0.016,
          -0.02,
          -0.086,
          -0.094,
          0.038,
          -0.067
        ],
        [
          0.089,
          0.131,
          -0.199,
          -0.284,
          -0.131,
          -0.266,
          -0.233,
          -0.26,
          0.003,
          0.187,
          0.188,
          0.197,
          0.207,
          0.147,
          -0.137,
          0.16,
          0.189,
          -0.066,
          -0.058,
          -0.033,
          -0.035,
          0.208,
          0.237,
          -0.074,
          -0.094,
          -0.013,
          0.187,
          -0.298,
          0.287,
          0.272,
          0.258,
          0.038,
          0.168,
          0.142,
          0.27,
          0.273,
          -0.03,
          -0.253,
          0.137,
          -0.164,
          -0.038,
          -0.176,
          0.23,
          0.045,
          0.218,
          0.284,
          0.245,
          0.129,
          0.101,
          0.108,
          0.287,
          0.296,
          -0.126,
          -0.22,
          0.262,
          0.176,
          -0.167,
          -0.221,
          -0.126,
          -0.138,
          0.254,
          0.013,
          0.056,
          -0.112
        ],
        [
          0.045,
          -0.143,
          0.031,
          -0.276,
          -0.106,
          -0.074,
          0.121,
          0.253,
          -0.123,
          -0.106,
          0.232,
          0.153,
          -0.286,
          -0.133,
          -0.033,
          -0.025,
          -0.012,
          -0.125,
          -0.247,
          0.28,
          -0.033,
          -0.232,
          0.255,
          -0.195,
          -0.007,
          0.089,
          -0.204,
          -0.072,
          -0.198,
          -0.085,
          -0.108,
          -0.005,
          0.054,
          -0.002,
          -0.295,
          0.119,
          0.273,
          -0.022,
          0.012,
          0.198,
          0.253,
          0.024,
          -0.136,
          -0.274,
          0.114,
          -0.177,
          0.286,
          0.209,
          -0.162,
          0.01,
          0.016,
          -0.163,
          -0.207,
          0.087,
          0.284,
          0.114,
          -0.165,
          0.044,
          -0.223,
          0,
          -0.284,
          -0.17,
          0.127,
          0.172
        ],
        [
          0.227,
          -0.279,
          -0.042,
          0.122,
          -0.079,
          -0.138,
          0.277,
          -0.213,
          -0.001,
          -0.073,
          0.078,
          -0.268,
          -0.005,
          -0.167,
          -0.164,
          -0.052,
          -0.271,
          -0.115,
          -0.025,
          0.246,
          -0.191,
          0.165,
          -0.23,
          0.2,
          -0.228,
          -0.113,
          0.251,
          0.081,
          0.079,
          0.097,
          -0.015,
          -0.275,
          -0.274,
          -0.129,
          0.199,
          -0.19,
          0.146,
          -0.193,
          -0.058,
          -0.147,
          0.214,
          0.031,
          0.04,
          0.019,
          -0.039,
          0.266,
          0.14,
          0.05,
          0.048,
          0.26,
          -0.237,
          -0.199,
          0.004,
          0.234,
          0.181,
          -0.055,
          0.283,
          -0.29,
          -0.197,
          -0.009,
          -0.127,
          -0.041,
          0.006,
          -0.29
        ],
        [
          0.191,
          0.206,
          0.208,
          0.207,
          -0.207,
          0.106,
          -0.274,
          -0.073,
          -0.061,
          0.106,
          -0.025,
          0.017,
          -0.173,
          -0.199,
          0.076,
          0.166,
          0.075,
          0.081,
          -0.262,
          0.237,
          -0.132,
          0.254,
          -0.161,
          -0.169,
          -0.049,
          0.155,
          0.227,
          0.188,
          0.025,
          0.263,
          0.188,
          0.13,
          -0.039,
          0.276,
          0.093,
          -0.111,
          0.266,
          0.256,
          0.053,
          -0.252,
          -0.065,
          -0.048,
          -0.081,
          -0.127,
          -0.114,
          0.262,
          0.168,
          0.085,
          0.162,
          0.06,
          -0.21,
          0.189,
          -0.129,
          0.124,
          0.248,
          0.192,
          -0.095,
          0.205,
          -0.052,
          -0.034,
          -0.126,
          -0.26,
          -0.262,
          -0.114
        ],
        [
          0,
          0.296,
          -0.272,
          0.034,
          0.113,
          0.294,
          -0.09,
          0.137,
          0.108,
          0.112,
          -0.021,
          0.161,
          0.119,
          0.014,
          -0.052,
          -0.084,
          0.167,
          -0.082,
          0.096,
          -0.239,
          -0.035,
          0.108,
          0.289,
          0.223,
          -0.227,
          -0.266,
          0.191,
          -0.075,
          -0.098,
          -0.261,
          -0.101,
          -0.024,
          -0.026,
          0.151,
          0.019,
          -0.22,
          0.094,
          0.274,
          -0.058,
          0.229,
          0.005,
          0.097,
          0.102,
          -0.078,
          -0.052,
          0.248,
          -0.054,
          -0.206,
          -0.006,
          -0.192,
          0.151,
          -0.065,
          -0.208,
          0.024,
          0.147,
          -0.128,
          -0.103,
          -0.195,
          0.22,
          0.122,
          0.023,
          -0.062,
          -0.279,
          -0.276
        ],
        [
          0.288,
          -0.109,
          0.286,
          -0.269,
          0.196,
          -0.103,
          0.099,
          -0.089,
          -0.196,
          0.015,
          0.13,
          0.233,
          -0.088,
          0.008,
          0.224,
          -0.251,
          0.167,
          0.237,
          -0.225,
          -0.019,
          0.092,
          0.248,
          -0.122,
          -0.219,
          0.007,
          0.171,
          0.235,
          0.201,
          0.13,
          0.293,
          0.066,
          0.03,
          -0.03,
          -0.171,
          0.18,
          0.288,
          -0.114,
          -0.214,
          0.18,
          -0.266,
          0.135,
          -0.088,
          0.13,
          0.228,
          0.034,
          0.165,
          0.025,
          0.261,
          -0.017,
          0.089,
          -0.194,
          0.188,
          0.026,
          0.224,
          0.212,
          0.259,
          0.24,
          0.113,
          -0.041,
          -0.081,
          0.176,
          0.235,
          -0.134,
          0.092
        ],
        [
          -0.25,
          0.235,
          0.076,
          -0.257,
          -0.27,
          0.257,
          0.275,
          0.215,
          -0.221,
          0.155,
          0.265,
          -0.129,
          -0.069,
          0.178,
          0.081,
          -0.119,
          0.047,
          0.047,
          0.091,
          -0.178,
          0.186,
          -0.123,
          -0.126,
          0.271,
          0.028,
          -0.176,
          -0.288,
          -0.084,
          -0.202,
          0.093,
          0.119,
          -0.241,
          0.061,
          -0.053,
          0.048,
          0.241,
          0.023,
          -0.012,
          0.009,
          0.089,
          -0.203,
          0.234,
          -0.125,
          -0.094,
          -0.193,
          0.081,
          0.297,
          -0.267,
          -0.14,
          -0.125,
          0.05,
          -0.289,
          -0.287,
          -0.099,
          -0.11,
          -0.196,
          0.277,
          -0.17,
          -0.105,
          -0.077,
          -0.299,
          0.223,
          0.276,
          0.111
        ],
        [
          0.226,
          0.188,
          0.003,
          -0.088,
          0.184,
          0.043,
          -0.255,
          -0.187,
          0.008,
          0.252,
          0.148,
          0.199,
          0.05,
          0.077,
          0.052,
          -0.071,
          0.101,
          -0.025,
          0.074,
          0.095,
          -0.201,
          0.074,
          0.06,
          0.292,
          -0.295,
          0.143,
          0.263,
          0.295,
          -0.245,
          0.256,
          -0.238,
          -0.028,
          -0.207,
          0.013,
          0.288,
          0.166,
          -0.094,
          0.228,
          0.167,
          0.039,
          0.098,
          0.283,
          -0.123,
          0.046,
          -0.179,
          -0.126,
          -0.207,
          -0.237,
          -0.277,
          0.074,
          -0.126,
          0.14,
          0.181,
          0.238,
          0.285,
          -0.187,
          0.087,
          0.157,
          -0.122,
          -0.205,
          -0.128,
          -0.016,
          0.253,
          0.091
        ],
        [
          0.017,
          -0.092,
          -0.24,
          0.187,
          0.217,
          -0.076,
          0.264,
          -0.157,
          0.266,
          -0.075,
          0.025,
          0.195,
          -0.213,
          -0.093,
          0.232,
          0.022,
          -0.023,
          0.175,
          -0.282,
          -0.07,
          -0.247,
          0.241,
          -0.068,
          0.282,
          0.074,
          0.049,
          0.079,
          0.057,
          0.025,
          0.027,
          0.214,
          -0.17,
          -0.072,
          0.101,
          -0.196,
          0.27,
          -0.287,
          -0.223,
          0.089,
          -0.151,
          -0.253,
          -0.115,
          0.059,
          -0.024,
          0.245,
          0.273,
          0.249,
          0.041,
          0.086,
          0.187,
          0.11,
          0.149,
          0.089,
          -0.153,
          -0.041,
          -0.022,
          -0.2,
          -0.119,
          0.022,
          -0.136,
          -0.264,
          -0.283,
          -0.18,
          0.146
        ],
        [
          -0.145,
          -0.174,
          -0.154,
          -0.184,
          -0.275,
          -0.215,
          0.219,
          0.013,
          -0.245,
          -0.175,
          -0.023,
          0.151,
          0.064,
          -0.105,
          0.054,
          0.035,
          -0.229,
          0.248,
          -0.099,
          -0.266,
          0.217,
          0.005,
          -0.221,
          -0.221,
          -0.171,
          0.064,
          -0.088,
          0.224,
          0.25,
          0.271,
          0.256,
          0.078,
          0.061,
          0.071,
          -0.12,
          -0.227,
          -0.182,
          0.098,
          -0.009,
          -0.274,
          -0.016,
          0.196,
          0.22,
          -0.188,
          0.161,
          -0.008,
          0.098,
          0.191,
          0.111,
          0.254,
          0.131,
          0.287,
          -0.159,
          0.058,
          0.121,
          -0.147,
          0.06,
          -0.132,
          -0.203,
          0.259,
          -0.222,
          0.273,
          0.071,
          0.107
        ],
        [
          0.071,
          -0.207,
          0.057,
          -0.228,
          0.266,
          -0.106,
          0.216,
          -0.274,
          0.158,
          0.293,
          -0.06,
          0.111,
          -0.195,
          0.264,
          0.165,
          0.027,
          -0.125,
          -0.02,
          -0.162,
          -0.043,
          -0.01,
          -0.033,
          0.082,
          -0.117,
          0.042,
          0.164,
          -0.092,
          0.086,
          -0.022,
          0.14,
          0.117,
          0.093,
          0.193,
          -0.191,
          0.191,
          -0.104,
          -0.067,
          -0.089,
          -0.044,
          0.264,
          0.043,
          0.147,
          -0.28,
          0.102,
          -0.199,
          -0.131,
          0.269,
          0.099,
          -0.128,
          -0.04,
          -0.118,
          -0.063,
          -0.031,
          -0.157,
          0.024,
          0.229,
          0.091,
          -0.287,
          0.227,
          -0.218,
          0.292,
          -0.092,
          0.041,
          0.066
        ],
        [
          -0.03,
          -0.071,
          0.18,
          0.137,
          -0.278,
          -0.299,
          -0.11,
          -0.274,
          0.011,
          -0.252,
          -0.217,
          0.197,
          0.289,
          0.119,
          -0.136,
          0.06,
          -0.228,
          0.265,
          -0.024,
          0.183,
          -0.256,
          0.107,
          -0.247,
          0.289,
          0.025,
          0.105,
          -0.077,
          -0.149,
          -0.185,
          -0.005,
          -0.192,
          0.273,
          0.2,
          -0.114,
          -0.048,
          0.163,
          0.141,
          0.02,
          -0.138,
          0.134,
          0.183,
          -0.159,
          0.002,
          -0.263,
          -0.3,
          -0.03,
          0.259,
          0.264,
          -0.223,
          -0.007,
          0.044,
          0.117,
          -0.132,
          -0.249,
          0.238,
          -0.093,
          -0.251,
          -0.286,
          0.083,
          0.111,
          -0.101,
          0.036,
          -0.167,
          -0.267
        ],
        [
          -0.001,
          -0.219,
          0.284,
          -0.193,
          -0.036,
          -0.096,
          0.294,
          0.005,
          0.057,
          -0.249,
          -0.129,
          0.026,
          0.104,
          0.08,
          0.115,
          0.193,
          0.05,
          -0.018,
          -0.044,
          -0.183,
          0.092,
          0.201,
          0.02,
          0.233,
          0.064,
          -0.247,
          0.033,
          -0.283,
          0.068,
          0.18,
          -0.073,
          0.032,
          -0.028,
          0.164,
          -0.295,
          -0.096,
          -0.027,
          0.009,
          -0.01,
          0.203,
          0.091,
          -0.153,
          0.171,
          -0.171,
          0.027,
          -0.055,
          -0.062,
          -0.144,
          0.065,
          -0.273,
          0.259,
          0.073,
          -0.069,
          -0.126,
          -0.255,
          -0.12,
          -0.159,
          0.114,
          -0.255,
          -0.019,
          0.164,
          0.114,
          0.275,
          0.122
        ],
        [
          -0.062,
          0.207,
          0.051,
          0.038,
          -0.084,
          -0.201,
          0.025,
          0.168,
          -0.081,
          0.105,
          0.266,
          0.17,
          0.258,
          0.021,
          -0.027,
          -0.117,
          0.285,
          -0.065,
          0.118,
          0.102,
          -0.09,
          0.112,
          -0.118,
          -0.19,
          0.164,
          -0.053,
          0.219,
          -0.161,
          0.148,
          -0.141,
          -0.248,
          0.088,
          0.065,
          -0.022,
          0.264,
          0.205,
          -0.039,
          0.217,
          0.034,
          0.29,
          -0.25,
          0.296,
          -0.269,
          0.168,
          -0.3,
          0.225,
          0.017,
          -0.264,
          0.273,
          0.235,
          -0.203,
          -0.134,
          0.058,
          0.265,
          -0.165,
          -0.092,
          0.271,
          0.095,
          -0.003,
          -0.165,
          0.202,
          -0.014,
          0.222,
          0.272
        ],
        [
          -0.112,
          0.136,
          0.187,
          0.03,
          -0.223,
          -0.293,
          0.173,
          -0.048,
          -0.051,
          -0.208,
          -0.142,
          0.179,
          -0.29,
          -0.112,
          0.05,
          -0.237,
          -0.178,
          0.161,
          0.088,
          0.218,
          0.248,
          -0.131,
          0.219,
          -0.036,
          0.183,
          -0.008,
          -0.013,
          0.192,
          -0.024,
          0.274,
          0.237,
          0.276,
          -0.076,
          0.167,
          0.045,
          0.258,
          0.269,
          0.1,
          0.07,
          0.245,
          0.15,
          0.218,
          -0.127,
          0.036,
          -0.24,
          0.279,
          0.037,
          0.192,
          0.162,
          -0.167,
          0.088,
          0.215,
          0.143,
          0.133,
          0.127,
          0.282,
          -0.118,
          0.037,
          -0.019,
          -0.084,
          0.012,
          -0.216,
          0.218,
          0.107
        ],
        [
          0.205,
          0.3,
          -0.271,
          0.058,
          0.124,
          -0.248,
          -0.239,
          0.24,
          -0.092,
          -0.248,
          -0.012,
          -0.28,
          -0.14,
          -0.037,
          -0.178,
          0.077,
          -0.043,
          -0.036,
          0.03,
          0.23,
          -0.002,
          0.229,
          0.056,
          -0.299,
          0.188,
          0.184,
          -0.252,
          -0.102,
          -0.094,
          0.269,
          -0.257,
          -0.28,
          -0.241,
          0.045,
          0.289,
          -0.293,
          0.297,
          0.095,
          0.213,
          0.013,
          -0.072,
          -0.249,
          0.145,
          0.102,
          -0.092,
          -0.286,
          -0.248,
          -0.023,
          -0.118,
          0.034,
          -0.126,
          -0.216,
          -0.024,
          -0.027,
          0.066,
          -0.005,
          0.108,
          -0.089,
          0.084,
          -0.166,
          0.237,
          0.06,
          0.195,
          0.106
        ],
        [
          -0.267,
          -0.049,
          -0.29,
          0.241,
          -0.02,
          -0.16,
          0.026,
          -0.091,
          0.127,
          -0.192,
          0.028,
          -0.273,
          0.003,
          -0.057,
          -0.208,
          -0.098,
          0.003,
          0.025,
          -0.066,
          -0.201,
          -0.264,
          0.168,
          0.222,
          0.139,
          -0.184,
          -0.179,
          -0.04,
          -0.057,
          -0.023,
          0.119,
          -0.055,
          -0.053,
          -0.046,
          0.13,
          0.106,
          -0.147,
          -0.185,
          -0.233,
          -0.161,
          -0.149,
          0.012,
          -0.067,
          0.162,
          -0.209,
          0.215,
          -0.186,
          -0.065,
          -0.151,
          -0.062,
          0.172,
          -0.165,
          -0.013,
          0.238,
          -0.268,
          -0.029,
          -0.118,
          0.118,
          -0.247,
          0.28,
          -0.242,
          -0.267,
          -0.175,
          0.097,
          -0.244
        ],
        [
          0.171,
          0.097,
          0.103,
          -0.14,
          0.238,
          -0.151,
          0.062,
          -0.065,
          0.068,
          -0.116,
          -0.208,
          -0.129,
          0.094,
          -0.103,
          -0.016,
          -0.091,
          -0.161,
          -0.041,
          0.142,
          0.237,
          -0.233,
          -0.002,
          0.215,
          0.207,
          -0.176,
          0.081,
          -0.294,
          -0.199,
          0.139,
          -0.155,
          0.053,
          -0.282,
          0.216,
          0.126,
          0.247,
          -0.272,
          0.259,
          0.131,
          -0.205,
          -0.135,
          -0.172,
          -0.299,
          -0.008,
          0.202,
          -0.046,
          0.148,
          0.101,
          0.034,
          0.219,
          0.245,
          0.253,
          0.238,
          -0.215,
          0.091,
          0.125,
          0.133,
          0.01,
          -0.057,
          -0.059,
          0.126,
          0.085,
          -0.252,
          -0.224,
          -0.045
        ],
        [
          0.26,
          -0.113,
          -0.1,
          -0.197,
          0.081,
          -0.219,
          -0.153,
          0.024,
          -0.038,
          0.045,
          -0.138,
          -0.293,
          -0.25,
          -0.273,
          0.244,
          -0.183,
          -0.062,
          0.07,
          0.14,
          0.035,
          -0.087,
          -0.052,
          -0.171,
          -0.013,
          -0.206,
          -0.192,
          -0.243,
          0.089,
          0.294,
          0.123,
          -0.074,
          -0.176,
          -0.089,
          -0.204,
          -0.096,
          -0.252,
          0.202,
          -0.261,
          -0.088,
          -0.065,
          0.009,
          -0.269,
          -0.002,
          -0.175,
          0.163,
          -0.091,
          -0.124,
          0.113,
          -0.046,
          0.005,
          0.193,
          -0.248,
          0.069,
          0.05,
          0.134,
          0.088,
          0.204,
          -0.123,
          -0.088,
          -0.105,
          0.189,
          0.066,
          -0.199,
          -0.152
        ],
        [
          0.074,
          0.013,
          0.162,
          -0.263,
          0.196,
          0.225,
          0.079,
          0.123,
          -0.089,
          0.228,
          0.241,
          -0.067,
          -0.261,
          -0.134,
          0.098,
          -0.013,
          -0.115,
          0.182,
          -0.115,
          -0.081,
          0.115,
          0.164,
          0.1,
          -0.238,
          0.227,
          0.031,
          -0.03,
          0.115,
          0.175,
          -0.138,
          -0.08,
          0.117,
          0.081,
          0.093,
          0.183,
          -0.235,
          -0.233,
          0.149,
          -0.076,
          0.235,
          -0.104,
          0.246,
          -0.179,
          -0.29,
          -0.151,
          0.292,
          -0.084,
          0.291,
          -0.014,
          -0.07,
          -0.168,
          0.073,
          0.115,
          -0.16,
          0.255,
          0.22,
          -0.207,
          -0.204,
          -0.102,
          0.228,
          0.087,
          -0.19,
          -0.015,
          -0.215
        ],
        [
          -0.162,
          -0.155,
          -0.288,
          -0.198,
          0.249,
          -0.048,
          -0.103,
          0.18,
          0.225,
          -0.218,
          0.14,
          -0.028,
          -0.202,
          0.096,
          -0.019,
          0.188,
          -0.276,
          0.092,
          0.248,
          -0.131,
          0.253,
          -0.088,
          0.245,
          -0.105,
          0.196,
          0.259,
          -0.169,
          0.002,
          0.114,
          -0.251,
          -0.016,
          0.214,
          0.246,
          0.086,
          0.275,
          0.052,
          -0.157,
          -0.201,
          -0.102,
          0.107,
          -0.102,
          0.024,
          -0.111,
          0.15,
          0.213,
          0.069,
          0.099,
          -0.206,
          0.099,
          0.118,
          -0.221,
          0.107,
          0.032,
          -0.082,
          0.166,
          -0.132,
          -0.129,
          -0.224,
          0.249,
          0.077,
          -0.007,
          0.099,
          0.057,
          -0.201
        ],
        [
          0.171,
          -0.114,
          -0.179,
          -0.26,
          0.106,
          0.113,
          0.157,
          -0.024,
          -0.153,
          -0.125,
          0.127,
          -0.008,
          0.098,
          -0.079,
          -0.067,
          0.022,
          -0.21,
          -0.099,
          -0.299,
          -0.102,
          -0.196,
          0.256,
          0.124,
          -0.186,
          -0.019,
          0.245,
          0.025,
          -0.063,
          0.056,
          -0.296,
          -0.166,
          0.204,
          0.295,
          0.11,
          0.07,
          0.093,
          0.079,
          -0.156,
          0.012,
          0.238,
          -0.091,
          0.281,
          0,
          0.183,
          -0.029,
          -0.086,
          0.136,
          0.195,
          -0.05,
          0.14,
          0.288,
          -0.167,
          -0.275,
          -0.042,
          -0.085,
          0.145,
          -0.212,
          -0.049,
          0.175,
          -0.199,
          0.18,
          -0.125,
          -0.133,
          0.293
        ],
        [
          0.22,
          -0.199,
          0.033,
          0.213,
          -0.07,
          -0.105,
          0.023,
          -0.3,
          -0.035,
          -0.217,
          0.257,
          -0.023,
          -0.273,
          0.021,
          -0.228,
          0.008,
          0.154,
          0.267,
          -0.27,
          0.242,
          -0.184,
          -0.189,
          -0.163,
          -0.239,
          0.209,
          -0.088,
          0.115,
          -0.201,
          0.234,
          0.274,
          -0.039,
          -0.231,
          -0.289,
          -0.088,
          0.056,
          0.22,
          0.014,
          0.065,
          0.094,
          0.095,
          -0.157,
          -0.252,
          0.286,
          -0.286,
          0.082,
          0.122,
          0.027,
          0.068,
          0.011,
          -0.262,
          -0.201,
          0.26,
          -0.02,
          0.263,
          -0.068,
          0.06,
          -0.114,
          -0.103,
          -0.017,
          -0.076,
          0.135,
          0.181,
          0.048,
          -0.202
        ],
        [
          -0.054,
          -0.114,
          -0.121,
          0.171,
          0.153,
          0.251,
          0.251,
          0.135,
          -0.047,
          0.191,
          -0.021,
          -0.271,
          -0.289,
          0.235,
          0.153,
          -0.236,
          -0.11,
          0.139,
          0.081,
          0.277,
          -0.102,
          -0.3,
          0.235,
          -0.161,
          -0.01,
          -0.286,
          0,
          -0.274,
          -0.292,
          -0.116,
          0.118,
          0.161,
          -0.076,
          0.121,
          -0.27,
          0.209,
          0.118,
          0.166,
          -0.145,
          0.107,
          -0.184,
          0.008,
          -0.095,
          -0.082,
          0.242,
          0.211,
          -0.221,
          0.038,
          0.263,
          0.264,
          0.099,
          0.005,
          0.022,
          -0.297,
          -0.132,
          -0.072,
          -0.044,
          -0.134,
          0.257,
          0.237,
          0.136,
          0.235,
          0.022,
          0.248
        ],
        [
          0.041,
          0.167,
          -0.235,
          -0.14,
          -0.271,
          0.211,
          0.221,
          -0.154,
          -0.088,
          -0.256,
          -0.216,
          -0.273,
          -0.041,
          0.214,
          -0.129,
          -0.227,
          -0.233,
          0.267,
          0.094,
          0.2,
          -0.237,
          -0.248,
          -0.156,
          0.236,
          -0.193,
          -0.188,
          0.178,
          -0.187,
          0.032,
          0.12,
          -0.019,
          0.172,
          0.085,
          -0.095,
          -0.084,
          0.132,
          -0.297,
          -0.199,
          -0.203,
          -0.022,
          0.2,
          0.29,
          0.226,
          0.169,
          0.271,
          0.028,
          -0.164,
          0.083,
          -0.223,
          0.019,
          -0.143,
          -0.083,
          0.258,
          0.258,
          -0.205,
          0.156,
          -0.07,
          0.046,
          0.043,
          -0.234,
          0.238,
          0.239,
          0.293,
          0.012
        ],
        [
          -0.141,
          -0.155,
          -0.039,
          -0.196,
          0.206,
          -0.09,
          0.191,
          0.206,
          0.075,
          0.026,
          0.158,
          0.154,
          0.136,
          -0.299,
          -0.224,
          -0.28,
          -0.099,
          0.212,
          0.086,
          -0.293,
          0.128,
          -0.263,
          -0.173,
          -0.062,
          -0.113,
          -0.085,
          -0.184,
          0.157,
          -0.273,
          0.057,
          0.238,
          -0.291,
          0.054,
          0.21,
          0.063,
          0.29,
          0.256,
          -0.021,
          0.085,
          0.044,
          0.127,
          -0.209,
          0.269,
          0.202,
          -0.298,
          -0.151,
          -0.198,
          -0.251,
          -0.004,
          0.028,
          -0.045,
          0.202,
          -0.138,
          0.04,
          -0.069,
          0.213,
          -0.217,
          0.015,
          -0.092,
          -0.239,
          -0.157,
          0.226,
          -0.22,
          0.135
        ],
        [
          -0.159,
          0.014,
          -0.15,
          -0.295,
          0.215,
          -0.142,
          -0.023,
          0.013,
          0.016,
          -0.285,
          0.269,
          0.188,
          0.188,
          0.3,
          -0.127,
          0.271,
          0.261,
          -0.01,
          0.24,
          0.084,
          -0.242,
          -0.089,
          -0.159,
          -0.119,
          -0.173,
          -0.124,
          -0.211,
          -0.158,
          -0.169,
          -0.239,
          0.063,
          -0.297,
          -0.087,
          -0.263,
          0.259,
          -0.169,
          0.262,
          0.296,
          -0.281,
          -0.26,
          0.154,
          -0.284,
          0.147,
          0.026,
          -0.293,
          -0.264,
          0.072,
          -0.144,
          -0.045,
          -0.21,
          -0.068,
          0.244,
          0.178,
          0.059,
          0.086,
          0.271,
          0.045,
          -0.126,
          -0.061,
          -0.204,
          0.075,
          -0.141,
          0.104,
          0.046
        ],
        [
          0.299,
          0.202,
          0.177,
          -0.219,
          0.141,
          0.284,
          0.261,
          -0.244,
          0.032,
          0.097,
          0.002,
          0.163,
          -0.187,
          0.008,
          -0.038,
          0.078,
          -0.159,
          0.261,
          0.127,
          0.082,
          0.275,
          0.263,
          0.078,
          0.181,
          0.22,
          -0.076,
          -0.048,
          0.049,
          0.256,
          0.203,
          0.149,
          0.296,
          0.149,
          0.214,
          -0.029,
          -0.284,
          0.287,
          0.076,
          0.122,
          0.083,
          0.295,
          0.003,
          0.113,
          -0.242,
          0.056,
          0.124,
          0.204,
          0.056,
          -0.204,
          -0.021,
          0.041,
          -0.12,
          -0.146,
          -0.172,
          0.162,
          -0.247,
          0.23,
          0.183,
          -0.158,
          0.015,
          -0.164,
          0.142,
          -0.135,
          0.004
        ],
        [
          0.065,
          -0.014,
          0.007,
          0.058,
          -0.193,
          0.035,
          0.159,
          -0.065,
          -0.145,
          0.247,
          -0.16,
          0.043,
          -0.284,
          -0.108,
          -0.215,
          -0.235,
          -0.29,
          -0.254,
          -0.241,
          0.053,
          0.092,
          -0.084,
          0.163,
          0.23,
          0.123,
          -0.207,
          0.066,
          -0.001,
          0.181,
          0.278,
          0.004,
          -0.065,
          0.049,
          0.05,
          -0.005,
          0.261,
          -0.011,
          -0.065,
          0.26,
          0.252,
          0.289,
          0.099,
          0.021,
          0.193,
          0.252,
          -0.292,
          -0.277,
          -0.057,
          -0.016,
          0.181,
          -0.172,
          0.055,
          0.123,
          0.285,
          -0.061,
          0.046,
          -0.13,
          0.169,
          -0.117,
          -0.194,
          -0.29,
          -0.139,
          -0.101,
          0.238
        ],
        [
          -0.142,
          -0.259,
          0.181,
          0.232,
          0.209,
          0.159,
          0.064,
          -0.169,
          0.181,
          0.043,
          0.236,
          -0.103,
          -0.001,
          0.13,
          0.186,
          0.199,
          -0.188,
          -0.131,
          0.013,
          0.236,
          -0.195,
          0.126,
          -0.263,
          -0.138,
          -0.097,
          0.235,
          -0.183,
          0.123,
          -0.037,
          0.133,
          0.146,
          -0.098,
          0.032,
          0.12,
          0.092,
          -0.271,
          -0.133,
          0.103,
          -0.173,
          0.03,
          0.003,
          0.08,
          -0.202,
          0.146,
          0.147,
          0.188,
          0.036,
          -0.051,
          0.236,
          -0.048,
          0.149,
          0.024,
          0.181,
          -0.279,
          0.229,
          -0.054,
          0.109,
          -0.296,
          0.075,
          -0.038,
          0.015,
          -0.108,
          -0.01,
          -0.224
        ],
        [
          -0.113,
          0.137,
          -0.171,
          -0.044,
          0.034,
          -0.264,
          0.002,
          0.101,
          -0.167,
          -0.181,
          0.132,
          0.033,
          -0.178,
          -0.181,
          0.012,
          -0.107,
          -0.063,
          0.231,
          -0.145,
          -0.035,
          0.074,
          0.096,
          0.047,
          -0.117,
          -0.29,
          0.213,
          -0.102,
          -0.064,
          0.293,
          -0.219,
          0.286,
          0.042,
          0.188,
          0.084,
          0.13,
          0.254,
          0.257,
          -0.001,
          -0.298,
          0.214,
          -0.224,
          0.192,
          0.102,
          0.258,
          -0.208,
          0.226,
          0.155,
          0.239,
          -0.159,
          0.001,
          -0.116,
          0.095,
          0.076,
          -0.2,
          0.17,
          -0.114,
          -0.017,
          -0.049,
          0.041,
          -0.063,
          0.131,
          0.208,
          -0.035,
          -0.248
        ],
        [
          0.181,
          -0.125,
          -0.092,
          -0.034,
          0.132,
          0.178,
          -0.286,
          0.286,
          -0.227,
          0.268,
          0.027,
          -0.158,
          0.021,
          0.225,
          0.193,
          -0.054,
          -0.297,
          -0.085,
          0.005,
          -0.206,
          -0.193,
          0.025,
          0.242,
          -0.151,
          0.108,
          0.036,
          0.255,
          -0.077,
          0.205,
          -0.01,
          0.017,
          0.159,
          0.092,
          0.13,
          0.068,
          0.274,
          0.044,
          0.136,
          -0.263,
          -0.05,
          0.195,
          -0.135,
          -0.191,
          0.104,
          0.096,
          0.166,
          0.01,
          0.148,
          -0.059,
          -0.071,
          -0.105,
          0.134,
          0.261,
          0.107,
          -0.079,
          0.042,
          0.295,
          0.125,
          -0.193,
          0.218,
          0.017,
          0.134,
          -0.183,
          0.143
        ],
        [
          0.155,
          -0.186,
          -0.061,
          -0.053,
          -0.042,
          -0.05,
          -0.196,
          -0.256,
          0.043,
          0.287,
          -0.11,
          0.199,
          0.292,
          0.282,
          0.005,
          0.235,
          -0.008,
          -0.005,
          0.105,
          0.146,
          0.142,
          -0.125,
          -0.178,
          -0.142,
          0.03,
          -0.251,
          0.3,
          0.237,
          -0.089,
          0.118,
          -0.269,
          0.191,
          0.103,
          0.116,
          -0.281,
          0.276,
          -0.088,
          -0.054,
          -0.039,
          0.177,
          0.066,
          0.048,
          0.255,
          -0.06,
          0.041,
          -0.11,
          0.159,
          -0.224,
          -0.201,
          -0.147,
          -0.131,
          0.241,
          0.086,
          0.238,
          0.002,
          0.138,
          0.239,
          -0.202,
          0.071,
          -0.206,
          0.227,
          -0.109,
          -0.114,
          -0.208
        ],
        [
          0.157,
          -0.118,
          -0.219,
          0.202,
          0.109,
          -0.045,
          0.09,
          0.242,
          0.237,
          0.24,
          -0.126,
          -0.039,
          0.045,
          0.029,
          -0.19,
          -0.245,
          0.117,
          0.089,
          0.247,
          0.279,
          0.111,
          0.082,
          -0.056,
          -0.05,
          -0.123,
          0.169,
          -0.054,
          0.025,
          -0.042,
          -0.209,
          0.169,
          -0.042,
          -0.271,
          -0.21,
          -0.029,
          -0.079,
          0.263,
          0.086,
          -0.148,
          0.079,
          -0.164,
          -0.03,
          0.186,
          0.161,
          0.092,
          0.116,
          0.013,
          0.096,
          -0.108,
          0.084,
          0.28,
          0.189,
          -0.076,
          -0.265,
          0.052,
          0.046,
          -0.037,
          0.151,
          0.074,
          -0.208,
          0.239,
          0.243,
          -0.079,
          0.183
        ],
        [
          -0.005,
          -0.114,
          0.036,
          0.127,
          0.027,
          0.074,
          -0.197,
          -0.215,
          0.127,
          -0.164,
          -0.134,
          0.121,
          0.202,
          -0.205,
          -0.161,
          0.221,
          0.067,
          -0.118,
          0.296,
          -0.147,
          -0.215,
          -0.202,
          0.042,
          0.025,
          0.244,
          0.133,
          0.166,
          0.227,
          -0.269,
          0.095,
          0.021,
          0.013,
          -0.067,
          0.269,
          0.068,
          0.171,
          -0.143,
          0.006,
          0.176,
          0.09,
          0.093,
          0.079,
          -0.02,
          -0.035,
          -0.132,
          0.148,
          0.207,
          -0.176,
          0.172,
          0.166,
          0.071,
          -0.073,
          -0.062,
          0.257,
          0.24,
          -0.096,
          -0.079,
          -0.204,
          -0.079,
          0.219,
          -0.061,
          0.004,
          -0.238,
          0.029
        ],
        [
          0.008,
          0.054,
          -0.196,
          0.21,
          0.138,
          0.273,
          0.024,
          -0.117,
          -0.262,
          0.057,
          0.092,
          -0.283,
          0.028,
          0.123,
          0.079,
          0.294,
          -0.071,
          0.191,
          -0.195,
          0.232,
          0.069,
          -0.045,
          0.014,
          -0.078,
          0.221,
          -0.281,
          0.293,
          0.217,
          -0.006,
          -0.276,
          -0.183,
          0.151,
          -0.253,
          -0.277,
          0.033,
          0.256,
          -0.063,
          -0.211,
          0.254,
          0.061,
          0.038,
          0.044,
          -0.214,
          0.294,
          0.124,
          0.162,
          -0.149,
          0.205,
          0.159,
          -0.011,
          0.147,
          -0.158,
          -0.076,
          -0.237,
          0.285,
          -0.138,
          0.089,
          -0.112,
          0.147,
          0.234,
          0.122,
          0.12,
          0.071,
          -0.138
        ],
        [
          0.1,
          -0.058,
          -0.094,
          -0.009,
          -0.274,
          0.239,
          -0.238,
          0.116,
          0.174,
          -0.017,
          0.062,
          0.05,
          -0.009,
          -0.003,
          -0.258,
          0,
          0.254,
          -0.101,
          0.134,
          -0.057,
          -0.218,
          -0.081,
          0.162,
          0.092,
          0.277,
          0.121,
          0.163,
          -0.046,
          0.14,
          0.002,
          -0.235,
          -0.146,
          -0.266,
          -0.062,
          -0.224,
          -0.224,
          -0.14,
          -0.246,
          0.089,
          0.145,
          0.265,
          -0.23,
          0.02,
          0.007,
          -0.272,
          -0.006,
          0.023,
          -0.1,
          0.262,
          0.01,
          0.057,
          0.205,
          0.05,
          -0.219,
          -0.18,
          0.179,
          -0.164,
          0.078,
          0.098,
          -0.251,
          -0.143,
          0.264,
          0.052,
          -0.045
        ],
        [
          -0.219,
          -0.253,
          -0.241,
          0.125,
          0.219,
          -0.23,
          -0.284,
          -0.146,
          -0.235,
          0.091,
          0.149,
          0.027,
          -0.154,
          -0.072,
          -0.156,
          0.031,
          -0.038,
          -0.273,
          0.158,
          0.045,
          0.22,
          -0.172,
          -0.276,
          0.028,
          0.095,
          0.273,
          0.234,
          0.198,
          0.178,
          -0.104,
          -0.081,
          -0.109,
          0.048,
          -0.107,
          -0.232,
          -0.055,
          -0.199,
          0.281,
          -0.035,
          0.213,
          0.124,
          0.275,
          -0.299,
          -0.208,
          -0.285,
          -0.061,
          0.085,
          -0.234,
          0.09,
          0.296,
          -0.229,
          -0.172,
          0.174,
          -0.103,
          0.184,
          -0.225,
          -0.157,
          -0.206,
          0.265,
          0.067,
          -0.239,
          -0.023,
          0.272,
          -0.034
        ],
        [
          -0.113,
          -0.229,
          0.094,
          -0.217,
          0.163,
          -0.102,
          0.196,
          -0.003,
          0.13,
          0.221,
          -0.242,
          -0.015,
          -0.151,
          -0.143,
          0.197,
          0.06,
          0.269,
          0.118,
          0.185,
          -0.15,
          0.185,
          -0.205,
          -0.067,
          0.191,
          -0.253,
          -0.255,
          0.252,
          -0.183,
          -0.158,
          -0.234,
          0.062,
          -0.274,
          -0.103,
          -0.182,
          0.299,
          -0.2,
          -0.052,
          -0.09,
          0.154,
          -0.133,
          0.274,
          -0.262,
          0.014,
          0.175,
          -0.011,
          0.124,
          0.016,
          0.043,
          -0.294,
          0.162,
          0.041,
          -0.101,
          -0.254,
          -0.032,
          -0.141,
          0.029,
          -0.062,
          -0.057,
          -0.159,
          -0.113,
          0.225,
          -0.162,
          -0.285,
          -0.031
        ],
        [
          0.22,
          -0.112,
          0.073,
          -0.28,
          0.222,
          0.121,
          0.037,
          -0.131,
          0.04,
          0.123,
          -0.098,
          0.277,
          0.224,
          -0.021,
          -0.247,
          -0.136,
          -0.3,
          0.195,
          -0.135,
          -0.23,
          0.039,
          -0.095,
          -0.143,
          0.095,
          0.016,
          0.023,
          -0.095,
          0.256,
          0.188,
          -0.006,
          -0.258,
          -0.294,
          0.17,
          0.188,
          -0.195,
          -0.264,
          -0.12,
          -0.018,
          0.214,
          -0.204,
          -0.267,
          0.121,
          0.29,
          -0.125,
          0.2,
          -0.226,
          -0.116,
          0.285,
          0.202,
          -0.198,
          0.186,
          -0.245,
          -0.295,
          -0.021,
          0.132,
          0.155,
          -0.032,
          0.158,
          0.066,
          0.293,
          0.204,
          0.055,
          -0.211,
          -0.083
        ],
        [
          -0.058,
          -0.233,
          0.224,
          0.232,
          0.097,
          0.223,
          0.067,
          -0.213,
          0.176,
          0.117,
          -0.202,
          0.195,
          -0.118,
          -0.235,
          0.252,
          0.068,
          -0.234,
          0.29,
          -0.296,
          -0.041,
          -0.001,
          -0.019,
          -0.141,
          -0.184,
          -0.197,
          -0.265,
          -0.193,
          -0.211,
          0.087,
          -0.097,
          0.121,
          -0.002,
          0.031,
          -0.167,
          -0.057,
          0.086,
          0.065,
          0.138,
          0.137,
          -0.169,
          -0.253,
          -0.279,
          0,
          0.149,
          -0.186,
          0.202,
          0.283,
          -0.13,
          0.042,
          0.092,
          -0.296,
          -0.143,
          0.103,
          -0.044,
          0.291,
          0.014,
          -0.079,
          0.218,
          0.202,
          -0.18,
          -0.103,
          -0.047,
          0.061,
          0.178
        ],
        [
          -0.172,
          0.172,
          0.205,
          -0.25,
          0.105,
          -0.229,
          -0.268,
          -0.158,
          -0.031,
          -0.135,
          0.024,
          0.128,
          -0.024,
          0.215,
          -0.043,
          0.23,
          0.058,
          0.082,
          0.188,
          -0.213,
          0.05,
          -0.148,
          -0.018,
          -0.26,
          -0.205,
          0.086,
          -0.085,
          0.028,
          0.122,
          0.05,
          -0.02,
          0.163,
          -0.135,
          0.146,
          -0.072,
          -0.276,
          0.043,
          -0.069,
          0.218,
          0.078,
          0.29,
          0.177,
          0.176,
          0.212,
          -0.248,
          -0.108,
          0.176,
          -0.178,
          0.125,
          0.167,
          0.189,
          -0.168,
          0.087,
          0.171,
          -0.007,
          0.19,
          -0.171,
          -0.216,
          0.101,
          0.287,
          0.001,
          -0.117,
          0.293,
          -0.237
        ],
        [
          0.004,
          -0.136,
          -0.069,
          -0.111,
          -0.162,
          0.024,
          0.186,
          0.221,
          0.183,
          -0.253,
          0.272,
          -0.122,
          -0.119,
          0.139,
          -0.223,
          -0.006,
          0.227,
          -0.024,
          0.191,
          0.197,
          -0.098,
          -0.007,
          0.255,
          -0.129,
          -0.277,
          0.203,
          0.117,
          0.056,
          0.041,
          0.148,
          0.275,
          0.121,
          -0.035,
          -0.1,
          -0.23,
          0.266,
          0.091,
          0.167,
          0.255,
          -0.207,
          0.169,
          -0.295,
          0.083,
          0.214,
          -0.273,
          0.046,
          -0.093,
          -0.038,
          -0.22,
          -0.228,
          0.162,
          -0.07,
          -0.13,
          0.219,
          -0.241,
          -0.124,
          -0.026,
          -0.191,
          -0.209,
          -0.003,
          0.143,
          0.276,
          -0.154,
          -0.208
        ],
        [
          -0.249,
          -0.076,
          0.095,
          0.02,
          -0.02,
          -0.132,
          0.224,
          0.164,
          -0.171,
          0.217,
          0.065,
          0.132,
          -0.18,
          0.145,
          0.283,
          -0.169,
          -0.221,
          -0.022,
          -0.235,
          0.099,
          -0.155,
          0.144,
          0.298,
          -0.209,
          0.213,
          -0.032,
          -0.129,
          0.11,
          -0.162,
          -0.278,
          -0.013,
          0.037,
          -0.102,
          -0.033,
          -0.127,
          -0.149,
          -0.138,
          0.079,
          0.247,
          0.125,
          0.202,
          -0.142,
          0.022,
          0.111,
          -0.251,
          -0.077,
          -0.097,
          0.091,
          -0.11,
          0.228,
          0.184,
          -0.127,
          0.058,
          0.071,
          0.085,
          -0.252,
          -0.129,
          0.11,
          -0.016,
          0.006,
          -0.079,
          0.07,
          0.275,
          0.299
        ],
        [
          0.094,
          -0.27,
          -0.21,
          -0.174,
          -0.276,
          0.262,
          -0.113,
          -0.291,
          -0.266,
          0.017,
          -0.114,
          0.064,
          -0.015,
          -0.127,
          0.245,
          0.009,
          -0.222,
          -0.047,
          -0.249,
          -0.057,
          0.265,
          -0.095,
          -0.229,
          -0.256,
          0.299,
          0.23,
          -0.005,
          -0.017,
          -0.044,
          0.004,
          0.072,
          0.02,
          0.246,
          0.061,
          -0.228,
          -0.173,
          0.221,
          -0.297,
          -0.147,
          0.067,
          0.249,
          -0.244,
          -0.267,
          -0.236,
          -0.298,
          -0.074,
          -0.251,
          -0.232,
          0.22,
          0.122,
          0.272,
          0.243,
          -0.247,
          0.144,
          0.193,
          -0.036,
          -0.138,
          0.008,
          0.269,
          0.147,
          0.009,
          -0.041,
          -0.179,
          0.069
        ],
        [
          -0.226,
          0.163,
          0.276,
          -0.065,
          0.039,
          -0.133,
          0.252,
          0.059,
          0.269,
          0.057,
          -0.18,
          0.242,
          -0.206,
          -0.067,
          -0.253,
          -0.15,
          0.2,
          0.146,
          0.139,
          0.02,
          0.129,
          -0.017,
          -0.276,
          -0.156,
          -0.069,
          -0.096,
          0.23,
          0.189,
          -0.026,
          0.225,
          0.232,
          0.221,
          0.116,
          -0.167,
          0.229,
          -0.025,
          0.214,
          0.133,
          0.172,
          0.276,
          0.216,
          -0.178,
          0.095,
          -0.003,
          -0.214,
          0.014,
          -0.167,
          0.16,
          0.108,
          -0.002,
          0.034,
          0.201,
          -0.192,
          0.087,
          0.116,
          0.123,
          0.039,
          0.081,
          -0.196,
          0.082,
          -0.136,
          0.078,
          0.095,
          -0.004
        ],
        [
          0.046,
          -0.005,
          0.235,
          -0.046,
          -0.152,
          -0.167,
          0.135,
          0.105,
          -0.07,
          0.109,
          -0.201,
          0.071,
          0.292,
          0.047,
          0.065,
          -0.014,
          0.073,
          -0.188,
          0.257,
          0.135,
          0.024,
          -0.144,
          -0.242,
          0.283,
          0.28,
          -0.24,
          0.083,
          -0.172,
          -0.267,
          0.217,
          -0.004,
          -0.071,
          0.258,
          0.17,
          0.152,
          0.222,
          -0.295,
          0.28,
          0.195,
          -0.084,
          -0.254,
          0.262,
          -0.266,
          -0.039,
          -0.269,
          -0.073,
          -0.058,
          0.185,
          -0.159,
          0.204,
          0.299,
          -0.041,
          -0.263,
          0.163,
          -0.283,
          -0.228,
          -0.277,
          0.025,
          -0.194,
          -0.152,
          -0.187,
          -0.215,
          0.196,
          -0.018
        ],
        [
          0.22,
          0.064,
          -0.139,
          0.232,
          -0.159,
          -0.291,
          0.085,
          0.007,
          0.198,
          0.028,
          -0.028,
          -0.086,
          -0.104,
          0.136,
          0.28,
          0.047,
          -0.108,
          0.153,
          -0.248,
          0.182,
          -0.193,
          0.221,
          0.095,
          -0.28,
          0.015,
          -0.293,
          -0.266,
          -0.278,
          0.231,
          -0.26,
          -0.122,
          -0.034,
          -0.245,
          -0.13,
          0.257,
          -0.062,
          0.073,
          -0.046,
          -0.211,
          -0.207,
          -0.136,
          -0.031,
          0.072,
          -0.181,
          -0.3,
          0.235,
          0.143,
          -0.295,
          0.093,
          0.286,
          -0.092,
          0.157,
          -0.183,
          -0.034,
          0.055,
          0.251,
          0.073,
          0.238,
          0.169,
          0.012,
          -0.037,
          -0.075,
          0.066,
          -0.258
        ],
        [
          -0.062,
          -0.219,
          -0.072,
          0.27,
          0.2,
          0.156,
          0.137,
          0.11,
          0.229,
          0.167,
          0.155,
          0.017,
          0.02,
          0.14,
          0.094,
          -0.175,
          -0.022,
          0.294,
          -0.143,
          -0.27,
          -0.256,
          0.264,
          -0.11,
          -0.296,
          -0.27,
          0.055,
          0.158,
          -0.279,
          0.293,
          -0.02,
          0.096,
          -0.076,
          0.068,
          -0.071,
          -0.044,
          -0.234,
          -0.207,
          -0.063,
          0.021,
          0.25,
          -0.012,
          -0.085,
          -0.055,
          -0.041,
          0.137,
          -0.159,
          -0.117,
          0.173,
          -0.205,
          0.184,
          -0.108,
          0.02,
          -0.14,
          -0.029,
          0.27,
          0.123,
          -0.278,
          -0.008,
          -0.106,
          0.24,
          0.003,
          -0.124,
          -0.165,
          -0.225
        ],
        [
          0.133,
          -0.092,
          -0.103,
          -0.276,
          -0.017,
          -0.14,
          0.029,
          -0.266,
          -0.174,
          0.123,
          0.151,
          -0.235,
          0.114,
          -0.024,
          -0.096,
          -0.11,
          0.024,
          0.026,
          -0.098,
          -0.193,
          0.023,
          -0.232,
          0.212,
          -0.132,
          -0.168,
          0.119,
          -0.112,
          -0.238,
          0.06,
          0.286,
          0.092,
          0.236,
          0.037,
          -0.01,
          -0.136,
          -0.136,
          -0.18,
          0.153,
          -0.132,
          -0.123,
          0.219,
          0.264,
          -0.17,
          -0.123,
          -0.119,
          -0.017,
          0.228,
          0.071,
          0.092,
          -0.011,
          -0.208,
          0.028,
          -0.134,
          -0.175,
          -0.221,
          -0.275,
          0.053,
          -0.157,
          -0.074,
          -0.296,
          0.19,
          0.085,
          -0.1,
          0.198
        ],
        [
          0.266,
          0.217,
          0.089,
          0.097,
          0.239,
          0.13,
          -0.287,
          0.153,
          0.05,
          0.266,
          -0.03,
          -0.004,
          0.098,
          -0.038,
          0.245,
          0.099,
          0.155,
          -0.164,
          -0.243,
          0.255,
          0.027,
          0.117,
          0.261,
          -0.09,
          0.187,
          -0.255,
          -0.292,
          -0.062,
          -0.191,
          0.038,
          0.063,
          0.107,
          0.257,
          0.282,
          0.282,
          0.027,
          0.147,
          -0.131,
          -0.22,
          0.146,
          -0.161,
          0.277,
          -0.27,
          0.294,
          0.23,
          -0.278,
          -0.147,
          0.074,
          0.033,
          -0.287,
          -0.161,
          -0.294,
          0.157,
          -0.074,
          -0.053,
          -0.071,
          -0.091,
          0.195,
          0.268,
          -0.184,
          -0.09,
          -0.279,
          -0.269,
          -0.217
        ],
        [
          0.214,
          0.211,
          -0.208,
          -0.176,
          0.079,
          -0.106,
          -0.063,
          0.192,
          0.142,
          0.143,
          0.038,
          -0.206,
          0.205,
          -0.149,
          0.177,
          0.292,
          0.169,
          0.028,
          0.123,
          0.138,
          0.278,
          -0.192,
          -0.075,
          0.282,
          0.096,
          -0.137,
          -0.126,
          0.125,
          0.295,
          -0.185,
          0,
          0.112,
          -0.296,
          0.157,
          0.225,
          -0.021,
          0.231,
          -0.067,
          -0.136,
          0.191,
          0.134,
          0.25,
          -0.085,
          0.027,
          0.091,
          -0.235,
          0.276,
          0.206,
          -0.173,
          0.031,
          0.229,
          -0.297,
          -0.257,
          0.243,
          0.148,
          -0.298,
          0.244,
          0.008,
          -0.094,
          0.122,
          -0.12,
          0.285,
          0.043,
          0.187
        ],
        [
          -0.22,
          0.019,
          -0.169,
          -0.228,
          -0.274,
          0.059,
          -0.067,
          0.108,
          -0.225,
          -0.1,
          0.196,
          0.047,
          0.286,
          0.032,
          -0.222,
          0.261,
          0.175,
          0.228,
          -0.11,
          -0.175,
          -0.079,
          0.267,
          -0.055,
          0.298,
          -0.27,
          0.279,
          -0.089,
          -0.192,
          -0.045,
          0.142,
          0.134,
          -0.12,
          -0.031,
          -0.158,
          -0.194,
          0.269,
          -0.08,
          -0.053,
          -0.261,
          -0.005,
          0.023,
          0.24,
          0.129,
          0.243,
          -0.018,
          -0.26,
          0.06,
          -0.03,
          -0.053,
          -0.105,
          -0.194,
          -0.161,
          0.275,
          -0.16,
          -0.005,
          0.208,
          -0.253,
          0.134,
          0.046,
          -0.067,
          -0.231,
          -0.241,
          -0.128,
          -0.024
        ],
        [
          -0.24,
          0.289,
          -0.077,
          -0.225,
          -0.137,
          -0.17,
          -0.102,
          0.006,
          0.1,
          -0.246,
          0.259,
          0.27,
          -0.183,
          0.004,
          -0.266,
          -0.27,
          0.133,
          -0.206,
          0.188,
          0.158,
          -0.161,
          -0.194,
          -0.122,
          -0.082,
          0.125,
          -0.04,
          -0.129,
          0.08,
          -0.064,
          0.046,
          0.017,
          0.234,
          0.136,
          0.037,
          -0.144,
          -0.106,
          0.035,
          0.233,
          0.278,
          -0.194,
          -0.168,
          0.23,
          -0.064,
          0.159,
          0.266,
          0.258,
          0.218,
          -0.06,
          0.096,
          -0.073,
          0.294,
          -0.011,
          -0.278,
          -0.222,
          -0.167,
          0.048,
          0.219,
          0.161,
          -0.225,
          0.113,
          0.288,
          -0.097,
          -0.288,
          0.132
        ],
        [
          -0.051,
          0.239,
          -0.002,
          0.227,
          0.271,
          0.284,
          -0.151,
          -0.192,
          0.239,
          -0.23,
          0.172,
          -0.017,
          0.149,
          -0.167,
          0.246,
          0.239,
          0.166,
          0.201,
          0.072,
          -0.144,
          -0.158,
          -0.092,
          -0.018,
          0.064,
          -0.066,
          0.141,
          -0.295,
          0.134,
          0.234,
          -0.247,
          0.276,
          -0.116,
          -0.198,
          -0.006,
          0.279,
          -0.129,
          0.036,
          -0.23,
          0.038,
          0.293,
          0.175,
          0.01,
          -0.085,
          -0.24,
          0.184,
          -0.047,
          0.085,
          0.136,
          0.032,
          0.171,
          0.194,
          -0.157,
          -0.192,
          -0.02,
          0.01,
          -0.178,
          0.013,
          -0.284,
          -0.189,
          0.252,
          0.241,
          0.106,
          0.161,
          -0.041
        ],
        [
          -0.278,
          0.004,
          0.199,
          0.155,
          0.051,
          0.056,
          0.193,
          0.038,
          -0.13,
          0.146,
          -0.001,
          -0.12,
          0.231,
          0.092,
          0.292,
          -0.296,
          0.208,
          0.006,
          0.256,
          0.09,
          0.275,
          0.16,
          -0.168,
          -0.196,
          0.023,
          -0.014,
          0.252,
          -0.127,
          -0.032,
          0.173,
          -0.149,
          0.125,
          -0.09,
          -0.1,
          0.097,
          0.264,
          -0.218,
          -0.096,
          0.176,
          -0.274,
          0.234,
          -0.153,
          -0.176,
          -0.237,
          0.143,
          -0.245,
          -0.126,
          -0.092,
          -0.067,
          -0.135,
          0.277,
          0.19,
          -0.247,
          -0.288,
          0.264,
          0.257,
          -0.069,
          0.111,
          0.007,
          0.166,
          0.027,
          0.245,
          -0.166,
          -0.135
        ],
        [
          0.091,
          -0.032,
          -0.151,
          0.073,
          0.053,
          -0.072,
          -0.093,
          -0.035,
          0.243,
          0.266,
          -0.153,
          -0.01,
          0.287,
          0.281,
          -0.16,
          0.143,
          0.294,
          -0.007,
          -0.297,
          -0.296,
          0.107,
          -0.149,
          -0.198,
          -0.226,
          -0.17,
          0.045,
          0.141,
          0.103,
          0.021,
          0.26,
          0.155,
          -0.028,
          0.225,
          0.049,
          0.172,
          0.127,
          0.289,
          0.128,
          0.039,
          -0.176,
          0.097,
          0.171,
          -0.215,
          -0.105,
          -0.107,
          -0.058,
          0.111,
          -0.243,
          0.241,
          0.227,
          0.179,
          -0.008,
          0.193,
          0.097,
          0.025,
          0.166,
          0.164,
          -0.284,
          -0.299,
          -0.032,
          0.14,
          0.084,
          0.255,
          0.15
        ],
        [
          -0.144,
          0.251,
          -0.131,
          0.204,
          0.265,
          0.272,
          0.091,
          -0.117,
          0.096,
          -0.282,
          0.049,
          -0.134,
          0.203,
          -0.058,
          0.298,
          0.04,
          0.258,
          -0.165,
          -0.04,
          -0.141,
          -0.046,
          0.141,
          -0.297,
          -0.131,
          0.293,
          -0.132,
          0.032,
          0.113,
          -0.168,
          0.006,
          -0.218,
          -0.098,
          0.185,
          0.22,
          -0.254,
          -0.046,
          0.053,
          0.103,
          0.009,
          -0.28,
          -0.232,
          0.188,
          0.094,
          0.275,
          0.106,
          -0.138,
          -0.023,
          0.279,
          -0.034,
          0.184,
          0.236,
          -0.121,
          0.271,
          0.174,
          0.059,
          -0.105,
          0.082,
          -0.041,
          -0.055,
          -0.249,
          0.223,
          0.296,
          0.242,
          0.024
        ],
        [
          -0.136,
          -0.112,
          -0.146,
          -0.1,
          -0.007,
          -0.005,
          -0.094,
          -0.256,
          -0.001,
          -0.061,
          -0.123,
          -0.044,
          -0.052,
          0.187,
          -0.298,
          0.141,
          -0.292,
          -0.098,
          0.064,
          0.055,
          0.076,
          0.163,
          -0.076,
          0.128,
          -0.155,
          -0.065,
          -0.175,
          0.218,
          0.2,
          0.282,
          0.016,
          -0.125,
          -0.257,
          -0.273,
          0.071,
          -0.212,
          -0.217,
          0.274,
          0.247,
          0.093,
          0.116,
          0.16,
          -0.097,
          0.123,
          0.273,
          -0.268,
          -0.175,
          -0.163,
          -0.223,
          -0.031,
          0.154,
          0.084,
          -0.15,
          -0.217,
          0.199,
          -0.29,
          -0.186,
          0.004,
          -0.069,
          0.211,
          -0.264,
          0.102,
          0.028,
          0.104
        ],
        [
          -0.163,
          0.113,
          0.103,
          0.296,
          0.157,
          0.261,
          -0.025,
          0.212,
          0.102,
          -0.065,
          0.184,
          -0.151,
          0.265,
          0.037,
          -0.013,
          0.074,
          0.274,
          0.298,
          0.102,
          0.031,
          -0.285,
          0.23,
          -0.196,
          -0.255,
          0.003,
          0.237,
          0.19,
          0.077,
          0.298,
          -0.018,
          0.124,
          -0.034,
          -0.226,
          0.13,
          0.297,
          -0.229,
          -0.109,
          -0.292,
          -0.109,
          0.056,
          -0.3,
          -0.216,
          0.286,
          -0.034,
          0.088,
          -0.288,
          -0.001,
          0.066,
          -0.114,
          -0.107,
          0.275,
          -0.209,
          0.166,
          -0.099,
          -0.027,
          -0.055,
          -0.174,
          0.101,
          0.235,
          0.296,
          -0.079,
          -0.254,
          -0.144,
          0.191
        ],
        [
          0.199,
          0.046,
          0.084,
          0.146,
          0.013,
          -0.118,
          0.157,
          -0.183,
          -0.01,
          0.238,
          -0.092,
          0.102,
          -0.046,
          -0.131,
          0.035,
          -0.291,
          -0.058,
          -0.259,
          -0.167,
          -0.103,
          0.215,
          -0.037,
          -0.223,
          -0.249,
          0.036,
          0.251,
          -0.086,
          0.129,
          -0.178,
          0.209,
          0,
          -0.131,
          0.162,
          0.238,
          -0.241,
          0.075,
          0.266,
          0.091,
          -0.017,
          0.258,
          0.224,
          -0.193,
          -0.027,
          -0.266,
          -0.035,
          0.114,
          -0.154,
          0.162,
          -0.202,
          0.084,
          0.144,
          0.288,
          -0.128,
          -0.276,
          -0.114,
          0.174,
          -0.297,
          0.125,
          -0.259,
          0.199,
          -0.044,
          0.135,
          0.125,
          0.238
        ],
        [
          -0.203,
          0.241,
          0.029,
          0.168,
          -0.024,
          -0.233,
          -0.06,
          0.295,
          -0.016,
          -0.142,
          0.134,
          -0.135,
          -0.181,
          -0.155,
          0.235,
          0.023,
          -0.14,
          -0.174,
          0.261,
          0.123,
          0.181,
          -0.051,
          -0.025,
          0.082,
          -0.247,
          -0.188,
          -0.129,
          0.031,
          -0.123,
          0.116,
          0.208,
          0.132,
          0.288,
          0.108,
          -0.169,
          -0.265,
          0.266,
          -0.078,
          -0.251,
          -0.249,
          0.2,
          0.179,
          0.007,
          0.03,
          -0.051,
          0.156,
          -0.294,
          0.145,
          0.098,
          -0.171,
          -0.242,
          0.157,
          -0.288,
          0.237,
          0.102,
          0.209,
          -0.124,
          0.266,
          0.27,
          0.082,
          0.213,
          -0.045,
          -0.023,
          0.049
        ],
        [
          0.185,
          -0.061,
          -0.167,
          0.128,
          -0.066,
          0.23,
          -0.274,
          -0.197,
          0.274,
          0.123,
          0.076,
          -0.194,
          -0.27,
          -0.059,
          -0.084,
          -0.169,
          -0.082,
          -0.22,
          0.03,
          -0.132,
          0.261,
          -0.041,
          -0.038,
          -0.128,
          0.148,
          0.056,
          0.215,
          -0.024,
          0.057,
          0.044,
          -0.23,
          -0.164,
          0.061,
          -0.143,
          0.046,
          -0.01,
          0.298,
          -0.091,
          -0.267,
          -0.061,
          -0.032,
          0.134,
          -0.232,
          -0.114,
          0.123,
          -0.185,
          -0.256,
          0.156,
          -0.243,
          0.136,
          -0.264,
          0.136,
          -0.001,
          -0.116,
          -0.179,
          -0.204,
          0.12,
          -0.269,
          -0.087,
          -0.221,
          0.294,
          0.291,
          0.256,
          0.007
        ],
        [
          0.116,
          0.028,
          -0.107,
          -0.229,
          -0.121,
          -0.071,
          0.019,
          0.09,
          -0.082,
          -0.133,
          -0.199,
          -0.005,
          -0.211,
          0.205,
          0.232,
          -0.171,
          0.144,
          0.185,
          -0.05,
          0.288,
          0.282,
          0.216,
          -0.213,
          0.228,
          -0.087,
          -0.231,
          0.191,
          -0.223,
          0.096,
          -0.259,
          0.282,
          -0.241,
          0.14,
          0.051,
          -0.105,
          -0.156,
          -0.171,
          0.171,
          0.211,
          -0.215,
          0.037,
          0.054,
          0.266,
          -0.281,
          -0.135,
          0.076,
          -0.285,
          0.023,
          0.293,
          -0.059,
          -0.22,
          0.028,
          -0.25,
          -0.04,
          0.11,
          0.238,
          0.076,
          -0.157,
          0.281,
          -0.245,
          0.036,
          0.036,
          0.091,
          0.242
        ],
        [
          0.089,
          -0.09,
          -0.264,
          -0.108,
          0.244,
          0.24,
          0.088,
          -0.177,
          -0.154,
          -0.295,
          0.12,
          0.296,
          0.011,
          -0.089,
          0.272,
          -0.162,
          0.009,
          0.051,
          0.1,
          0.214,
          -0.252,
          0.234,
          0.134,
          -0.267,
          -0.216,
          0.189,
          0.243,
          0.271,
          -0.156,
          -0.194,
          0.294,
          -0.188,
          -0.172,
          0.027,
          0.002,
          -0.038,
          0.176,
          0.228,
          -0.135,
          -0.227,
          -0.184,
          -0.182,
          0.017,
          0.217,
          -0.094,
          0.234,
          -0.152,
          0.147,
          -0.144,
          0.201,
          -0.021,
          0.172,
          -0.03,
          -0.265,
          -0.212,
          0.044,
          -0.201,
          0.01,
          -0.08,
          0.232,
          -0.07,
          0.058,
          0.291,
          -0.09
        ],
        [
          -0.052,
          -0.273,
          -0.263,
          0.012,
          0.189,
          0.255,
          -0.197,
          -0.296,
          0.2,
          -0.194,
          -0.027,
          0.242,
          0.064,
          -0.169,
          0.202,
          0.147,
          0.3,
          0.183,
          0.03,
          -0.044,
          -0.164,
          -0.164,
          -0.073,
          0.13,
          0.177,
          0.087,
          -0.239,
          0.164,
          -0.188,
          -0.115,
          0.297,
          0.116,
          -0.287,
          0.137,
          0.1,
          0.246,
          -0.108,
          0.2,
          -0.038,
          0.024,
          0.207,
          -0.192,
          -0.007,
          0.041,
          0.102,
          0.267,
          0.276,
          0.178,
          -0.195,
          0.114,
          -0.157,
          0.217,
          -0.187,
          0.234,
          -0.192,
          -0.033,
          -0.134,
          -0.16,
          -0.103,
          -0.185,
          0.17,
          -0.017,
          0.086,
          0.117
        ],
        [
          0.253,
          0.005,
          0.142,
          0.039,
          0,
          0.268,
          -0.017,
          0.225,
          -0.261,
          0.042,
          0.058,
          -0.101,
          -0.259,
          -0.135,
          -0.211,
          0.177,
          -0.095,
          -0.222,
          0.072,
          -0.184,
          -0.224,
          0.204,
          0.26,
          0.229,
          -0.129,
          -0.269,
          -0.024,
          -0.295,
          -0.111,
          -0.159,
          -0.298,
          -0.242,
          0.105,
          -0.014,
          -0.098,
          -0.161,
          -0.194,
          0.008,
          -0.195,
          0.176,
          0.13,
          -0.169,
          -0.121,
          0.115,
          0.228,
          -0.247,
          -0.171,
          -0.173,
          0.24,
          -0.022,
          -0.262,
          0.218,
          0.293,
          0.131,
          -0.116,
          -0.269,
          -0.197,
          0.017,
          -0.148,
          -0.07,
          0.275,
          0.067,
          0.297,
          -0.186
        ],
        [
          -0.178,
          -0.244,
          0.132,
          -0.172,
          -0.082,
          0.178,
          -0.003,
          0.134,
          0.132,
          -0.021,
          -0.09,
          0.224,
          -0.146,
          -0.297,
          0.282,
          -0.291,
          -0.082,
          0.013,
          -0.212,
          -0.261,
          0.202,
          -0.173,
          -0.101,
          0.297,
          -0.02,
          0.026,
          -0.187,
          0.072,
          -0.157,
          -0.128,
          -0.156,
          -0.161,
          -0.144,
          -0.273,
          0.29,
          0.02,
          0.057,
          -0.288,
          0.288,
          -0.054,
          0.245,
          -0.045,
          0.17,
          -0.173,
          0.297,
          0.027,
          -0.208,
          0.254,
          0.039,
          0.005,
          0.294,
          -0.123,
          -0.045,
          0.106,
          0.124,
          -0.287,
          -0.279,
          -0.171,
          0.116,
          0.234,
          0.047,
          0.071,
          0.018,
          -0.091
        ],
        [
          -0.221,
          -0.246,
          -0.133,
          0.294,
          0.032,
          0.011,
          -0.075,
          0.263,
          -0.034,
          0.1,
          -0.105,
          0.23,
          -0.132,
          0.265,
          -0.09,
          0.107,
          0.02,
          0.102,
          0.094,
          -0.036,
          -0.194,
          -0.071,
          0.266,
          -0.129,
          -0.14,
          -0.027,
          -0.002,
          -0.253,
          0.122,
          0.123,
          -0.096,
          0.079,
          0.003,
          -0.247,
          0.109,
          0.217,
          -0.144,
          -0.063,
          0.003,
          -0.26,
          0.295,
          0.179,
          0.034,
          -0.208,
          -0.079,
          -0.109,
          0.253,
          -0.28,
          0.298,
          -0.142,
          0.008,
          0.218,
          -0.258,
          0.239,
          0.06,
          -0.083,
          -0.103,
          0.04,
          0.191,
          0.003,
          -0.145,
          0.249,
          -0.115,
          0.246
        ],
        [
          0.198,
          0.129,
          0.045,
          -0.046,
          -0.107,
          0.194,
          0.215,
          -0.298,
          -0.154,
          0.223,
          0.064,
          0.248,
          -0.256,
          -0.058,
          -0.026,
          0.038,
          0.247,
          -0.224,
          -0.221,
          -0.207,
          0.095,
          -0.095,
          -0.14,
          0.257,
          0.275,
          0.194,
          0.069,
          0.017,
          -0.017,
          -0.279,
          -0.253,
          0.099,
          -0.285,
          0.175,
          -0.191,
          -0.197,
          0.2,
          0.148,
          -0.188,
          -0.197,
          0.251,
          0.274,
          -0.051,
          0.214,
          0.122,
          0.126,
          0.185,
          0.099,
          0.079,
          0.267,
          0.191,
          -0.159,
          0.197,
          -0.101,
          0.233,
          0.212,
          -0.069,
          -0.072,
          0.182,
          0.027,
          -0.201,
          0.176,
          0.09,
          -0.026
        ],
        [
          0.119,
          -0.121,
          -0.201,
          -0.122,
          -0.004,
          -0.021,
          0.106,
          0.096,
          0.148,
          0.024,
          -0.175,
          0.194,
          -0.078,
          -0.13,
          -0.245,
          0.089,
          0.176,
          -0.096,
          -0.163,
          0.251,
          0.132,
          -0.184,
          -0.199,
          -0.017,
          -0.069,
          0.282,
          -0.286,
          -0.247,
          -0.032,
          0.025,
          0.032,
          0.204,
          0.099,
          0.146,
          0.225,
          0.237,
          -0.258,
          -0.167,
          -0.202,
          -0.134,
          -0.208,
          -0.156,
          0.003,
          0.172,
          0.19,
          -0.026,
          -0.17,
          0.3,
          -0.291,
          0.023,
          -0.213,
          0.168,
          0.156,
          0.047,
          -0.154,
          -0.134,
          -0.081,
          0.055,
          0.046,
          -0.13,
          -0.04,
          -0.033,
          0.191,
          -0.119
        ],
        [
          -0.116,
          0.299,
          -0.122,
          -0.228,
          -0.006,
          -0.213,
          0.099,
          0.239,
          -0.163,
          -0.245,
          -0.029,
          0.231,
          0.173,
          0.052,
          -0.005,
          0.061,
          0.286,
          0.084,
          0.104,
          0.022,
          0.089,
          0.062,
          0.016,
          -0.283,
          0.162,
          0.189,
          -0.064,
          0.224,
          0.165,
          0.22,
          -0.043,
          0.012,
          0.12,
          0.042,
          -0.182,
          -0.069,
          0.133,
          -0.166,
          0.072,
          0.055,
          0.116,
          -0.246,
          -0.183,
          0.007,
          -0.012,
          0.222,
          -0.164,
          -0.039,
          0.296,
          0.168,
          -0.013,
          -0.109,
          -0.121,
          -0.278,
          0.272,
          0.177,
          0.162,
          0.042,
          -0.185,
          0.152,
          -0.015,
          -0.099,
          0.119,
          -0.22
        ],
        [
          -0.104,
          -0.145,
          -0.046,
          -0.216,
          0.053,
          -0.212,
          0.251,
          -0.242,
          -0.23,
          -0.24,
          0.211,
          0.158,
          -0.271,
          -0.294,
          -0.112,
          -0.262,
          -0.221,
          0.101,
          0.169,
          -0.112,
          0.052,
          -0.264,
          -0.094,
          -0.284,
          -0.222,
          0.06,
          0.205,
          -0.019,
          0.073,
          0.294,
          0.242,
          0.299,
          -0.256,
          -0.047,
          0.046,
          0.062,
          0.178,
          -0.218,
          -0.161,
          -0.01,
          0.185,
          0.031,
          0.2,
          -0.243,
          0.101,
          0.017,
          0.195,
          0.069,
          -0.276,
          -0.242,
          0.276,
          -0.017,
          0.279,
          0.263,
          -0.047,
          0.239,
          0.286,
          0.233,
          0.011,
          0.114,
          -0.22,
          0.027,
          -0.183,
          0.246
        ],
        [
          0.038,
          0.001,
          -0.296,
          -0.18,
          0.202,
          0.224,
          -0.132,
          0.144,
          -0.021,
          0.224,
          -0.286,
          -0.285,
          -0.173,
          0.29,
          -0.259,
          0.261,
          -0.246,
          0.197,
          -0.017,
          -0.183,
          0.038,
          0.041,
          -0.01,
          0.176,
          -0.299,
          0.281,
          0.163,
          0.026,
          0.216,
          0.035,
          -0.138,
          -0.111,
          -0.243,
          -0.15,
          0.208,
          -0.194,
          0.198,
          0.214,
          -0.026,
          0.076,
          0.164,
          0.161,
          0.024,
          -0.141,
          -0.292,
          0.195,
          -0.138,
          -0.075,
          -0.219,
          0.141,
          -0.005,
          -0.181,
          0.085,
          -0.209,
          -0.006,
          0.265,
          0.054,
          -0.081,
          0.098,
          0.297,
          -0.25,
          -0.119,
          -0.032,
          0.234
        ],
        [
          -0.189,
          0.128,
          0.094,
          -0.059,
          0.055,
          0.116,
          0.193,
          -0.235,
          0.253,
          -0.07,
          -0.02,
          -0.046,
          0.171,
          -0.091,
          0.076,
          -0.081,
          0.019,
          -0.298,
          0.187,
          -0.146,
          0.142,
          0.109,
          0.094,
          0.261,
          -0.086,
          0.286,
          0.144,
          -0.107,
          -0.17,
          0.082,
          -0.194,
          0.204,
          -0.211,
          0.038,
          -0.226,
          0.115,
          0.175,
          -0.206,
          0.206,
          -0.248,
          -0.102,
          -0.075,
          0.259,
          -0.087,
          -0.152,
          0.22,
          -0.263,
          -0.117,
          0.089,
          0.052,
          -0.271,
          -0.157,
          -0.263,
          -0.232,
          0.063,
          -0.069,
          0.24,
          -0.062,
          0.161,
          0.122,
          0.05,
          0.138,
          0.066,
          -0.01
        ],
        [
          -0.224,
          0.107,
          0.089,
          0.11,
          -0.171,
          -0.112,
          0.081,
          -0.169,
          0.006,
          -0.167,
          -0.058,
          -0.138,
          -0.203,
          0.154,
          -0.246,
          -0.203,
          -0.192,
          -0.123,
          0.023,
          -0.296,
          0.057,
          0.108,
          -0.146,
          -0.047,
          -0.077,
          -0.037,
          0.164,
          0.044,
          0.081,
          0.16,
          -0.141,
          0.198,
          -0.189,
          -0.159,
          -0.226,
          0.048,
          -0.204,
          0.3,
          -0.055,
          0.091,
          0.123,
          0.293,
          -0.193,
          0.293,
          -0.072,
          -0.282,
          0.006,
          -0.113,
          0.089,
          -0.064,
          -0.23,
          0.115,
          -0.128,
          -0.268,
          0.21,
          -0.197,
          -0.109,
          -0.201,
          -0.222,
          0.027,
          0.232,
          -0.27,
          0.006,
          0.245
        ],
        [
          -0.281,
          -0.273,
          0.125,
          0.102,
          0.029,
          0.012,
          -0.197,
          0.239,
          -0.274,
          0.082,
          0.175,
          0.188,
          0.072,
          0.107,
          -0.208,
          0.233,
          0.051,
          -0.028,
          -0.129,
          0.151,
          -0.005,
          0.268,
          0.009,
          0.277,
          -0.126,
          -0.027,
          0.145,
          -0.23,
          -0.217,
          0.119,
          0.223,
          -0.2,
          0.217,
          0.184,
          -0.174,
          -0.244,
          0.125,
          0.034,
          0.028,
          -0.044,
          0.143,
          -0.047,
          -0.171,
          0.009,
          0.172,
          0.123,
          0.226,
          -0.025,
          0.133,
          0.218,
          -0.183,
          0.024,
          -0.125,
          -0.289,
          0.241,
          0.033,
          -0.004,
          -0.253,
          0.085,
          0.082,
          -0.234,
          0.001,
          0.14,
          -0.079
        ],
        [
          0.113,
          0.117,
          -0.032,
          -0.056,
          -0.033,
          0.235,
          0.239,
          0.046,
          0.056,
          -0.018,
          -0.27,
          0.087,
          -0.155,
          0.076,
          0.075,
          0.119,
          -0.103,
          0.105,
          -0.156,
          -0.194,
          0.047,
          -0.12,
          0.17,
          -0.141,
          -0.148,
          -0.285,
          -0.057,
          -0.241,
          0.255,
          -0.085,
          -0.049,
          -0.225,
          0.205,
          -0.176,
          0.108,
          0.028,
          -0.241,
          0.155,
          0.175,
          -0.139,
          -0.234,
          -0.282,
          0.098,
          -0.021,
          0.27,
          -0.183,
          -0.228,
          0.256,
          0.012,
          0.196,
          0.159,
          -0.038,
          0.242,
          0.291,
          -0.286,
          -0.252,
          0.274,
          -0.233,
          -0.12,
          0.293,
          -0.268,
          -0.183,
          -0.138,
          0.248
        ],
        [
          0.215,
          -0.272,
          0.004,
          0.297,
          -0.111,
          -0.178,
          -0.17,
          -0.139,
          -0.015,
          0.06,
          0.157,
          0.008,
          -0.148,
          0.234,
          -0.292,
          0.095,
          0.125,
          -0.242,
          -0.134,
          -0.149,
          0.105,
          -0.117,
          -0.233,
          -0.258,
          -0.284,
          -0.069,
          0.222,
          -0.196,
          0.154,
          0.099,
          -0.151,
          -0.266,
          0.066,
          0.126,
          -0.099,
          -0.286,
          0.177,
          -0.151,
          0.132,
          0.163,
          0.042,
          0.215,
          0.237,
          0.288,
          0.017,
          -0.295,
          0.146,
          0.084,
          -0.212,
          -0.252,
          0.07,
          -0.122,
          0.021,
          -0.128,
          0.109,
          0.255,
          -0.184,
          0.149,
          -0.064,
          0.224,
          0.115,
          -0.026,
          0.2,
          0.013
        ],
        [
          0.141,
          0.046,
          -0.068,
          0.124,
          -0.279,
          -0.096,
          -0.102,
          0.243,
          -0.289,
          -0.261,
          -0.164,
          -0.26,
          0.284,
          0.25,
          0.261,
          0.244,
          -0.1,
          -0.269,
          0.278,
          0.148,
          -0.017,
          0.008,
          -0.299,
          -0.257,
          -0.284,
          0.144,
          0.224,
          0.127,
          -0.052,
          -0.211,
          0.163,
          0.117,
          0.189,
          0.231,
          -0.193,
          0.013,
          0.134,
          -0.204,
          0.166,
          0.278,
          -0.093,
          -0.213,
          0.069,
          0.078,
          0.06,
          0.243,
          0.291,
          -0.007,
          -0.122,
          0.184,
          -0.088,
          0.01,
          0.093,
          0.162,
          -0.282,
          -0.08,
          0.151,
          -0.196,
          -0.035,
          -0.291,
          0.121,
          -0.243,
          0.269,
          0.198
        ],
        [
          0.294,
          0.231,
          0.09,
          -0.046,
          -0.135,
          0.052,
          -0.124,
          0.106,
          0.227,
          -0.263,
          -0.23,
          -0.148,
          -0.018,
          -0.221,
          -0.087,
          -0.2,
          0.037,
          -0.186,
          -0.236,
          -0.015,
          0.02,
          0.12,
          -0.252,
          0.205,
          -0.044,
          0.078,
          -0.043,
          -0.029,
          -0.295,
          -0.269,
          0.03,
          0.255,
          0.066,
          -0.255,
          -0.2,
          -0.292,
          0.298,
          0.178,
          -0.21,
          0.284,
          0.045,
          0.065,
          0.195,
          0.017,
          0.075,
          -0.085,
          -0.046,
          -0.063,
          -0.221,
          0.191,
          -0.152,
          0.195,
          0.084,
          0.179,
          -0.084,
          -0.115,
          -0.161,
          0.224,
          -0.002,
          0.094,
          0.275,
          0.147,
          -0.185,
          0.207
        ],
        [
          -0.01,
          -0.236,
          -0.232,
          -0.106,
          0.141,
          0.126,
          -0.217,
          0.057,
          0.283,
          -0.151,
          -0.128,
          0.066,
          0.121,
          -0.202,
          0.102,
          0.242,
          -0.241,
          -0.099,
          0.117,
          -0.199,
          0.192,
          0.152,
          -0.295,
          0.26,
          -0.131,
          -0.008,
          0.182,
          0.197,
          0.167,
          -0.042,
          0.139,
          -0.259,
          0.062,
          -0.249,
          0.244,
          0.065,
          0.243,
          -0.129,
          0.198,
          -0.076,
          0.261,
          0.274,
          -0.085,
          -0.235,
          0.185,
          -0.053,
          -0.098,
          0.261,
          -0.064,
          0.207,
          -0.024,
          -0.131,
          -0.11,
          0.281,
          -0.157,
          0.206,
          -0.022,
          -0.155,
          0.091,
          -0.256,
          0.256,
          0.289,
          0.12,
          0.078
        ],
        [
          0.059,
          0.183,
          0.182,
          -0.139,
          0.284,
          -0.083,
          -0.084,
          -0.069,
          0.121,
          -0.034,
          0.2,
          -0.187,
          -0.199,
          -0.054,
          -0.259,
          0.16,
          0.259,
          0.135,
          0.256,
          -0.087,
          0.184,
          -0.03,
          0.055,
          0.255,
          0.044,
          -0.213,
          -0.035,
          0.181,
          -0.213,
          -0.231,
          0.141,
          -0.199,
          -0.188,
          0.022,
          0.114,
          0.038,
          -0.042,
          0.131,
          -0.285,
          0.21,
          -0.121,
          -0.165,
          -0.279,
          -0.007,
          0.132,
          -0.144,
          -0.241,
          0.093,
          0.011,
          0.151,
          -0.183,
          -0.02,
          -0.189,
          -0.225,
          -0.174,
          -0.165,
          0.23,
          -0.214,
          -0.299,
          -0.038,
          -0.106,
          0.219,
          -0.231,
          0.202
        ],
        [
          -0.26,
          0.145,
          -0.051,
          -0.255,
          0.191,
          0.105,
          0.107,
          0.293,
          -0.269,
          -0.132,
          -0.033,
          0.009,
          0.237,
          -0.221,
          -0.05,
          -0.264,
          0.204,
          0.061,
          0.292,
          -0.092,
          -0.173,
          0.254,
          -0.21,
          -0.103,
          -0.058,
          -0.225,
          -0.023,
          -0.198,
          -0.095,
          -0.203,
          0.244,
          0.222,
          0.257,
          -0.004,
          0.207,
          0.034,
          -0.095,
          -0.172,
          -0.146,
          0.096,
          0.235,
          -0.197,
          0.261,
          0.141,
          -0.031,
          0.271,
          0.127,
          -0.168,
          -0.222,
          -0.266,
          0.122,
          -0.212,
          -0.253,
          -0.25,
          0.156,
          0.068,
          -0.175,
          0.294,
          -0.043,
          0.182,
          -0.008,
          0.124,
          -0.106,
          0.051
        ],
        [
          0.299,
          -0.094,
          -0.151,
          -0.048,
          -0.082,
          -0.26,
          0.063,
          -0.042,
          -0.169,
          -0.246,
          0.035,
          -0.026,
          -0.017,
          0.01,
          -0.219,
          0.081,
          -0.186,
          -0.212,
          -0.098,
          0.011,
          -0.174,
          0.128,
          -0.035,
          -0.096,
          0.255,
          0.16,
          0.092,
          0.257,
          0.266,
          0.028,
          0.182,
          0.187,
          0.088,
          -0.086,
          0.214,
          0.277,
          0.092,
          0.055,
          -0.003,
          0.053,
          -0.193,
          -0.108,
          0.283,
          -0.023,
          0.278,
          -0.015,
          -0.164,
          0.272,
          0.1,
          -0.173,
          0.166,
          -0.174,
          0.015,
          0.057,
          -0.259,
          0.196,
          0.229,
          0.289,
          -0.293,
          -0.17,
          0.266,
          0.249,
          -0.157,
          0.078
        ],
        [
          0.283,
          -0.246,
          0.157,
          0.291,
          -0.169,
          0.283,
          0.159,
          -0.276,
          -0.096,
          0.276,
          -0.079,
          -0.234,
          0.151,
          -0.275,
          -0.218,
          -0.29,
          0.256,
          -0.091,
          0.026,
          -0.106,
          0.225,
          -0.184,
          -0.067,
          0.189,
          -0.076,
          0.136,
          0.263,
          -0.231,
          -0.182,
          -0.203,
          -0.252,
          -0.215,
          -0.263,
          0.108,
          0.204,
          0.081,
          0.144,
          -0.184,
          0.139,
          -0.281,
          -0.147,
          0.087,
          0.162,
          0.094,
          0.206,
          -0.032,
          -0.062,
